{"learner":{"attributes":{"scikit_learn":"{\"_estimator_type\": \"regressor\"}"},"feature_names":["drawdown","sentiment_gap","body_sentiment_gap","hyg_ret","sentiment_shock","vol_ratio","rsi_14","uup_shock_5","bb_pos","vol_shock","tlt_shock_5","dist_to_ma5","target_spy_rel_ret","rel_strength_5","ret_accel"],"feature_types":["float","float","float","float","float","float","float","float","float","float","float","float","float","float","float"],"gradient_booster":{"model":{"cats":{"enc":[],"feature_segments":[],"sorted_idx":[]},"gbtree_model_param":{"num_parallel_tree":"1","num_trees":"100"},"iteration_indptr":[0,1,2,3,4,5,6,7,8,9,10,11,12,13,14,15,16,17,18,19,20,21,22,23,24,25,26,27,28,29,30,31,32,33,34,35,36,37,38,39,40,41,42,43,44,45,46,47,48,49,50,51,52,53,54,55,56,57,58,59,60,61,62,63,64,65,66,67,68,69,70,71,72,73,74,75,76,77,78,79,80,81,82,83,84,85,86,87,88,89,90,91,92,93,94,95,96,97,98,99,100],"tree_info":[0,0,0,0,0,0,0,0,0,0,0,0,0,0,0,0,0,0,0,0,0,0,0,0,0,0,0,0,0,0,0,0,0,0,0,0,0,0,0,0,0,0,0,0,0,0,0,0,0,0,0,0,0,0,0,0,0,0,0,0,0,0,0,0,0,0,0,0,0,0,0,0,0,0,0,0,0,0,0,0,0,0,0,0,0,0,0,0,0,0,0,0,0,0,0,0,0,0,0,0],"trees":[{"base_weights":[-6.1573066E-2,2.1600113E0,-1.16444655E-1,2.6794233E0,-8.690507E-1,4.4071046E-1,-3.453276E-1,7.048064E-1,2.9166527E0,-2.4873058E-3,-1.20948E-2,6.042825E-1,-1.2805818E0,5.3235266E-2,-3.6527213E-1,1.2807861E-2,9.223806E-4,3.3130962E-2,9.9289045E-3,-2.2279082E-2,7.093274E-3,-6.658352E-2,3.3046948E-3,3.5690404E-2,-3.9112694E-3],"categories":[],"categories_nodes":[],"categories_segments":[],"categories_sizes":[],"default_left":[0,0,0,0,0,0,0,0,0,0,0,0,0,0,0,0,0,0,0,0,0,0,0,0,0],"id":0,"left_children":[1,3,5,7,9,11,13,15,17,-1,-1,19,21,-1,23,-1,-1,-1,-1,-1,-1,-1,-1,-1,-1],"loss_changes":[1.4665565E2,4.7955154E1,1.4973701E2,9.655258E0,7.3665094E-1,9.7065765E1,9.540648E1,1.2750825E0,1.2646332E1,0E0,0E0,8.998648E1,2.5957068E2,0E0,7.67662E1,0E0,0E0,0E0,0E0,0E0,0E0,0E0,0E0,0E0,0E0],"parents":[2147483647,0,0,1,1,2,2,3,3,4,4,5,5,6,6,7,7,8,8,11,11,12,12,14,14],"right_children":[2,4,6,8,10,12,14,16,18,-1,-1,20,22,-1,24,-1,-1,-1,-1,-1,-1,-1,-1,-1,-1],"split_conditions":[2.2391298E1,-2.2560418E-2,1.1675156E0,-2.6659957E-1,-1.6146895E-2,1.5480205E0,-3.3826044E-1,1.1178396E0,2.1616558E1,-2.4873058E-3,-1.20948E-2,-2.827668E-1,-1.0503993E-1,5.3235266E-2,-5.188965E-2,1.2807861E-2,9.223806E-4,3.3130962E-2,9.9289045E-3,-2.2279082E-2,7.093274E-3,-6.658352E-2,3.3046948E-3,3.5690404E-2,-3.9112694E-3],"split_indices":[6,0,5,0,0,9,0,5,6,0,0,0,0,0,3,0,0,0,0,0,0,0,0,0,0],"split_type":[0,0,0,0,0,0,0,0,0,0,0,0,0,0,0,0,0,0,0,0,0,0,0,0,0],"sum_hessian":[1.2E3,2.8E1,1.172E3,2.4E1,4E0,3.41E2,8.31E2,3E0,2.1E1,2E0,2E0,3.12E2,2.9E1,2E0,8.29E2,1E0,2E0,1.7E1,4E0,1E1,3.02E2,6E0,2.3E1,4E0,8.25E2],"tree_param":{"num_deleted":"0","num_feature":"15","num_nodes":"25","size_leaf_vector":"1"}},{"base_weights":[-5.6092735E-2,3.6604945E-2,-1.0606565E0,1.5014402E0,-9.8581724E-2,-2.4980671E0,4.6100922E-2,-3.742189E-1,2.4883113E0,-7.1327426E-2,-4.2388325E0,-1.7806151E0,-5.365496E-2,1.0220174E0,-1.774748E0,1.3380636E-2,-2.4967179E-2,-8.2568E-3,2.7964642E-2,-4.387226E-3,1.0867239E-3,1.3612655E-2,-8.829375E-2,-2.4452042E-2,1.0416296E-2,1.30709205E-2,-1.8708698E-2,-2.4123147E-2,1.631386E-2],"categories":[],"categories_nodes":[],"categories_segments":[],"categories_sizes":[],"default_left":[0,0,0,0,0,0,0,0,0,0,0,0,0,0,0,0,0,0,0,0,0,0,0,0,0,0,0,0,0],"id":1,"left_children":[1,3,5,7,9,11,13,15,17,19,21,23,-1,25,27,-1,-1,-1,-1,-1,-1,-1,-1,-1,-1,-1,-1,-1,-1],"loss_changes":[1.1904711E2,2.3203668E2,1.719286E2,1.8418352E2,1.2077457E2,8.598566E1,1.1198761E2,1.2883006E2,6.4507416E1,6.975922E1,1.8919629E2,7.367835E1,0E0,3.5041443E1,5.0295044E1,0E0,0E0,0E0,0E0,0E0,0E0,0E0,0E0,0E0,0E0,0E0,0E0,0E0,0E0],"parents":[2147483647,0,0,1,1,2,2,3,3,4,4,5,5,6,6,7,7,8,8,9,9,10,10,11,11,13,13,14,14],"right_children":[2,4,6,8,10,12,14,16,18,20,22,24,-1,26,28,-1,-1,-1,-1,-1,-1,-1,-1,-1,-1,-1,-1,-1,-1],"split_conditions":[1.0792036E-3,-1.9396484E-1,-1.1157076E-1,-8.1281054E-1,4.4619378E-2,9.360865E-3,5.9414897E-3,5.160645E1,-5.2208185E-2,-6.2220297E-3,-7.341166E-1,5.6493694E1,-5.365496E-2,7.228588E-1,7.0653404E1,1.3380636E-2,-2.4967179E-2,-8.2568E-3,2.7964642E-2,-4.387226E-3,1.0867239E-3,1.3612655E-2,-8.829375E-2,-2.4452042E-2,1.0416296E-2,1.30709205E-2,-1.8708698E-2,-2.4123147E-2,1.631386E-2],"split_indices":[1,0,0,1,10,11,11,6,14,10,1,6,0,1,6,0,0,0,0,0,0,0,0,0,0,0,0,0,0],"split_type":[0,0,0,0,0,0,0,0,0,0,0,0,0,0,0,0,0,0,0,0,0,0,0,0,0,0,0,0,0],"sum_hessian":[1.277E3,1.17E3,1.07E2,9.8E1,1.072E3,4.6E1,6.1E1,3.4E1,6.4E1,1.066E3,6E0,3.8E1,8E0,4E1,2.1E1,1.9E1,1.5E1,5E0,5.9E1,3.51E2,7.15E2,3E0,3E0,3.1E1,7E0,3.7E1,3E0,1.8E1,3E0],"tree_param":{"num_deleted":"0","num_feature":"15","num_nodes":"29","size_leaf_vector":"1"}},{"base_weights":[-1.0522637E-1,1.4346478E0,-1.7197782E-1,4.7599187E0,8.1160754E-1,-2.2715054E-1,1.5182201E0,6.0956668E-2,5.836553E-1,-4.5484573E-2,1.6334124E0,-1.11119874E-1,-9.9664944E-1,-3.2226555E-2,1.7322809E0,-3.3832195E-3,1.219724E-2,7.2534494E-3,-3.8900293E-2,6.9107413E-3,4.230525E-2,1.7828915E-2,-1.6177162E-3,-5.1626798E-2,-7.3646405E-3,9.682144E-3,2.8172534E-2],"categories":[],"categories_nodes":[],"categories_segments":[],"categories_sizes":[],"default_left":[0,0,0,0,0,0,0,0,0,0,0,0,0,0,0,0,0,0,0,0,0,0,0,0,0,0,0],"id":2,"left_children":[1,3,5,7,9,11,13,-1,15,17,19,21,23,-1,25,-1,-1,-1,-1,-1,-1,-1,-1,-1,-1,-1,-1],"loss_changes":[1.2862997E2,1.03869255E2,1.1206176E2,3.972592E1,3.1770605E1,1.03549675E2,4.3932762E1,0E0,2.1395226E0,7.005312E1,5.3063198E1,9.45013E1,1.6274228E2,0E0,2.7703094E1,0E0,0E0,0E0,0E0,0E0,0E0,0E0,0E0,0E0,0E0,0E0,0E0],"parents":[2147483647,0,0,1,1,2,2,3,3,4,4,5,5,6,6,8,8,9,9,10,10,11,11,12,12,14,14],"right_children":[2,4,6,8,10,12,14,-1,16,18,20,22,24,-1,26,-1,-1,-1,-1,-1,-1,-1,-1,-1,-1,-1,-1],"split_conditions":[-3.5465384E-1,-1.45489955E-2,3.0718863E-2,-1.4495748E-2,-4.95287E-1,6.5845513E-4,-2.976613E-1,6.0956668E-2,-5.188965E-2,1.33821415E-2,1.7399115E-2,-2.7139825E-1,-2.234665E-2,-3.2226555E-2,5.8300802E-3,-3.3832195E-3,1.219724E-2,7.2534494E-3,-3.8900293E-2,6.9107413E-3,4.230525E-2,1.7828915E-2,-1.6177162E-3,-5.1626798E-2,-7.3646405E-3,9.682144E-3,2.8172534E-2],"split_indices":[4,3,3,12,4,4,0,0,3,14,14,0,3,0,10,0,0,0,0,0,0,0,0,0,0,0,0],"split_type":[0,0,0,0,0,0,0,0,0,0,0,0,0,0,0,0,0,0,0,0,0,0,0,0,0,0,0],"sum_hessian":[1.248E3,5.1E1,1.197E3,7E0,4.4E1,1.16E3,3.7E1,5E0,2E0,2.2E1,2.2E1,1.009E3,1.51E2,1E0,3.6E1,1E0,1E0,1.9E1,3E0,1.7E1,5E0,2.5E1,9.84E2,8E0,1.43E2,2.2E1,1.4E1],"tree_param":{"num_deleted":"0","num_feature":"15","num_nodes":"27","size_leaf_vector":"1"}},{"base_weights":[8.128723E-2,6.0637635E-1,-1.20222874E-1,1.3872948E0,1.9613217E-1,-9.2859544E-2,-3.1664681E0,8.239859E-1,4.1344743E0,1.7455288E0,1.2448789E-1,9.8252046E-1,-1.6717838E-1,-3.683473E-2,1.4064924E-3,-4.4648718E-2,1.1552095E-2,9.64848E-3,4.9015194E-2,2.5199162E-2,-1.6527422E-4,1.6818838E-3,-2.22038E-2,1.274455E-2,-4.666002E-2,-2.83084E-3,5.6309854E-3],"categories":[],"categories_nodes":[],"categories_segments":[],"categories_sizes":[],"default_left":[0,0,0,0,0,0,0,0,0,0,0,0,0,0,0,0,0,0,0,0,0,0,0,0,0,0,0],"id":3,"left_children":[1,3,5,7,9,11,13,15,17,19,21,23,25,-1,-1,-1,-1,-1,-1,-1,-1,-1,-1,-1,-1,-1,-1],"loss_changes":[1.320189E2,1.1057496E2,7.489256E1,1.8074704E2,2.5091938E1,7.1693535E1,1.3531334E1,1.751954E2,4.196747E1,1.3387199E1,2.2090746E1,9.818993E1,6.95636E1,0E0,0E0,0E0,0E0,0E0,0E0,0E0,0E0,0E0,0E0,0E0,0E0,0E0,0E0],"parents":[2147483647,0,0,1,1,2,2,3,3,4,4,5,5,6,6,7,7,8,8,9,9,10,10,11,11,12,12],"right_children":[2,4,6,8,10,12,14,16,18,20,22,24,26,-1,-1,-1,-1,-1,-1,-1,-1,-1,-1,-1,-1,-1,-1],"split_conditions":[1.1675156E0,-3.7388068E-2,6.804193E-1,1.0407934E-2,-2.1087047E-2,3.083644E1,-3.946065E-2,-4.2793356E-2,-2.827668E-1,1.1153702E0,3.35148E-1,1.6168151E0,1.8233161E0,-3.683473E-2,1.4064924E-3,-4.4648718E-2,1.1552095E-2,9.64848E-3,4.9015194E-2,2.5199162E-2,-1.6527422E-4,1.6818838E-3,-2.22038E-2,1.274455E-2,-4.666002E-2,-2.83084E-3,5.6309854E-3],"split_indices":[5,0,4,7,3,6,0,3,0,5,4,5,5,0,0,0,0,0,0,0,0,0,0,0,0,0,0],"split_type":[0,0,0,0,0,0,0,0,0,0,0,0,0,0,0,0,0,0,0,0,0,0,0,0,0,0,0],"sum_hessian":[1.246E3,3.45E2,9.01E2,1.18E2,2.27E2,8.94E2,7E0,9.9E1,1.9E1,9E0,2.18E2,5.7E1,8.37E2,6E0,1E0,5E0,9.4E1,4E0,1.5E1,6E0,3E0,2.15E2,3E0,5.5E1,2E0,7.24E2,1.13E2],"tree_param":{"num_deleted":"0","num_feature":"15","num_nodes":"27","size_leaf_vector":"1"}},{"base_weights":[4.372655E-2,1.0798523E0,-4.557001E-2,-1.2033925E0,1.298609E0,1.5174139E-2,-1.9394854E0,-2.8404245E0,8.85276E-2,4.396825E0,9.8050743E-1,3.3955565E-1,-2.2774701E-1,-4.4752192E0,1.0086575E0,-3.263739E-2,-8.236484E-3,1.296907E-2,-1.550957E-2,4.8404656E-2,7.645764E-3,-5.8303545E-3,1.2646381E-2,1.3324201E-2,1.7302213E-3,-6.2747985E-2,-2.0954271E-3,-4.434336E-4,-5.027707E-2,-3.8847474E-3,2.0370906E-2],"categories":[],"categories_nodes":[],"categories_segments":[],"categories_sizes":[],"default_left":[0,0,0,0,0,0,0,0,0,0,0,0,0,0,0,0,0,0,0,0,0,0,0,0,0,0,0,0,0,0,0],"id":4,"left_children":[1,3,5,7,9,11,13,15,17,19,21,23,25,27,29,-1,-1,-1,-1,-1,-1,-1,-1,-1,-1,-1,-1,-1,-1,-1,-1],"loss_changes":[1.1311166E2,5.0011833E1,1.2956927E2,1.9285686E1,8.340263E1,8.6125984E1,2.6616367E2,5.9480286E-1,1.3710592E1,8.312256E0,3.597863E1,7.699177E1,7.2306076E1,4.3452606E1,2.483741E1,0E0,0E0,0E0,0E0,0E0,0E0,0E0,0E0,0E0,0E0,0E0,0E0,0E0,0E0,0E0,0E0],"parents":[2147483647,0,0,1,1,2,2,3,3,4,4,5,5,6,6,7,7,8,8,9,9,10,10,11,11,12,12,13,13,14,14],"right_children":[2,4,6,8,10,12,14,16,18,20,22,24,26,28,30,-1,-1,-1,-1,-1,-1,-1,-1,-1,-1,-1,-1,-1,-1,-1,-1],"split_conditions":[-1.5048634E-2,-8.9398694E-1,1.21306926E-1,1.3696016E0,-7.967307E-1,-1.7114988E-2,-2.0262791E-1,-1.1975825E-1,0E0,-3.418878E-2,-4.3026693E-2,-1.9396484E-1,-1.6965361E-2,8.5810155E-2,3.2867591E-3,-3.263739E-2,-8.236484E-3,1.296907E-2,-1.550957E-2,4.8404656E-2,7.645764E-3,-5.8303545E-3,1.2646381E-2,1.3324201E-2,1.7302213E-3,-6.2747985E-2,-2.0954271E-3,-4.434336E-4,-5.027707E-2,-3.8847474E-3,2.0370906E-2],"split_indices":[13,1,1,9,1,1,0,0,4,0,4,0,1,4,7,0,0,0,0,0,0,0,0,0,0,0,0,0,0,0,0],"split_type":[0,0,0,0,0,0,0,0,0,0,0,0,0,0,0,0,0,0,0,0,0,0,0,0,0,0,0,0,0,0,0],"sum_hessian":[1.221E3,9.6E1,1.125E3,8E0,8.8E1,1.091E3,3.4E1,3E0,5E0,7E0,8.1E1,4.67E2,6.24E2,1.8E1,1.6E1,2E0,1E0,3E0,2E0,6E0,1E0,1.2E1,6.9E1,6.7E1,4E2,1E0,6.23E2,2E0,1.6E1,7E0,9E0],"tree_param":{"num_deleted":"0","num_feature":"15","num_nodes":"31","size_leaf_vector":"1"}},{"base_weights":[-4.865003E-2,-6.9897614E-2,4.3683314E0,-4.535518E-2,-3.4353523E0,6.811093E-2,-2.8380653E-1,1.1217971E0,-1.0789581E-1,-4.3586925E-2,-2.0407487E-1,-9.663108E-3,5.3772274E-3,3.9137125E-2,1.777424E-3,-1.3550542E-2,-3.5604133E-4,2.4859498E-3,-5.567769E-3],"categories":[],"categories_nodes":[],"categories_segments":[],"categories_sizes":[],"default_left":[0,0,0,0,0,0,0,0,0,0,0,0,0,0,0,0,0,0,0],"id":5,"left_children":[1,3,5,7,9,-1,11,13,15,-1,17,-1,-1,-1,-1,-1,-1,-1,-1],"loss_changes":[1.1761806E2,1.0267677E2,6.882768E1,9.041514E1,2.5117325E1,0E0,2.1714263E0,1.6400888E2,1.0546428E2,0E0,6.087064E-1,0E0,0E0,0E0,0E0,0E0,0E0,0E0,0E0],"parents":[2147483647,0,0,1,1,2,2,3,3,4,4,6,6,7,7,8,8,10,10],"right_children":[2,4,6,8,10,-1,12,14,16,-1,18,-1,-1,-1,-1,-1,-1,-1,-1],"split_conditions":[5.167933E-2,7.228588E-1,-2.3763308E-1,-3.1614542E-1,-5.1370803E-2,6.811093E-2,-5.7578987E-1,-1.2843481E-2,-3.0257726E-2,-4.3586925E-2,-1.3953851E-2,-9.663108E-3,5.3772274E-3,3.9137125E-2,1.777424E-3,-1.3550542E-2,-3.5604133E-4,2.4859498E-3,-5.567769E-3],"split_indices":[12,1,0,4,0,0,1,12,10,0,0,0,0,0,0,0,0,0,0],"split_type":[0,0,0,0,0,0,0,0,0,0,0,0,0,0,0,0,0,0,0],"sum_hessian":[1.249E3,1.244E3,5E0,1.236E3,8E0,3E0,2E0,6.2E1,1.174E3,6E0,2E0,1E0,1E0,1.5E1,4.7E1,6.4E1,1.11E3,1E0,1E0],"tree_param":{"num_deleted":"0","num_feature":"15","num_nodes":"19","size_leaf_vector":"1"}},{"base_weights":[-5.0665893E-2,1.2029886E0,-1.2856957E-1,4.7740116E0,6.1706454E-1,-1.3244223E-2,-8.1766295E-1,6.0701273E-2,2.3127878E0,9.246924E-1,-1.976057E0,1.2118877E0,-1.2926637E-1,-4.0202627E0,-6.0846764E-1,2.6882814E-2,4.4449815E-3,-9.424224E-3,1.256033E-2,-2.316041E-2,-7.819055E-3,2.3422342E-2,4.7718934E-3,-1.6850652E-3,3.720938E-2,-1.9400809E-2,-5.76679E-2,-1.1432475E-2,5.127881E-3],"categories":[],"categories_nodes":[],"categories_segments":[],"categories_sizes":[],"default_left":[0,0,0,0,0,0,0,0,0,0,0,0,0,0,0,0,0,0,0,0,0,0,0,0,0,0,0,0,0],"id":6,"left_children":[1,3,5,7,9,11,13,-1,15,17,19,21,23,25,27,-1,-1,-1,-1,-1,-1,-1,-1,-1,-1,-1,-1,-1,-1],"loss_changes":[1.2018409E2,1.4770322E2,9.201535E1,1.6952377E1,5.2083374E1,1.413041E2,1.0876859E2,0E0,2.1654053E0,3.5416794E1,9.3717E-1,6.963048E1,1.3298083E2,2.4709564E1,9.308301E1,0E0,0E0,0E0,0E0,0E0,0E0,0E0,0E0,0E0,0E0,0E0,0E0,0E0,0E0],"parents":[2147483647,0,0,1,1,2,2,3,3,4,4,5,5,6,6,8,8,9,9,10,10,11,11,12,12,13,13,14,14],"right_children":[2,4,6,8,10,12,14,-1,16,18,20,22,24,26,28,-1,-1,-1,-1,-1,-1,-1,-1,-1,-1,-1,-1,-1,-1],"split_conditions":[-3.6313424E-1,-1.4294699E-2,1.1569878E-2,3.9715302E-1,9.866168E-1,-1.2993485E-2,-2.6872877E-2,6.0701273E-2,-1.202593E-2,4.4133076E-1,-4.0126267E-1,-1.082706E-1,3.0908588E-2,-1.2551057E-2,1.158375E0,2.6882814E-2,4.4449815E-3,-9.424224E-3,1.256033E-2,-2.316041E-2,-7.819055E-3,2.3422342E-2,4.7718934E-3,-1.6850652E-3,3.720938E-2,-1.9400809E-2,-5.76679E-2,-1.1432475E-2,5.127881E-3],"split_indices":[2,12,2,8,8,13,12,0,13,9,2,0,13,11,9,0,0,0,0,0,0,0,0,0,0,0,0,0,0],"split_type":[0,0,0,0,0,0,0,0,0,0,0,0,0,0,0,0,0,0,0,0,0,0,0,0,0,0,0,0,0],"sum_hessian":[1.228E3,7.1E1,1.157E3,9E0,6.2E1,9.92E2,1.65E2,5E0,4E0,5.6E1,6E0,8.5E1,9.07E2,9E0,1.56E2,3E0,1E0,8E0,4.8E1,4E0,2E0,3.3E1,5.2E1,8.99E2,8E0,5E0,4E0,1.06E2,5E1],"tree_param":{"num_deleted":"0","num_feature":"15","num_nodes":"29","size_leaf_vector":"1"}},{"base_weights":[9.312462E-3,7.558829E-1,-7.9995275E-2,-9.896563E-1,1.1199276E0,2.4134265E-2,-8.798308E-1,1.5454687E-2,-1.5713601E0,3.4417307E0,9.341319E-1,-1.3703349E-2,1.9924115E0,-2.541859E0,1.774935E-1,-1.9599903E-2,1.2133814E-2,1.0666515E-2,4.0866747E-2,-1.3576001E-2,1.1418964E-2,-1.5607447E-2,2.9590726E-4,4.8782382E-2,1.1624253E-2,-3.1324334E-2,2.2634465E-2,4.218826E-3,-6.28485E-2],"categories":[],"categories_nodes":[],"categories_segments":[],"categories_sizes":[],"default_left":[0,0,0,0,0,0,0,0,0,0,0,0,0,0,0,0,0,0,0,0,0,0,0,0,0,0,0,0,0],"id":7,"left_children":[1,3,5,7,9,11,13,-1,15,17,19,21,23,25,27,-1,-1,-1,-1,-1,-1,-1,-1,-1,-1,-1,-1,-1,-1],"loss_changes":[8.4870445E1,8.753015E1,9.471799E1,3.765988E1,4.553105E1,7.502354E1,2.306578E2,0E0,2.3196804E1,7.46756E0,4.9944145E1,6.553577E1,3.9820595E1,1.461308E2,1.2823257E2,0E0,0E0,0E0,0E0,0E0,0E0,0E0,0E0,0E0,0E0,0E0,0E0,0E0,0E0],"parents":[2147483647,0,0,1,1,2,2,3,3,4,4,5,5,6,6,8,8,9,9,10,10,11,11,12,12,13,13,14,14],"right_children":[2,4,6,8,10,12,14,-1,16,18,20,22,24,26,28,-1,-1,-1,-1,-1,-1,-1,-1,-1,-1,-1,-1,-1,-1],"split_conditions":[-1.227979E-2,-2.616827E-2,4.180492E-2,-5.8539305E-2,-2.3639816E-1,3.6702935E-2,-6.593679E-3,1.5454687E-2,-8.271685E-3,-5.6287575E-1,-5.6901902E-2,-2.4170883E-2,-1.6175691E-2,1.8057082E-2,2.3214212E-2,-1.9599903E-2,1.2133814E-2,1.0666515E-2,4.0866747E-2,-1.3576001E-2,1.1418964E-2,-1.5607447E-2,2.9590726E-4,4.8782382E-2,1.1624253E-2,-3.1324334E-2,2.2634465E-2,4.218826E-3,-6.28485E-2],"split_indices":[13,10,4,10,4,12,10,0,12,4,4,11,11,12,11,0,0,0,0,0,0,0,0,0,0,0,0,0,0],"split_type":[0,0,0,0,0,0,0,0,0,0,0,0,0,0,0,0,0,0,0,0,0,0,0,0,0,0,0,0,0],"sum_hessian":[1.271E3,1.35E2,1.136E3,2.3E1,1.12E2,1.006E3,1.3E2,4E0,1.9E1,7E0,1.05E2,9.88E2,1.8E1,5E1,8E1,1.7E1,2E0,2E0,5E0,8E0,9.7E1,2.6E1,9.62E2,3E0,1.5E1,4.5E1,5E0,7.8E1,2E0],"tree_param":{"num_deleted":"0","num_feature":"15","num_nodes":"29","size_leaf_vector":"1"}},{"base_weights":[8.065729E-3,1.1869093E-1,-8.753798E-1,4.5430207E-1,-1.9063282E-1,-1.5376279E0,2.6196219E-2,1.8332781E0,2.1319842E-1,3.4882646E0,-2.3595488E-1,-1.2291596E0,-5.085799E0,-5.1123077E-1,1.1845284E0,-5.465605E-3,2.4718389E-2,6.919218E-3,2.1654105E-5,5.4265793E-2,7.191559E-3,8.887266E-3,-3.2754266E-3,3.3036433E-2,-1.4094959E-2,-6.648309E-2,-1.3759572E-2,-1.1639409E-2,4.703734E-3,2.2299916E-2,-2.0796733E-3],"categories":[],"categories_nodes":[],"categories_segments":[],"categories_sizes":[],"default_left":[0,0,0,0,0,0,0,0,0,0,0,0,0,0,0,0,0,0,0,0,0,0,0,0,0,0,0,0,0,0,0],"id":8,"left_children":[1,3,5,7,9,11,13,15,17,19,21,23,25,27,29,-1,-1,-1,-1,-1,-1,-1,-1,-1,-1,-1,-1,-1,-1,-1,-1],"loss_changes":[1.2031345E2,1.1365748E2,8.1838455E1,1.7415912E2,9.586217E1,8.021413E1,3.7334187E1,1.1660785E2,4.482215E1,3.3079407E1,5.668702E1,6.1628326E1,2.4844986E1,2.6410877E1,2.7694256E1,0E0,0E0,0E0,0E0,0E0,0E0,0E0,0E0,0E0,0E0,0E0,0E0,0E0,0E0,0E0,0E0],"parents":[2147483647,0,0,1,1,2,2,3,3,4,4,5,5,6,6,7,7,8,8,9,9,10,10,11,11,12,12,13,13,14,14],"right_children":[2,4,6,8,10,12,14,16,18,20,22,24,26,28,30,-1,-1,-1,-1,-1,-1,-1,-1,-1,-1,-1,-1,-1,-1,-1,-1],"split_conditions":[2.8902775E-2,1.2858027E0,5.453878E1,-9.918192E-3,-4.0807758E-2,1.8403927E-2,1.8057082E-2,1.0243344E0,-1.11933134E-1,1.430894E0,-3.6194098E-1,-4.425517E-2,4.5218586E1,1.4792815E0,1.1141141E-2,-5.465605E-3,2.4718389E-2,6.919218E-3,2.1654105E-5,5.4265793E-2,7.191559E-3,8.887266E-3,-3.2754266E-3,3.3036433E-2,-1.4094959E-2,-6.648309E-2,-1.3759572E-2,-1.1639409E-2,4.703734E-3,2.2299916E-2,-2.0796733E-3],"split_indices":[4,5,6,11,12,11,12,5,2,5,2,12,6,5,11,0,0,0,0,0,0,0,0,0,0,0,0,0,0,0,0],"split_type":[0,0,0,0,0,0,0,0,0,0,0,0,0,0,0,0,0,0,0,0,0,0,0,0,0,0,0,0,0,0,0],"sum_hessian":[1.229E3,1.093E3,1.36E2,5.24E2,5.69E2,7.8E1,5.8E1,7.7E1,4.47E2,6E0,5.63E2,7.3E1,5E0,4E1,1.8E1,1.6E1,6.1E1,1.37E2,3.1E2,3E0,3E0,4.1E1,5.22E2,2E0,7.1E1,3E0,2E0,2.4E1,1.6E1,1E1,8E0],"tree_param":{"num_deleted":"0","num_feature":"15","num_nodes":"31","size_leaf_vector":"1"}},{"base_weights":[-3.9281793E-2,-3.285915E-1,2.987424E-1,2.3960378E0,-4.485931E-1,-5.5601654E0,3.2943156E-1,-1.4508511E-1,4.048828E0,-7.8902984E-1,-7.756446E-2,-1.5686583E-2,-6.827978E-2,1.051536E0,3.761479E-2,-2.1061745E-2,1.09726E-2,5.6598146E-2,2.4016922E-2,1.8258182E-2,-8.568013E-3,-1.1080905E-2,1.1458882E-3,1.61753E-3,1.45759955E-2,-1.5252415E-2,1.193948E-3],"categories":[],"categories_nodes":[],"categories_segments":[],"categories_sizes":[],"default_left":[0,0,0,0,0,0,0,0,0,0,0,0,0,0,0,0,0,0,0,0,0,0,0,0,0,0,0],"id":9,"left_children":[1,3,5,7,9,11,13,15,17,19,21,-1,-1,23,25,-1,-1,-1,-1,-1,-1,-1,-1,-1,-1,-1,-1],"loss_changes":[1.1979763E2,2.1686844E2,1.0342139E2,1.1818582E2,7.989415E1,4.103607E0,1.18597015E2,3.1133263E1,3.1065552E1,5.480742E1,5.9649014E1,0E0,0E0,5.69581E1,5.072226E1,0E0,0E0,0E0,0E0,0E0,0E0,0E0,0E0,0E0,0E0,0E0,0E0],"parents":[2147483647,0,0,1,1,2,2,3,3,4,4,5,5,6,6,7,7,8,8,9,9,10,10,13,13,14,14],"right_children":[2,4,6,8,10,12,14,16,18,20,22,-1,-1,24,26,-1,-1,-1,-1,-1,-1,-1,-1,-1,-1,-1,-1],"split_conditions":[2.8814594E-3,-3.689397E-1,-5.2346718E-2,8.7038475E-1,5.8470943E1,-7.8780246E-1,-4.961807E-3,-5.2504567E-3,-1.7624898E-2,2.1616558E1,-2.1722205E-2,-1.5686583E-2,-6.827978E-2,-3.1733324E-3,3.5873524E1,-2.1061745E-2,1.09726E-2,5.6598146E-2,2.4016922E-2,1.8258182E-2,-8.568013E-3,-1.1080905E-2,1.1458882E-3,1.61753E-3,1.45759955E-2,-1.5252415E-2,1.193948E-3],"split_indices":[10,2,11,9,6,1,11,7,10,6,10,0,0,7,6,0,0,0,0,0,0,0,0,0,0,0,0],"split_type":[0,0,0,0,0,0,0,0,0,0,0,0,0,0,0,0,0,0,0,0,0,0,0,0,0,0,0],"sum_hessian":[1.223E3,6.59E2,5.64E2,2.7E1,6.32E2,2E0,5.62E2,1.1E1,1.6E1,3.29E2,3.03E2,1E0,1E0,1.61E2,4.01E2,4E0,7E0,7E0,9E0,7E0,3.22E2,4.7E1,2.56E2,5E1,1.11E2,1.9E1,3.82E2],"tree_param":{"num_deleted":"0","num_feature":"15","num_nodes":"27","size_leaf_vector":"1"}},{"base_weights":[-2.4409676E-2,8.731023E-2,-1.3397195E0,-1.2645762E-2,1.1073723E0,-6.238798E-1,-3.2980494E0,5.5434483E-1,-2.3433213E-1,5.447764E-1,2.9365516E0,-2.5802553E-1,-3.1968405E0,-6.055243E0,-1.7362276E0,3.774641E-3,3.171602E-2,-1.9414185E-3,-2.8132444E-2,9.036872E-4,2.014416E-2,2.3111299E-2,4.1933425E-2,8.4864045E-4,-1.3205159E-2,-3.6037933E-2,-6.787149E-4,-6.516869E-2,-1.3653443E-2,1.3106574E-2,-2.0049827E-2],"categories":[],"categories_nodes":[],"categories_segments":[],"categories_sizes":[],"default_left":[0,0,0,0,0,0,0,0,0,0,0,0,0,0,0,0,0,0,0,0,0,0,0,0,0,0,0,0,0,0,0],"id":10,"left_children":[1,3,5,7,9,11,13,15,17,19,21,23,25,27,29,-1,-1,-1,-1,-1,-1,-1,-1,-1,-1,-1,-1,-1,-1,-1,-1],"loss_changes":[1.8394676E2,1.1767736E2,1.3532375E2,1.3236009E2,1.04396385E2,6.789212E1,1.0144913E2,1.3668246E2,7.987393E1,5.2824554E1,9.337921E0,2.3554482E1,1.0538795E1,8.893372E0,1.6553352E1,0E0,0E0,0E0,0E0,0E0,0E0,0E0,0E0,0E0,0E0,0E0,0E0,0E0,0E0,0E0,0E0],"parents":[2147483647,0,0,1,1,2,2,3,3,4,4,5,5,6,6,7,7,8,8,9,9,10,10,11,11,12,12,13,13,14,14],"right_children":[2,4,6,8,10,12,14,16,18,20,22,24,26,28,30,-1,-1,-1,-1,-1,-1,-1,-1,-1,-1,-1,-1,-1,-1,-1,-1],"split_conditions":[1.631496E-1,1.8373676E-2,1.2572161E-2,-4.7973124E-3,5.013348E-3,1.2803237E0,4.657826E1,2.0366576E-2,5.0987825E-2,3.0685258E-3,2.6330644E-2,5.808961E-1,4.5518646E-1,7.96237E-3,4.8630245E1,3.774641E-3,3.171602E-2,-1.9414185E-3,-2.8132444E-2,9.036872E-4,2.014416E-2,2.3111299E-2,4.1933425E-2,8.4864045E-4,-1.3205159E-2,-3.6037933E-2,-6.787149E-4,-6.516869E-2,-1.3653443E-2,1.3106574E-2,-2.0049827E-2],"split_indices":[4,3,11,11,14,9,6,7,14,7,14,4,4,14,6,0,0,0,0,0,0,0,0,0,0,0,0,0,0,0,0],"split_type":[0,0,0,0,0,0,0,0,0,0,0,0,0,0,0,0,0,0,0,0,0,0,0,0,0,0,0,0,0,0,0],"sum_hessian":[1.25E3,1.153E3,9.7E1,1.051E3,1.02E2,7.2E1,2.5E1,2.95E2,7.56E2,7.9E1,2.3E1,6.4E1,8E0,8E0,1.7E1,2.77E2,1.8E1,7.45E2,1.1E1,6.1E1,1.8E1,1.7E1,6E0,4.9E1,1.5E1,7E0,1E0,7E0,1E0,1E0,1.6E1],"tree_param":{"num_deleted":"0","num_feature":"15","num_nodes":"31","size_leaf_vector":"1"}},{"base_weights":[-2.2862008E-2,-7.055801E-2,1.5723494E0,-2.4988877E-2,-1.5077266E0,1.9881344E0,-1.8338802E-1,3.2598772E0,-4.4225957E-2,5.709532E-1,-3.2176557E0,1.4016416E0,4.1004987E0,-1.6008556E-2,5.5425726E-3,2.4239395E-3,5.500961E-2,-2.7947515E-2,-1.8936273E-4,-2.5940733E-2,1.1330539E-2,-3.560193E-2,1.5881212E-2,-7.457154E-3,1.6310912E-2,4.9048003E-2,1.2266635E-3],"categories":[],"categories_nodes":[],"categories_segments":[],"categories_sizes":[],"default_left":[0,0,0,0,0,0,0,0,0,0,0,0,0,0,0,0,0,0,0,0,0,0,0,0,0,0,0],"id":11,"left_children":[1,3,5,7,9,11,13,15,17,19,21,23,25,-1,-1,-1,-1,-1,-1,-1,-1,-1,-1,-1,-1,-1,-1],"loss_changes":[9.696742E1,8.097411E1,2.7374939E1,7.597365E1,1.3690414E2,3.1419167E1,9.134784E0,4.5266296E1,8.2850395E1,3.431565E1,3.7663376E1,1.2902412E1,1.7820335E1,0E0,0E0,0E0,0E0,0E0,0E0,0E0,0E0,0E0,0E0,0E0,0E0,0E0,0E0],"parents":[2147483647,0,0,1,1,2,2,3,3,4,4,5,5,6,6,7,7,8,8,9,9,10,10,11,11,12,12],"right_children":[2,4,6,8,10,12,14,16,18,20,22,24,26,-1,-1,-1,-1,-1,-1,-1,-1,-1,-1,-1,-1,-1,-1],"split_conditions":[3.1836268E-2,1.2033891E-1,1.6413458E-2,-8.488095E-2,-1.2843481E-2,4.990709E-2,5.9503543E-1,3.5622466E-2,-4.2793356E-2,1.4290312E-1,9.1874045E-1,-3.0668056E-2,-5.7578987E-1,-1.6008556E-2,5.5425726E-3,2.4239395E-3,5.500961E-2,-2.7947515E-2,-1.8936273E-4,-2.5940733E-2,1.1330539E-2,-3.560193E-2,1.5881212E-2,-7.457154E-3,1.6310912E-2,4.9048003E-2,1.2266635E-3],"split_indices":[3,1,12,3,12,3,9,12,3,1,8,12,1,0,0,0,0,0,0,0,0,0,0,0,0,0,0],"split_type":[0,0,0,0,0,0,0,0,0,0,0,0,0,0,0,0,0,0,0,0,0,0,0,0,0,0,0],"sum_hessian":[1.272E3,1.236E3,3.6E1,1.199E3,3.7E1,2.9E1,7E0,6E0,1.193E3,1.7E1,2E1,2.4E1,5E0,2E0,5E0,3E0,3E0,1E1,1.183E3,2E0,1.5E1,1.9E1,1E0,2E0,2.2E1,4E0,1E0],"tree_param":{"num_deleted":"0","num_feature":"15","num_nodes":"27","size_leaf_vector":"1"}},{"base_weights":[5.6274854E-2,3.31223E0,1.6311971E-2,2.9958358E-2,4.8014483E0,1.4274573E0,-3.4059044E-2,-1.7565541E-2,1.3535058E0,1.8168207E-2,5.266897E0,3.1220338E0,6.9034785E-2,-8.250747E-2,1.3740633E0,4.692869E-3,2.0213835E-2,5.6652002E-2,1.2004788E-2,-3.160297E-3,4.317268E-2,-1.0191511E-2,8.136065E-3,-2.0961875E-4,-1.0585676E-2,-5.5516134E-3,2.4808675E-2],"categories":[],"categories_nodes":[],"categories_segments":[],"categories_sizes":[],"default_left":[0,0,0,0,0,0,0,0,0,0,0,0,0,0,0,0,0,0,0,0,0,0,0,0,0,0,0],"id":12,"left_children":[1,3,5,7,9,11,13,-1,15,-1,17,19,21,23,25,-1,-1,-1,-1,-1,-1,-1,-1,-1,-1,-1,-1],"loss_changes":[1.7170087E2,7.806447E1,9.2809105E1,1.6455067E1,5.8388214E0,1.0337225E2,8.6140434E1,0E0,1.3865252E0,0E0,6.5008545E0,8.14888E1,2.159802E1,7.289882E1,8.951968E1,0E0,0E0,0E0,0E0,0E0,0E0,0E0,0E0,0E0,0E0,0E0,0E0],"parents":[2147483647,0,0,1,1,2,2,3,3,4,4,5,5,6,6,8,8,10,10,11,11,12,12,13,13,14,14],"right_children":[2,4,6,8,10,12,14,-1,16,-1,18,20,22,24,26,-1,-1,-1,-1,-1,-1,-1,-1,-1,-1,-1,-1],"split_conditions":[-3.1971666E-1,3.2497353E1,-3.7845325E-2,8.772441E-1,8.5149103E-1,-8.897072E-2,3.1617135E-2,-1.7565541E-2,-3.3219883E-1,1.8168207E-2,-4.113456E-3,-2.5031638E-1,-1.256597E-2,1.5758495E0,7.9141104E-1,4.692869E-3,2.0213835E-2,5.6652002E-2,1.2004788E-2,-3.160297E-3,4.317268E-2,-1.0191511E-2,8.136065E-3,-2.0961875E-4,-1.0585676E-2,-5.5516134E-3,2.4808675E-2],"split_indices":[0,6,8,9,9,0,12,0,0,0,13,0,13,9,9,0,0,0,0,0,0,0,0,0,0,0,0],"split_type":[0,0,0,0,0,0,0,0,0,0,0,0,0,0,0,0,0,0,0,0,0,0,0,0,0,0,0],"sum_hessian":[1.319E3,1.5E1,1.304E3,5E0,1E1,4.4E1,1.26E3,2E0,3E0,2E0,8E0,1.9E1,2.5E1,1.219E3,4.1E1,2E0,1E0,7E0,1E0,5E0,1.4E1,1E1,1.5E1,1.147E3,7.2E1,1.5E1,2.6E1],"tree_param":{"num_deleted":"0","num_feature":"15","num_nodes":"27","size_leaf_vector":"1"}},{"base_weights":[-4.273368E-2,1.3721166E0,-1.3051513E-1,3.5236633E0,2.8848185E-3,-3.351974E-1,5.4869336E-1,4.479355E0,2.076377E0,-5.8215904E-1,1.2117832E0,-1.4879384E0,-2.0558108E-1,2.405378E0,2.9674962E-1,5.8927E-2,2.7791815E-2,3.3817627E-2,8.606029E-3,1.2873621E-2,-1.2937046E-2,1.7097677E-3,2.394407E-2,-1.7552676E-2,3.2266345E-2,-2.906358E-3,9.142474E-3,5.437369E-2,1.1898413E-2,-1.3376649E-2,5.5028596E-3],"categories":[],"categories_nodes":[],"categories_segments":[],"categories_sizes":[],"default_left":[0,0,0,0,0,0,0,0,0,0,0,0,0,0,0,0,0,0,0,0,0,0,0,0,0,0,0,0,0,0,0],"id":13,"left_children":[1,3,5,7,9,11,13,15,17,19,21,23,25,27,29,-1,-1,-1,-1,-1,-1,-1,-1,-1,-1,-1,-1,-1,-1,-1,-1],"loss_changes":[1.5306633E2,2.1209941E2,1.6144934E2,2.9427582E1,3.2532085E1,1.329714E2,1.2511904E2,2.1623016E1,1.7497738E1,4.2189014E1,1.782838E1,1.1351874E2,7.4580444E1,1.1089847E2,9.737782E1,0E0,0E0,0E0,0E0,0E0,0E0,0E0,0E0,0E0,0E0,0E0,0E0,0E0,0E0,0E0,0E0],"parents":[2147483647,0,0,1,1,2,2,3,3,4,4,5,5,6,6,7,7,8,8,9,9,10,10,11,11,12,12,13,13,14,14],"right_children":[2,4,6,8,10,12,14,16,18,20,22,24,26,28,30,-1,-1,-1,-1,-1,-1,-1,-1,-1,-1,-1,-1,-1,-1,-1,-1],"split_conditions":[-3.6194098E-1,5.0607307E1,1.2645659E-2,-4.7973124E-3,-3.9742288E-1,-1.7099684E-1,-1.9396484E-1,-1.475468E-2,3.8669474E-4,-5.801431E-3,3.886586E-3,2.3820203E-2,1.38621945E-2,3.7214855E1,-1.406807E-2,5.8927E-2,2.7791815E-2,3.3817627E-2,8.606029E-3,1.2873621E-2,-1.2937046E-2,1.7097677E-3,2.394407E-2,-1.7552676E-2,3.2266345E-2,-2.906358E-3,9.142474E-3,5.437369E-2,1.1898413E-2,-1.3376649E-2,5.5028596E-3],"split_indices":[2,6,10,11,2,0,0,10,7,13,13,13,7,6,7,0,0,0,0,0,0,0,0,0,0,0,0,0,0,0,0],"split_type":[0,0,0,0,0,0,0,0,0,0,0,0,0,0,0,0,0,0,0,0,0,0,0,0,0,0,0,0,0,0,0],"sum_hessian":[1.23E3,7.1E1,1.159E3,2.7E1,4.4E1,8.91E2,2.68E2,1.5E1,1.2E1,3E1,1.4E1,8.9E1,8.02E2,3.1E1,2.37E2,7E0,8E0,5E0,7E0,8E0,2.2E1,8E0,6E0,8.5E1,4E0,7.47E2,5.5E1,8E0,2.3E1,3.1E1,2.06E2],"tree_param":{"num_deleted":"0","num_feature":"15","num_nodes":"31","size_leaf_vector":"1"}},{"base_weights":[-1.2668988E-1,1.6281241E0,-1.695615E-1,6.295291E-1,3.8882315E0,-5.45897E-1,-1.7799865E-2,-6.520973E-3,9.493461E-1,4.504226E-2,-4.0156487E-3,-2.8809664E0,-3.4304214E-1,8.5503036E-1,-8.549753E-2,1.1128074E-2,-8.569805E-3,-8.131508E-3,-8.0170356E-2,-9.723257E-3,2.1799814E-3,1.1065413E-2,-7.3651867E-3,-6.923984E-3,2.4209918E-4],"categories":[],"categories_nodes":[],"categories_segments":[],"categories_sizes":[],"default_left":[0,0,0,0,0,0,0,0,0,0,0,0,0,0,0,0,0,0,0,0,0,0,0,0,0],"id":14,"left_children":[1,3,5,7,9,11,13,-1,15,-1,-1,17,19,21,23,-1,-1,-1,-1,-1,-1,-1,-1,-1,-1],"loss_changes":[9.461664E1,6.52602E1,6.995408E1,9.60159E0,2.4384888E1,1.6574715E2,5.1716515E1,0E0,5.9965057E0,0E0,0E0,2.886005E2,1.1346458E2,2.5201332E1,5.3587017E1,0E0,0E0,0E0,0E0,0E0,0E0,0E0,0E0,0E0,0E0],"parents":[2147483647,0,0,1,1,2,2,3,3,4,4,5,5,6,6,8,8,11,11,12,12,13,13,14,14],"right_children":[2,4,6,8,10,12,14,-1,16,-1,-1,18,20,22,24,-1,-1,-1,-1,-1,-1,-1,-1,-1,-1],"split_conditions":[-5.2312106E-2,1.9135846E-2,4.3425512E-1,-3.7612204E-2,3.9651435E-2,-1.2706386E-2,-1.027053E-2,-6.520973E-3,1.4087966E-2,4.504226E-2,-4.0156487E-3,2.407265E-3,8.049781E-5,1.2886778E-2,-1.6343541E-2,1.1128074E-2,-8.569805E-3,-8.131508E-3,-8.0170356E-2,-9.723257E-3,2.1799814E-3,1.1065413E-2,-7.3651867E-3,-6.923984E-3,2.4209918E-4],"split_indices":[8,10,8,12,10,7,13,0,10,0,0,13,10,10,10,0,0,0,0,0,0,0,0,0,0],"split_type":[0,0,0,0,0,0,0,0,0,0,0,0,0,0,0,0,0,0,0,0,0,0,0,0,0],"sum_hessian":[1.253E3,2.9E1,1.224E3,2.1E1,8E0,3.51E2,8.73E2,4E0,1.7E1,7E0,1E0,2.7E1,3.24E2,6.2E1,8.11E2,1.6E1,1E0,2E1,7E0,1.53E2,1.71E2,5.4E1,8E0,1.24E2,6.87E2],"tree_param":{"num_deleted":"0","num_feature":"15","num_nodes":"25","size_leaf_vector":"1"}},{"base_weights":[-4.0332016E-2,1.4237473E0,-1.1611173E-1,4.316471E0,6.27234E-1,4.9744228E-1,-3.514592E-1,1.9250112E0,5.165452E0,-5.145115E-2,2.724134E0,-1.2715294E0,6.354616E-1,5.33248E-1,-4.6715492E-1,2.3017867E-2,2.4149169E-3,8.243557E-3,5.6443337E-2,-3.144127E-2,2.0733387E-3,6.356881E-3,2.8762951E-2,-7.1026586E-2,2.3951305E-3,2.2938121E-2,3.731799E-3,1.0322097E-2,-1.2438126E-2,-6.175971E-3,3.0529168E-3],"categories":[],"categories_nodes":[],"categories_segments":[],"categories_sizes":[],"default_left":[0,0,0,0,0,0,0,0,0,0,0,0,0,0,0,0,0,0,0,0,0,0,0,0,0,0,0,0,0,0,0],"id":15,"left_children":[1,3,5,7,9,11,13,15,17,19,21,23,25,27,29,-1,-1,-1,-1,-1,-1,-1,-1,-1,-1,-1,-1,-1,-1,-1,-1],"loss_changes":[1.3751834E2,1.3784225E2,1.7027614E2,1.6450378E1,6.9873764E1,8.064582E1,8.7457115E1,2.4959354E0,1.2660217E1,3.0685858E1,1.5321274E0,2.1119136E2,1.3140521E2,8.742212E1,8.516551E1,0E0,0E0,0E0,0E0,0E0,0E0,0E0,0E0,0E0,0E0,0E0,0E0,0E0,0E0,0E0,0E0],"parents":[2147483647,0,0,1,1,2,2,3,3,4,4,5,5,6,6,7,7,8,8,9,9,10,10,11,11,12,12,13,13,14,14],"right_children":[2,4,6,8,10,12,14,16,18,20,22,24,26,28,30,-1,-1,-1,-1,-1,-1,-1,-1,-1,-1,-1,-1,-1,-1,-1,-1],"split_conditions":[-3.7153462E-1,4.7254982E1,1.1537216E0,1.2475402E0,-3.8804302E-1,3.276563E1,-1.3455099E-2,1.1976715E0,-4.9428013E-1,-2.5451416E-2,-4.6612088E-2,-1.826873E-1,4.1004074E1,6.4040986E-3,1.7914332E-2,2.3017867E-2,2.4149169E-3,8.243557E-3,5.6443337E-2,-3.144127E-2,2.0733387E-3,6.356881E-3,2.8762951E-2,-7.1026586E-2,2.3951305E-3,2.2938121E-2,3.731799E-3,1.0322097E-2,-1.2438126E-2,-6.175971E-3,3.0529168E-3],"split_indices":[2,6,5,5,2,6,13,5,2,10,14,2,6,2,10,0,0,0,0,0,0,0,0,0,0,0,0,0,0,0,0],"split_type":[0,0,0,0,0,0,0,0,0,0,0,0,0,0,0,0,0,0,0,0,0,0,0,0,0,0,0,0,0,0,0],"sum_hessian":[1.237E3,6E1,1.177E3,1.2E1,4.8E1,3.26E2,8.51E2,4E0,8E0,3.7E1,1.1E1,2.3E1,3.03E2,9.8E1,7.53E2,3E0,1E0,1E0,7E0,2E0,3.5E1,1E0,1E1,4E0,1.9E1,4.1E1,2.62E2,7.7E1,2.1E1,6.33E2,1.2E2],"tree_param":{"num_deleted":"0","num_feature":"15","num_nodes":"31","size_leaf_vector":"1"}},{"base_weights":[1.0871585E-1,2.0687139E-1,-1.157921E0,1.0110929E0,8.383769E-2,-1.4692249E0,1.5728252E0,5.006737E0,6.8029004E-1,-6.6150707E-1,1.9752546E-1,-8.444782E-2,-1.9592354E0,2.600312E0,-6.184831E-1,5.4199852E-2,4.3360675E-3,2.40329E-2,2.0904585E-3,-2.5671872E-3,-4.0048033E-2,8.53337E-3,-2.444034E-4,2.2020835E-2,-6.8241316E-3,-2.5612587E-2,-1.1966986E-3,7.562748E-3,2.8021166E-2,-4.2598165E-4,-8.018209E-3],"categories":[],"categories_nodes":[],"categories_segments":[],"categories_sizes":[],"default_left":[0,0,0,0,0,0,0,0,0,0,0,0,0,0,0,0,0,0,0,0,0,0,0,0,0,0,0,0,0,0,0],"id":16,"left_children":[1,3,5,7,9,11,13,15,17,19,21,23,25,27,29,-1,-1,-1,-1,-1,-1,-1,-1,-1,-1,-1,-1,-1,-1,-1,-1],"loss_changes":[1.6074625E2,1.1855191E2,8.136943E1,2.0675548E2,8.834144E1,5.683319E1,2.4123657E1,1.8375122E1,1.1890248E2,1.850315E2,1.3036743E2,3.2486904E1,6.642757E1,2.7774048E-1,3.7642658E-1,0E0,0E0,0E0,0E0,0E0,0E0,0E0,0E0,0E0,0E0,0E0,0E0,0E0,0E0,0E0,0E0],"parents":[2147483647,0,0,1,1,2,2,3,3,4,4,5,5,6,6,7,7,8,8,9,9,10,10,11,11,12,12,13,13,14,14],"right_children":[2,4,6,8,10,12,14,16,18,20,22,24,26,28,30,-1,-1,-1,-1,-1,-1,-1,-1,-1,-1,-1,-1,-1,-1,-1,-1],"split_conditions":[6.0526934E-4,-1.4294699E-2,1.858783E-2,-3.800346E-1,-7.691183E-1,6.5845513E-4,-3.7620984E-2,4.9418736E1,1.2337253E0,-7.8959095E-1,-1.0609887E-1,1.7301056E-1,5.453878E1,1.0665504E0,9.871441E-2,5.4199852E-2,4.3360675E-3,2.40329E-2,2.0904585E-3,-2.5671872E-3,-4.0048033E-2,8.53337E-3,-2.444034E-4,2.2020835E-2,-6.8241316E-3,-2.5612587E-2,-1.1966986E-3,7.562748E-3,2.8021166E-2,-4.2598165E-4,-8.018209E-3],"split_indices":[1,12,12,2,1,4,2,6,5,1,2,8,6,5,1,0,0,0,0,0,0,0,0,0,0,0,0,0,0,0,0],"split_type":[0,0,0,0,0,0,0,0,0,0,0,0,0,0,0,0,0,0,0,0,0,0,0,0,0,0,0,0,0,0,0],"sum_hessian":[1.29E3,1.198E3,9.2E1,1.58E2,1.04E3,8.3E1,9E0,1.1E1,1.47E2,1.37E2,9.03E2,2.2E1,6.1E1,6E0,3E0,1E1,1E0,3.1E1,1.16E2,1.23E2,1.4E1,2.29E2,6.74E2,4E0,1.8E1,4.6E1,1.5E1,1E0,5E0,1E0,2E0],"tree_param":{"num_deleted":"0","num_feature":"15","num_nodes":"31","size_leaf_vector":"1"}},{"base_weights":[-3.1306772E-3,2.344616E0,-5.4496985E-2,-2.3249721E-2,2.809308E0,1.8508776E0,-1.0676227E-1,3.771447E0,1.4527038E0,3.2149239E0,6.7658454E-1,-3.3833012E-3,-9.306828E-1,2.0062882E-2,5.8501076E-2,1.9506952E-2,-1.4872817E-5,3.761753E-2,-1.1763059E-3,-2.0526517E-2,1.3220392E-2,5.8857596E-4,-1.089743E-2,-1.8546745E-2,-2.5433616E-3],"categories":[],"categories_nodes":[],"categories_segments":[],"categories_sizes":[],"default_left":[0,0,0,0,0,0,0,0,0,0,0,0,0,0,0,0,0,0,0,0,0,0,0,0,0],"id":17,"left_children":[1,3,5,-1,7,9,11,13,15,17,19,21,23,-1,-1,-1,-1,-1,-1,-1,-1,-1,-1,-1,-1],"loss_changes":[1.5207758E2,6.4879684E1,1.2308542E2,0E0,2.7152237E1,5.0683907E1,1.0237846E2,3.920224E1,8.464294E0,2.650264E1,3.552061E1,7.140192E1,8.235621E1,0E0,0E0,0E0,0E0,0E0,0E0,0E0,0E0,0E0,0E0,0E0,0E0],"parents":[2147483647,0,0,1,1,2,2,4,4,5,5,6,6,7,7,8,8,9,9,10,10,11,11,12,12],"right_children":[2,4,6,-1,8,10,12,14,16,18,20,22,24,-1,-1,-1,-1,-1,-1,-1,-1,-1,-1,-1,-1],"split_conditions":[-2.976613E-1,7.4595803E-1,2.5471687E1,-2.3249721E-2,-1.4677158E-1,-1.0349968E-1,6.288534E-3,1.2337253E0,1.0883615E0,2.2391298E1,9.5844454E-1,1.5937927E0,-7.910147E-2,2.0062882E-2,5.8501076E-2,1.9506952E-2,-1.4872817E-5,3.761753E-2,-1.1763059E-3,-2.0526517E-2,1.3220392E-2,5.8857596E-4,-1.089743E-2,-1.8546745E-2,-2.5433616E-3],"split_indices":[0,9,6,0,4,0,4,5,9,6,9,9,0,0,0,0,0,0,0,0,0,0,0,0,0],"split_type":[0,0,0,0,0,0,0,0,0,0,0,0,0,0,0,0,0,0,0,0,0,0,0,0,0],"sum_hessian":[1.259E3,2.6E1,1.233E3,2E0,2.4E1,3.2E1,1.201E3,1.3E1,1.1E1,1.4E1,1.8E1,1.068E3,1.33E2,8E0,5E0,8E0,3E0,1.2E1,2E0,3E0,1.5E1,1.011E3,5.7E1,5.6E1,7.7E1],"tree_param":{"num_deleted":"0","num_feature":"15","num_nodes":"25","size_leaf_vector":"1"}},{"base_weights":[5.5201516E-2,4.324066E0,3.1479444E-2,5.8043714E0,4.1834535E-3,-4.0172276E0,5.401883E-2,6.537676E-2,1.5336845E-2,1.8792055E0,-8.969589E-2,9.6506963E-4,1.7095435E0,3.8076267E-2,-1.5870038E-4,2.1366806E-4,-3.0864747E-2,1.0452701E-2,4.6612933E-2],"categories":[],"categories_nodes":[],"categories_segments":[],"categories_sizes":[],"default_left":[0,0,0,0,0,0,0,0,0,0,0,0,0,0,0,0,0,0,0],"id":18,"left_children":[1,3,5,7,-1,9,11,-1,-1,13,-1,15,17,-1,-1,-1,-1,-1,-1],"loss_changes":[1.2826956E2,3.808879E1,1.1538128E2,4.8640594E0,0E0,2.1866515E2,1.103151E2,0E0,0E0,1.448299E1,0E0,7.573479E1,7.165146E1,0E0,0E0,0E0,0E0,0E0,0E0],"parents":[2147483647,0,0,1,1,2,2,3,3,5,5,6,6,9,9,11,11,12,12],"right_children":[2,4,6,8,-1,10,12,-1,-1,14,-1,16,18,-1,-1,-1,-1,-1,-1],"split_conditions":[-8.488095E-2,1.5609473E0,-5.188965E-2,-2.3763308E-1,4.1834535E-3,-3.0115888E-1,3.1836268E-2,6.537676E-2,1.5336845E-2,-3.1971666E-1,-8.969589E-2,7.228588E-1,-4.8209415E-3,3.8076267E-2,-1.5870038E-4,2.1366806E-4,-3.0864747E-2,1.0452701E-2,4.6612933E-2],"split_indices":[3,9,3,0,0,0,3,0,0,0,0,1,14,0,0,0,0,0,0],"split_type":[0,0,0,0,0,0,0,0,0,0,0,0,0,0,0,0,0,0,0],"sum_hessian":[1.267E3,6E0,1.261E3,4E0,2E0,6E0,1.255E3,3E0,1E0,3E0,3E0,1.217E3,3.8E1,1E0,2E0,1.21E3,7E0,3.2E1,6E0],"tree_param":{"num_deleted":"0","num_feature":"15","num_nodes":"19","size_leaf_vector":"1"}},{"base_weights":[5.243584E-2,5.815273E-1,-1.4300473E-1,-2.0097515E-1,1.4177401E0,1.2831372E0,-2.0266941E-1,2.1643472E0,-3.4140778E-1,1.1175752E0,4.1244183E0,4.6693823E-1,2.9446404E0,-9.062016E-1,-5.377142E-2,4.4806884E-4,4.3041922E-2,-7.350678E-3,7.6699615E-3,-7.825095E-2,1.3001347E-2,2.4977354E-2,6.493628E-2,1.2624326E-2,-1.4704683E-2,3.188756E-2,1.2290093E-2,-4.0149257E-2,-5.2351337E-3,2.9305608E-3,-3.372806E-3],"categories":[],"categories_nodes":[],"categories_segments":[],"categories_sizes":[],"default_left":[0,0,0,0,0,0,0,0,0,0,0,0,0,0,0,0,0,0,0,0,0,0,0,0,0,0,0,0,0,0,0],"id":19,"left_children":[1,3,5,7,9,11,13,15,17,19,21,23,25,27,29,-1,-1,-1,-1,-1,-1,-1,-1,-1,-1,-1,-1,-1,-1,-1,-1],"loss_changes":[1.2996101E2,2.2210571E2,7.8372955E1,5.920057E1,1.2863248E2,4.8801373E1,9.234476E1,4.4558296E1,7.217595E1,2.4029556E2,4.5150146E1,4.127349E1,7.4038696E-1,1.8121532E2,7.080301E1,0E0,0E0,0E0,0E0,0E0,0E0,0E0,0E0,0E0,0E0,0E0,0E0,0E0,0E0,0E0,0E0],"parents":[2147483647,0,0,1,1,2,2,3,3,4,4,5,5,6,6,7,7,8,8,9,9,10,10,11,11,12,12,13,13,14,14],"right_children":[2,4,6,8,10,12,14,16,18,20,22,24,26,28,30,-1,-1,-1,-1,-1,-1,-1,-1,-1,-1,-1,-1,-1,-1,-1,-1],"split_conditions":[-4.961807E-3,2.3426674E-3,-1.3455099E-2,2.1616558E1,1.31976465E-2,-1.6750189E-2,4.657826E1,-7.3790182E-3,1.2759245E-3,-5.188965E-2,4.9932688E-3,-2.0359013E-2,6.765392E1,-1.1462511E-2,1.2567762E0,4.4806884E-4,4.3041922E-2,-7.350678E-3,7.6699615E-3,-7.825095E-2,1.3001347E-2,2.4977354E-2,6.493628E-2,1.2624326E-2,-1.4704683E-2,3.188756E-2,1.2290093E-2,-4.0149257E-2,-5.2351337E-3,2.9305608E-3,-3.372806E-3],"split_indices":[11,10,13,6,7,13,6,10,3,3,13,13,6,7,5,0,0,0,0,0,0,0,0,0,0,0,0,0,0,0,0],"split_type":[0,0,0,0,0,0,0,0,0,0,0,0,0,0,0,0,0,0,0,0,0,0,0,0,0,0,0,0,0,0,0],"sum_hessian":[1.255E3,3.38E2,9.17E2,1.75E2,1.63E2,3.6E1,8.81E2,9E0,1.66E2,1.48E2,1.5E1,2.5E1,1.1E1,1.53E2,7.28E2,5E0,4E0,1.23E2,4.3E1,2E0,1.46E2,1E1,5E0,1.8E1,7E0,9E0,2E0,1.6E1,1.37E2,3.27E2,4.01E2],"tree_param":{"num_deleted":"0","num_feature":"15","num_nodes":"31","size_leaf_vector":"1"}},{"base_weights":[6.384854E-2,5.9075975E-1,-1.515898E-1,2.042082E0,3.9572066E-1,1.5788996E0,-2.5392732E-1,-3.1091973E-1,2.5887945E0,-6.0634475E-2,4.3435785E-1,3.4378963E0,-1.3201945E-1,3.0280848E0,-2.969108E-1,-4.918834E-4,-1.211845E-2,3.369466E-2,1.0555921E-2,4.968127E-3,-3.4355167E-2,5.142476E-2,1.8928656E-2,-9.709028E-3,1.9786786E-2,4.1241687E-2,1.3519669E-3,-3.8016204E-2,-2.6467333E-3],"categories":[],"categories_nodes":[],"categories_segments":[],"categories_sizes":[],"default_left":[0,0,0,0,0,0,0,0,0,0,0,0,0,0,0,0,0,0,0,0,0,0,0,0,0,0,0,0,0],"id":20,"left_children":[1,3,5,7,9,11,13,15,17,-1,19,21,23,25,27,-1,-1,-1,-1,-1,-1,-1,-1,-1,-1,-1,-1,-1,-1],"loss_changes":[1.4278027E2,1.02510475E2,1.585459E2,5.612079E1,8.271706E1,1.5948349E2,1.1996405E2,2.046877E0,3.735707E1,0E0,7.491222E1,5.2832306E1,4.903217E1,3.345854E1,9.7706215E1,0E0,0E0,0E0,0E0,0E0,0E0,0E0,0E0,0E0,0E0,0E0,0E0,0E0,0E0],"parents":[2147483647,0,0,1,1,2,2,3,3,4,4,5,5,6,6,7,7,8,8,10,10,11,11,12,12,13,13,14,14],"right_children":[2,4,6,8,10,12,14,16,18,-1,20,22,24,26,28,-1,-1,-1,-1,-1,-1,-1,-1,-1,-1,-1,-1,-1,-1],"split_conditions":[1.1675156E0,1.5731797E-1,-3.6194098E-1,1.739587E1,-5.8539305E-2,5.1128178E1,2.1616558E1,1.2716413E-2,3.65237E1,-6.0634475E-2,6.525543E-2,-1.3195458E-2,-3.9742288E-1,7.766549E-2,1.1726819E0,-4.918834E-4,-1.211845E-2,3.369466E-2,1.0555921E-2,4.968127E-3,-3.4355167E-2,5.142476E-2,1.8928656E-2,-9.709028E-3,1.9786786E-2,4.1241687E-2,1.3519669E-3,-3.8016204E-2,-2.6467333E-3],"split_indices":[5,8,2,6,10,6,6,7,6,0,1,10,2,8,5,0,0,0,0,0,0,0,0,0,0,0,0,0,0],"split_type":[0,0,0,0,0,0,0,0,0,0,0,0,0,0,0,0,0,0,0,0,0,0,0,0,0,0,0,0,0],"sum_hessian":[1.256E3,3.64E2,8.92E2,4.2E1,3.22E2,4.9E1,8.43E2,8E0,3.4E1,1E0,3.21E2,2.3E1,2.6E1,1E1,8.33E2,7E0,1E0,2.2E1,1.2E1,3.17E2,4E0,1E1,1.3E1,1.9E1,7E0,7E0,3E0,7E0,8.26E2],"tree_param":{"num_deleted":"0","num_feature":"15","num_nodes":"29","size_leaf_vector":"1"}},{"base_weights":[-1.2993885E-2,5.0992623E-2,-2.0214915E0,7.222959E-1,-2.5453266E-2,5.962893E-1,-3.406589E0,-1.1113019E0,1.2063293E0,-7.123089E-1,6.596095E-2,1.3660364E0,-2.6995916E-2,-3.9455116E0,1.8732602E-2,-1.6723515E-2,1.54050635E-2,1.961387E-2,4.1116117E-3,-3.937704E-3,-6.1578963E-2,4.079654E-3,-1.985212E-3,1.8994387E-3,2.1948006E-2,-4.3296017E-2,-1.4622472E-3],"categories":[],"categories_nodes":[],"categories_segments":[],"categories_sizes":[],"default_left":[0,0,0,0,0,0,0,0,0,0,0,0,0,0,0,0,0,0,0,0,0,0,0,0,0,0,0],"id":21,"left_children":[1,3,5,7,9,11,13,15,17,19,21,23,-1,25,-1,-1,-1,-1,-1,-1,-1,-1,-1,-1,-1,-1,-1],"loss_changes":[1.5817868E2,6.1241203E1,1.398148E2,1.0961836E2,6.735611E1,3.8985535E1,7.830759E1,4.030225E1,5.662567E1,2.1631181E2,8.4625374E1,1.1089571E1,0E0,3.0405792E1,0E0,0E0,0E0,0E0,0E0,0E0,0E0,0E0,0E0,0E0,0E0,0E0,0E0],"parents":[2147483647,0,0,1,1,2,2,3,3,4,4,5,5,6,6,7,7,8,8,9,9,10,10,11,11,13,13],"right_children":[2,4,6,8,10,12,14,16,18,20,22,24,-1,26,-1,-1,-1,-1,-1,-1,-1,-1,-1,-1,-1,-1,-1],"split_conditions":[1.633061E-1,-1.256597E-2,-1.4495748E-2,-2.7873846E-2,-1.0509066E-2,5.451073E-1,1.2112465E-2,7.0447116E-3,-1.5604613E-2,4.4619378E-2,1.2567762E0,1.1929845E0,-2.6995916E-2,8.293174E-1,1.8732602E-2,-1.6723515E-2,1.54050635E-2,1.961387E-2,4.1116117E-3,-3.937704E-3,-6.1578963E-2,4.079654E-3,-1.985212E-3,1.8994387E-3,2.1948006E-2,-4.3296017E-2,-1.4622472E-3],"split_indices":[1,13,12,10,7,1,12,7,1,10,5,5,0,1,0,0,0,0,0,0,0,0,0,0,0,0,0],"split_type":[0,0,0,0,0,0,0,0,0,0,0,0,0,0,0,0,0,0,0,0,0,0,0,0,0,0,0],"sum_hessian":[1.229E3,1.192E3,3.7E1,1.21E2,1.071E3,1.3E1,2.4E1,2.5E1,9.6E1,1.25E2,9.46E2,1.1E1,2E0,2.2E1,2E0,2.1E1,4E0,4.9E1,4.7E1,1.19E2,6E0,4.13E2,5.33E2,5E0,6E0,2E1,2E0],"tree_param":{"num_deleted":"0","num_feature":"15","num_nodes":"27","size_leaf_vector":"1"}},{"base_weights":[-4.375296E-2,8.2553154E-1,-1.7328428E-1,9.143585E-1,-6.6045046E-2,-7.943895E-2,-1.68261E0,3.1382865E-1,2.1209316E0,-3.5448756E-2,-3.413199E0,-2.606164E0,-1.1172606E-1,-1.6854038E-2,6.1383224E-3,3.5909772E-2,1.3885414E-2,-1.5540838E-3,1.0397332E-2,-1.9102614E-2,-7.886236E-2,-8.391552E-3,-3.5896104E-2,-2.2225773E-2,7.1436036E-3],"categories":[],"categories_nodes":[],"categories_segments":[],"categories_sizes":[],"default_left":[0,0,0,0,0,0,0,0,0,0,0,0,0,0,0,0,0,0,0,0,0,0,0,0,0],"id":22,"left_children":[1,3,5,7,-1,9,11,13,15,17,19,21,23,-1,-1,-1,-1,-1,-1,-1,-1,-1,-1,-1,-1],"loss_changes":[1.3717671E2,1.0965388E2,1.5000809E2,1.1309395E2,0E0,1.4638512E2,8.965819E1,6.3368492E1,5.0848877E1,1.2553405E2,7.2234314E1,6.335028E1,4.2879124E1,0E0,0E0,0E0,0E0,0E0,0E0,0E0,0E0,0E0,0E0,0E0,0E0],"parents":[2147483647,0,0,1,1,2,2,3,3,5,5,6,6,7,7,8,8,9,9,10,10,11,11,12,12],"right_children":[2,4,6,8,-1,10,12,14,16,18,20,22,24,-1,-1,-1,-1,-1,-1,-1,-1,-1,-1,-1,-1],"split_conditions":[1.627505E-1,5.8067877E-2,1.0792036E-3,1.2189775E-2,-6.6045046E-2,5.320713E-2,6.577483E-4,-4.2804317E-3,-3.065648E-2,1.8373676E-2,6.9748177E-3,-1.9314358E-2,1.9080449E-2,-1.6854038E-2,6.1383224E-3,3.5909772E-2,1.3885414E-2,-1.5540838E-3,1.0397332E-2,-1.9102614E-2,-7.886236E-2,-8.391552E-3,-3.5896104E-2,-2.2225773E-2,7.1436036E-3],"split_indices":[8,10,1,10,0,14,13,14,8,3,13,10,1,0,0,0,0,0,0,0,0,0,0,0,0],"split_type":[0,0,0,0,0,0,0,0,0,0,0,0,0,0,0,0,0,0,0,0,0,0,0,0,0],"sum_hessian":[1.216E3,1.57E2,1.059E3,1.56E2,1E0,9.98E2,6.1E1,1.05E2,5.1E1,9.86E2,1.2E1,3.8E1,2.3E1,1.3E1,9.2E1,1.6E1,3.5E1,8.88E2,9.8E1,1E1,2E0,1.4E1,2.4E1,6E0,1.7E1],"tree_param":{"num_deleted":"0","num_feature":"15","num_nodes":"25","size_leaf_vector":"1"}},{"base_weights":[7.763335E-2,1.9786252E-1,-9.2022187E-1,3.6228368E0,1.737808E-1,-1.5913353E0,7.3157616E-2,4.046632E-2,4.261113E-3,-4.604046E-1,2.9087317E-1,6.6602015E-1,-2.2718942E0,4.0840176E-1,-2.0312629E0,4.271047E-4,-1.0905082E-2,-2.4205584E-2,3.2369E-3,-1.4901753E-3,1.5049655E-2,-3.940224E-2,-1.1266273E-2,5.311843E-4,1.1686876E-2,-3.5300784E-2,1.6068332E-2],"categories":[],"categories_nodes":[],"categories_segments":[],"categories_sizes":[],"default_left":[0,0,0,0,0,0,0,0,0,0,0,0,0,0,0,0,0,0,0,0,0,0,0,0,0,0,0],"id":23,"left_children":[1,3,5,7,9,11,13,-1,-1,15,17,19,21,23,25,-1,-1,-1,-1,-1,-1,-1,-1,-1,-1,-1,-1],"loss_changes":[1.5506505E2,9.446904E1,9.278357E1,8.450928E0,8.52339E1,1.29023E2,4.1042767E1,0E0,0E0,5.610007E1,8.071865E1,1.3715368E1,1.1675946E2,1.3318598E1,4.840168E1,0E0,0E0,0E0,0E0,0E0,0E0,0E0,0E0,0E0,0E0,0E0,0E0],"parents":[2147483647,0,0,1,1,2,2,3,3,4,4,5,5,6,6,9,9,10,10,11,11,12,12,13,13,14,14],"right_children":[2,4,6,8,10,12,14,-1,-1,16,18,20,22,24,26,-1,-1,-1,-1,-1,-1,-1,-1,-1,-1,-1,-1],"split_conditions":[4.180492E-2,-4.0807758E-2,5.914777E-1,1.8527982E0,-1.8087188E-2,7.766549E-2,5.808961E-1,4.046632E-2,4.261113E-3,1.303921E0,-2.267298E-2,1.2706639E0,1.2858027E0,1.2947414E-2,9.3201303E-1,4.271047E-4,-1.0905082E-2,-2.4205584E-2,3.2369E-3,-1.4901753E-3,1.5049655E-2,-3.940224E-2,-1.1266273E-2,5.311843E-4,1.1686876E-2,-3.5300784E-2,1.6068332E-2],"split_indices":[4,12,8,5,10,8,4,0,0,5,7,5,5,1,8,0,0,0,0,0,0,0,0,0,0,0,0],"split_type":[0,0,0,0,0,0,0,0,0,0,0,0,0,0,0,0,0,0,0,0,0,0,0,0,0,0,0],"sum_hessian":[1.29E3,1.152E3,1.38E2,7E0,1.145E3,8.2E1,5.6E1,6E0,1E0,1.78E2,9.67E2,1.9E1,6.3E1,4.9E1,7E0,9.9E1,7.9E1,1E1,9.57E2,1E1,9E0,2.5E1,3.8E1,3.4E1,1.5E1,5E0,2E0],"tree_param":{"num_deleted":"0","num_feature":"15","num_nodes":"27","size_leaf_vector":"1"}},{"base_weights":[1.0650931E-1,1.5945263E0,4.3514684E-2,4.3656254E0,5.5888766E-1,-1.1660569E-1,6.413353E-1,7.3172725E-3,4.911526E0,6.0997866E-2,2.2117426E0,-8.182164E-2,-2.3280544E0,1.0994189E0,-8.085356E-1,1.3959799E-2,5.1404394E-2,1.1799174E-2,-6.1276457E-3,2.3501137E-2,6.1967853E-3,1.650534E-2,-1.1547056E-3,-5.6567784E-2,-6.2482054E-3,-4.1122153E-2,1.2913656E-2,-6.156361E-2,-4.4427817E-3],"categories":[],"categories_nodes":[],"categories_segments":[],"categories_sizes":[],"default_left":[0,0,0,0,0,0,0,0,0,0,0,0,0,0,0,0,0,0,0,0,0,0,0,0,0,0,0,0,0],"id":24,"left_children":[1,3,5,7,9,11,13,-1,15,17,19,21,23,25,27,-1,-1,-1,-1,-1,-1,-1,-1,-1,-1,-1,-1,-1,-1],"loss_changes":[1.2000781E2,1.4679268E2,1.178144E2,2.4240265E1,3.195973E1,7.45019E1,1.7357101E2,0E0,1.1427307E0,2.3776567E1,3.2429123E-1,5.433907E1,8.079333E1,1.933588E2,1.2007321E2,0E0,0E0,0E0,0E0,0E0,0E0,0E0,0E0,0E0,0E0,0E0,0E0,0E0,0E0],"parents":[2147483647,0,0,1,1,2,2,3,3,4,4,5,5,6,6,8,8,9,9,10,10,11,11,12,12,13,13,14,14],"right_children":[2,4,6,8,10,12,14,-1,16,18,20,22,24,26,28,-1,-1,-1,-1,-1,-1,-1,-1,-1,-1,-1,-1,-1,-1],"split_conditions":[-3.7153462E-1,4.7254982E1,1.4087966E-2,-4.9428013E-1,-3.8804302E-1,9.065705E1,6.974911E1,7.3172725E-3,3.276563E1,3.029935E-3,1.3581895E-2,2.1616558E1,-1.0691792E-1,-2.267298E-2,-2.5597966E-1,1.3959799E-2,5.1404394E-2,1.1799174E-2,-6.1276457E-3,2.3501137E-2,6.1967853E-3,1.650534E-2,-1.1547056E-3,-5.6567784E-2,-6.2482054E-3,-4.1122153E-2,1.2913656E-2,-6.156361E-2,-4.4427817E-3],"split_indices":[2,6,10,2,2,6,6,0,6,11,11,6,2,7,2,0,0,0,0,0,0,0,0,0,0,0,0,0,0],"split_type":[0,0,0,0,0,0,0,0,0,0,0,0,0,0,0,0,0,0,0,0,0,0,0,0,0,0,0,0,0],"sum_hessian":[1.28E3,5.1E1,1.229E3,1.3E1,3.8E1,9.7E2,2.59E2,2E0,1.1E1,3E1,8E0,9.56E2,1.4E1,1.97E2,6.2E1,1E0,1E1,1.1E1,1.9E1,7E0,1E0,1.7E1,9.39E2,4E0,1E1,6E0,1.91E2,3E0,5.9E1],"tree_param":{"num_deleted":"0","num_feature":"15","num_nodes":"29","size_leaf_vector":"1"}},{"base_weights":[8.0487065E-2,1.8115467E0,3.2843375E-3,4.046396E0,5.093795E-1,-1.4616593E-2,4.1663837E0,4.7800274E0,1.0027079E-1,-2.0413373E-2,2.2488603E-2,-1.4698158E-1,4.950495E-1,6.1437745E-2,8.471467E-3,5.7179306E-2,2.8311744E-2,8.3644865E-3,-1.0527756E-2,-3.1264484E-2,3.529783E-3,1.9136777E-2,-1.7720066E-3,1.9835627E-2,2.091892E-3],"categories":[],"categories_nodes":[],"categories_segments":[],"categories_sizes":[],"default_left":[0,0,0,0,0,0,0,0,0,0,0,0,0,0,0,0,0,0,0,0,0,0,0,0,0],"id":25,"left_children":[1,3,5,7,9,11,13,15,17,19,-1,21,23,-1,-1,-1,-1,-1,-1,-1,-1,-1,-1,-1,-1],"loss_changes":[1.6277065E2,1.4926651E2,8.702965E1,5.4525757E1,3.1106754E1,7.8531006E1,2.7052467E1,1.2349884E1,4.217626E0,3.1993399E1,0E0,5.5262646E1,1.0129573E2,0E0,0E0,0E0,0E0,0E0,0E0,0E0,0E0,0E0,0E0,0E0,0E0],"parents":[2147483647,0,0,1,1,2,2,3,3,4,4,5,5,6,6,7,7,8,8,9,9,11,11,12,12],"right_children":[2,4,6,8,10,12,14,16,18,20,-1,22,24,-1,-1,-1,-1,-1,-1,-1,-1,-1,-1,-1,-1],"split_conditions":[-3.7153462E-1,5.0607307E1,5.167933E-2,2.3897127E-3,-3.9742288E-1,1.4087966E-2,-1.826873E-1,-1.475468E-2,-5.090767E-1,-2.5451416E-2,2.2488603E-2,-6.1381914E-2,-1.3104725E-2,6.1437745E-2,8.471467E-3,5.7179306E-2,2.8311744E-2,8.3644865E-3,-1.0527756E-2,-3.1264484E-2,3.529783E-3,1.9136777E-2,-1.7720066E-3,1.9835627E-2,2.091892E-3],"split_indices":[2,6,12,12,2,10,2,10,2,10,0,14,12,0,0,0,0,0,0,0,0,0,0,0,0],"split_type":[0,0,0,0,0,0,0,0,0,0,0,0,0,0,0,0,0,0,0,0,0,0,0,0,0],"sum_hessian":[1.217E3,5.1E1,1.166E3,1.8E1,3.3E1,1.162E3,4E0,1.5E1,3E0,2.6E1,7E0,9.23E2,2.39E2,2E0,2E0,9E0,6E0,2E0,1E0,2E0,2.4E1,1.2E1,9.11E2,3.8E1,2.01E2],"tree_param":{"num_deleted":"0","num_feature":"15","num_nodes":"25","size_leaf_vector":"1"}},{"base_weights":[-5.7750866E-2,4.909341E-3,-1.5719262E0,3.1514165E-1,-3.2033405E-1,-2.9157658E0,-5.0603207E-2,1.222889E0,1.926175E-1,3.554559E0,-3.5347167E-1,-3.0960715E0,8.013215E-3,-3.4034528E-2,5.8609086E-1,1.698108E-2,-2.7167154E-2,-2.0444408E-2,3.3066932E-3,1.5370331E-2,4.427286E-2,-7.754068E-3,-1.5004775E-3,-1.6793648E-2,-3.482608E-2,1.643348E-2,-7.329052E-3],"categories":[],"categories_nodes":[],"categories_segments":[],"categories_sizes":[],"default_left":[0,0,0,0,0,0,0,0,0,0,0,0,0,0,0,0,0,0,0,0,0,0,0,0,0,0,0],"id":26,"left_children":[1,3,5,7,9,11,13,15,17,19,21,23,-1,-1,25,-1,-1,-1,-1,-1,-1,-1,-1,-1,-1,-1,-1],"loss_changes":[1.1699295E2,1.1966865E2,1.0002874E2,6.727558E1,7.560278E1,1.9864594E1,5.286583E1,1.3550415E2,1.6253754E2,1.8335342E0,4.8870796E1,7.193985E0,0E0,0E0,3.0059345E1,0E0,0E0,0E0,0E0,0E0,0E0,0E0,0E0,0E0,0E0,0E0,0E0],"parents":[2147483647,0,0,1,1,2,2,3,3,4,4,5,5,6,6,7,7,8,8,9,9,10,10,11,11,14,14],"right_children":[2,4,6,8,10,12,14,16,18,20,22,24,-1,-1,26,-1,-1,-1,-1,-1,-1,-1,-1,-1,-1,-1,-1],"split_conditions":[1.2033891E-1,1.3223832E0,2.4133844E-3,1.2981467E-1,1.9164753E1,7.419631E1,1.2835209E-1,6.189283E-3,2.1852598E-1,-8.497625E-1,1.430894E0,3.529825E1,8.013215E-3,-3.4034528E-2,5.3516495E-1,1.698108E-2,-2.7167154E-2,-2.0444408E-2,3.3066932E-3,1.5370331E-2,4.427286E-2,-7.754068E-3,-1.5004775E-3,-1.6793648E-2,-3.482608E-2,1.643348E-2,-7.329052E-3],"split_indices":[1,5,7,8,6,6,1,13,8,1,5,6,0,0,1,0,0,0,0,0,0,0,0,0,0,0,0],"split_type":[0,0,0,0,0,0,0,0,0,0,0,0,0,0,0,0,0,0,0,0,0,0,0,0,0,0,0],"sum_hessian":[1.232E3,1.184E3,4.8E1,6.06E2,5.78E2,2.5E1,2.3E1,7.1E1,5.35E2,4E0,5.74E2,2.4E1,1E0,3E0,2E1,6.4E1,7E0,3E1,5.05E2,2E0,2E0,1.88E2,3.86E2,6E0,1.8E1,1.1E1,9E0],"tree_param":{"num_deleted":"0","num_feature":"15","num_nodes":"27","size_leaf_vector":"1"}},{"base_weights":[-5.618515E-2,-1.2404763E-1,1.207571E0,-6.7705944E-2,-1.5912341E0,4.5028715E0,7.238873E-1,-5.121424E-2,-4.77153E0,-1.361641E-1,-2.0721312E0,6.487921E-2,2.0629685E-2,-1.4910096E0,1.0637931E0,1.2235581E-2,-1.121223E-3,7.833566E-3,-6.927291E-2,1.6073853E-2,-1.2102428E-2,-1.40024945E-2,-4.0545207E-2,3.1515866E-4,-2.4269573E-2,1.3522366E-2,-1.7307226E-2],"categories":[],"categories_nodes":[],"categories_segments":[],"categories_sizes":[],"default_left":[0,0,0,0,0,0,0,0,0,0,0,0,0,0,0,0,0,0,0,0,0,0,0,0,0,0,0],"id":27,"left_children":[1,3,5,7,9,11,13,15,17,19,21,-1,-1,23,25,-1,-1,-1,-1,-1,-1,-1,-1,-1,-1,-1,-1],"loss_changes":[1.0769489E2,9.83448E1,9.8748955E1,8.881068E1,3.0506363E1,2.4906128E1,4.4498924E1,8.737262E1,5.217588E1,2.4083668E1,3.8355392E1,0E0,0E0,1.1275419E1,4.11808E1,0E0,0E0,0E0,0E0,0E0,0E0,0E0,0E0,0E0,0E0,0E0,0E0],"parents":[2147483647,0,0,1,1,2,2,3,3,4,4,5,5,6,6,7,7,8,8,9,9,10,10,13,13,14,14],"right_children":[2,4,6,8,10,12,14,16,18,20,22,-1,-1,24,26,-1,-1,-1,-1,-1,-1,-1,-1,-1,-1,-1,-1],"split_conditions":[2.6277997E-2,2.2203939E-2,-6.280192E-3,5.8067877E-2,-9.71245E-3,8.921895E-1,-2.0815557E-2,-2.524782E-2,-3.5049978E-1,-3.9322465E-3,-7.972471E-3,6.487921E-2,2.0629685E-2,4.2181797E-2,1.5623088E0,1.2235581E-2,-1.121223E-3,7.833566E-3,-6.927291E-2,1.6073853E-2,-1.2102428E-2,-1.40024945E-2,-4.0545207E-2,3.1515866E-4,-2.4269573E-2,1.3522366E-2,-1.7307226E-2],"split_indices":[3,11,11,10,3,5,10,3,2,10,14,0,0,3,5,0,0,0,0,0,0,0,0,0,0,0,0],"split_type":[0,0,0,0,0,0,0,0,0,0,0,0,0,0,0,0,0,0,0,0,0,0,0,0,0,0,0],"sum_hessian":[1.253E3,1.19E3,6.3E1,1.147E3,4.3E1,7E0,5.6E1,1.144E3,3E0,1.1E1,3.2E1,3E0,4E0,7E0,4.9E1,5.1E1,1.093E3,1E0,2E0,4E0,7E0,2.5E1,7E0,3E0,4E0,4.5E1,4E0],"tree_param":{"num_deleted":"0","num_feature":"15","num_nodes":"27","size_leaf_vector":"1"}},{"base_weights":[-2.4745908E-2,-8.77848E-3,-6.8807974E-2,-6.285682E-2,1.863177E0,3.8229012E-1,-2.2563472E-1,2.954017E0,6.0822505E-1,-2.414407E-2,4.7872425E-3,5.3448533E-3,-3.2786522E-3,-1.2853226E-2,3.2820243E-2,-1.51959965E-2,1.1400312E-2],"categories":[],"categories_nodes":[],"categories_segments":[],"categories_sizes":[],"default_left":[0,0,0,0,0,0,0,0,0,0,0,0,0,0,0,0,0],"id":28,"left_children":[1,3,-1,5,7,9,11,13,15,-1,-1,-1,-1,-1,-1,-1,-1],"loss_changes":[1.3944786E2,1.2979564E2,0E0,9.037153E1,4.748555E1,8.771129E1,6.926396E1,2.8756638E1,2.1688316E1,0E0,0E0,0E0,0E0,0E0,0E0,0E0,0E0],"parents":[2147483647,0,0,1,1,3,3,4,4,5,5,6,6,7,7,8,8],"right_children":[2,4,-1,6,8,10,12,14,16,-1,-1,-1,-1,-1,-1,-1,-1],"split_conditions":[5.8067877E-2,3.5522833E-2,-6.8807974E-2,1.1675156E0,-8.183304E-3,-2.827668E-1,-1.3455099E-2,-4.1840013E-2,-4.7973124E-3,-2.414407E-2,4.7872425E-3,5.3448533E-3,-3.2786522E-3,-1.2853226E-2,3.2820243E-2,-1.51959965E-2,1.1400312E-2],"split_indices":[10,10,0,5,11,0,13,11,11,0,0,0,0,0,0,0,0],"split_type":[0,0,0,0,0,0,0,0,0,0,0,0,0,0,0,0,0],"sum_hessian":[1.282E3,1.28E3,2E0,1.245E3,3.5E1,3.33E2,9.12E2,1.8E1,1.7E1,1E1,3.23E2,1.06E2,8.06E2,1E0,1.7E1,3E0,1.4E1],"tree_param":{"num_deleted":"0","num_feature":"15","num_nodes":"17","size_leaf_vector":"1"}},{"base_weights":[-9.13128E-4,8.0426164E-2,-2.4695377E0,-1.23709165E-1,7.139395E-1,-3.2162104E0,-6.7135584E-1,2.503236E0,-1.7896804E-1,9.555359E-1,-5.863379E-1,1.2316902E-2,-3.6047747E0,1.5423449E-2,-1.2112352E0,5.214596E-3,3.642614E-2,-2.0541782E-3,3.6189932E-2,4.031771E-2,8.699863E-3,-2.9398786E-2,-3.2956316E-4,-4.3686884E-3,-3.739363E-2,-2.0225817E-2,1.4888089E-3],"categories":[],"categories_nodes":[],"categories_segments":[],"categories_sizes":[],"default_left":[0,0,0,0,0,0,0,0,0,0,0,0,0,0,0,0,0,0,0,0,0,0,0,0,0,0,0],"id":29,"left_children":[1,3,5,7,9,11,13,15,17,19,21,-1,23,-1,25,-1,-1,-1,-1,-1,-1,-1,-1,-1,-1,-1,-1],"loss_changes":[2.5179623E2,1.5708577E2,5.1546906E1,1.3385193E2,9.35464E1,5.2712463E1,1.7319609E1,4.0180893E1,8.597407E1,6.6206604E1,6.062828E1,0E0,7.413666E0,0E0,1.2223883E1,0E0,0E0,0E0,0E0,0E0,0E0,0E0,0E0,0E0,0E0,0E0,0E0],"parents":[2147483647,0,0,1,1,2,2,3,3,4,4,5,5,6,6,7,7,8,8,9,9,10,10,12,12,14,14],"right_children":[2,4,6,8,10,12,14,16,18,20,22,-1,24,-1,26,-1,-1,-1,-1,-1,-1,-1,-1,-1,-1,-1,-1],"split_conditions":[1.2033891E-1,1.2386793E-2,-1.3157235E-1,-3.0645344E-1,7.160104E1,-3.3219883E-1,-6.820468E-3,-2.8663866E-2,5.8687117E-2,-3.9324548E-2,-9.261067E-3,1.2316902E-2,-4.2793356E-2,1.5423449E-2,-6.593679E-3,5.214596E-3,3.642614E-2,-2.0541782E-3,3.6189932E-2,4.031771E-2,8.699863E-3,-2.9398786E-2,-3.2956316E-4,-4.3686884E-3,-3.739363E-2,-2.0225817E-2,1.4888089E-3],"split_indices":[1,10,0,0,6,0,3,10,3,3,0,0,3,0,10,0,0,0,0,0,0,0,0,0,0,0,0],"split_type":[0,0,0,0,0,0,0,0,0,0,0,0,0,0,0,0,0,0,0,0,0,0,0,0,0,0,0],"sum_hessian":[1.252E3,1.213E3,3.9E1,9.18E2,2.95E2,2.7E1,1.2E1,1.8E1,9E2,2.49E2,4.6E1,2E0,2.5E1,2E0,1E1,7E0,1.1E1,8.95E2,5E0,6E0,2.43E2,8E0,3.8E1,1E0,2.4E1,6E0,4E0],"tree_param":{"num_deleted":"0","num_feature":"15","num_nodes":"27","size_leaf_vector":"1"}},{"base_weights":[-1.6633209E-2,3.771758E-1,-2.7311876E-1,1.698043E0,1.8535098E-1,1.6450663E0,-3.938175E-1,1.3041711E0,4.550173E0,7.9889305E-2,1.7252575E0,2.5826917E0,-7.894783E-1,-7.0427644E-1,1.2750198E-1,-4.655932E-3,1.7185757E-2,5.1524132E-2,5.7603726E-3,1.3942933E-3,-2.7984938E-2,2.4012994E-2,1.4135551E-3,3.7518125E-2,1.3632884E-2,-1.0839141E-2,5.3014937E-3,2.4389878E-3,-1.0111533E-2,7.586368E-3,-5.3245565E-3],"categories":[],"categories_nodes":[],"categories_segments":[],"categories_sizes":[],"default_left":[0,0,0,0,0,0,0,0,0,0,0,0,0,0,0,0,0,0,0,0,0,0,0,0,0,0,0,0,0,0,0],"id":30,"left_children":[1,3,5,7,9,11,13,15,17,19,21,23,25,27,29,-1,-1,-1,-1,-1,-1,-1,-1,-1,-1,-1,-1,-1,-1,-1,-1],"loss_changes":[1.2343173E2,1.2181207E2,1.7197452E2,6.2591568E1,6.839545E1,1.0247736E2,1.1289807E2,3.9933685E1,1.287825E1,6.674762E1,2.790355E1,3.9925797E1,5.4798717E0,1.2437009E2,1.0764901E2,0E0,0E0,0E0,0E0,0E0,0E0,0E0,0E0,0E0,0E0,0E0,0E0,0E0,0E0,0E0,0E0],"parents":[2147483647,0,0,1,1,2,2,3,3,4,4,5,5,6,6,7,7,8,8,9,9,10,10,11,11,12,12,13,13,14,14],"right_children":[2,4,6,8,10,12,14,16,18,20,22,24,26,28,30,-1,-1,-1,-1,-1,-1,-1,-1,-1,-1,-1,-1,-1,-1,-1,-1],"split_conditions":[1.2434429E0,-1.1338966E-2,-3.627832E-1,3.9715302E-1,3.1836268E-2,1.3581895E-2,4.3064705E-3,-3.2805957E-2,-1.3086797E-1,2.7128968E-2,9.292171E-1,5.872339E-1,2.7161572E-2,1.9254842E-1,3.5148347E-3,-4.655932E-3,1.7185757E-2,5.1524132E-2,5.7603726E-3,1.3942933E-3,-2.7984938E-2,2.4012994E-2,1.4135551E-3,3.7518125E-2,1.3632884E-2,-1.0839141E-2,5.3014937E-3,2.4389878E-3,-1.0111533E-2,7.586368E-3,-5.3245565E-3],"split_indices":[5,11,2,8,3,11,3,3,2,11,8,8,3,8,13,0,0,0,0,0,0,0,0,0,0,0,0,0,0,0,0],"split_type":[0,0,0,0,0,0,0,0,0,0,0,0,0,0,0,0,0,0,0,0,0,0,0,0,0,0,0,0,0,0,0],"sum_hessian":[1.22E3,4.81E2,7.39E2,6E1,4.21E2,4.3E1,6.96E2,5.4E1,6E0,3.95E2,2.6E1,3.1E1,1.2E1,4.36E2,2.6E2,1E1,4.4E1,5E0,1E0,3.88E2,7E0,1.8E1,8E0,1.5E1,1.6E1,1E1,2E0,1.05E2,3.31E2,1.33E2,1.27E2],"tree_param":{"num_deleted":"0","num_feature":"15","num_nodes":"31","size_leaf_vector":"1"}},{"base_weights":[-3.8127E-2,2.0369458E0,-8.1075385E-2,2.5291583E-1,3.6890622E-2,-1.3534395E0,-2.6067372E-2,8.6580247E-1,-9.0086323E-1,-6.1892924E0,-2.8496042E-1,-1.9971204E-1,3.0985817E-1,9.366401E-3,1.7589256E-3,-2.832055E-3,-1.2283844E-2,-9.766648E-3,-8.695597E-2,1.9845588E-2,-8.797143E-3,-2.4398984E-3,1.5916016E-2,2.185348E-3,1.3301016E-2],"categories":[],"categories_nodes":[],"categories_segments":[],"categories_sizes":[],"default_left":[0,0,0,0,0,0,0,0,0,0,0,0,0,0,0,0,0,0,0,0,0,0,0,0,0],"id":31,"left_children":[1,3,5,7,-1,9,11,13,15,17,19,21,23,-1,-1,-1,-1,-1,-1,-1,-1,-1,-1,-1,-1],"loss_changes":[1.0987312E2,7.16539E1,8.444291E1,9.972734E0,0E0,2.5658664E2,6.760996E1,2.389307E-1,6.4581156E-1,1.06605896E2,5.7521553E1,5.8389496E1,3.6780228E1,0E0,0E0,0E0,0E0,0E0,0E0,0E0,0E0,0E0,0E0,0E0,0E0],"parents":[2147483647,0,0,1,1,2,2,3,3,5,5,6,6,7,7,8,8,9,9,10,10,11,11,12,12],"right_children":[2,4,6,8,-1,10,12,14,16,18,20,22,24,-1,-1,-1,-1,-1,-1,-1,-1,-1,-1,-1,-1],"split_conditions":[2.1616558E1,2.1140676E-2,-1.649046E-2,-5.877544E-3,3.6890622E-2,3.458595E1,1.0834657E0,-6.280192E-3,7.0714173E-3,1.1690252E0,3.042589E-1,4.5446143E-2,1.637301E-2,9.366401E-3,1.7589256E-3,-2.832055E-3,-1.2283844E-2,-9.766648E-3,-8.695597E-2,1.9845588E-2,-8.797143E-3,-2.4398984E-3,1.5916016E-2,2.185348E-3,1.3301016E-2],"split_indices":[6,14,7,11,0,6,9,11,11,9,8,14,7,0,0,0,0,0,0,0,0,0,0,0,0],"split_type":[0,0,0,0,0,0,0,0,0,0,0,0,0,0,0,0,0,0,0,0,0,0,0,0,0],"sum_hessian":[1.23E3,2.4E1,1.206E3,1.2E1,1.2E1,4.9E1,1.157E3,8E0,4E0,8E0,4.1E1,7.63E2,3.94E2,7E0,1E0,2E0,2E0,3E0,5E0,8E0,3.3E1,7.46E2,1.7E1,3.62E2,3.2E1],"tree_param":{"num_deleted":"0","num_feature":"15","num_nodes":"25","size_leaf_vector":"1"}},{"base_weights":[7.128878E-2,8.937997E-1,-2.9167036E-2,1.6306769E0,1.7521197E-1,-1.2011139E0,5.6291867E-2,3.8522491E0,1.2332368E0,-1.7162001E0,5.444207E-1,-5.920805E0,-4.996933E-1,-4.9711797E-2,8.3680093E-1,-5.919028E-4,4.322369E-2,3.986197E-3,2.6794689E-2,8.3774654E-4,-3.0337555E-2,7.523632E-3,-1.8901022E-2,-3.2750983E-2,-9.170667E-2,6.287806E-3,-2.3991652E-2,2.5548773E-2,-7.78843E-4,-2.1881936E-3,1.3451162E-2],"categories":[],"categories_nodes":[],"categories_segments":[],"categories_sizes":[],"default_left":[0,0,0,0,0,0,0,0,0,0,0,0,0,0,0,0,0,0,0,0,0,0,0,0,0,0,0,0,0,0,0],"id":32,"left_children":[1,3,5,7,9,11,13,15,17,19,21,23,25,27,29,-1,-1,-1,-1,-1,-1,-1,-1,-1,-1,-1,-1,-1,-1,-1,-1],"loss_changes":[1.0628311E2,7.384581E1,1.14943436E2,5.6172226E1,5.1213795E1,2.5525952E2,8.856999E1,1.7503754E1,7.06975E1,2.826073E1,3.137627E1,5.5420868E1,1.4758687E2,6.765958E1,6.765916E1,0E0,0E0,0E0,0E0,0E0,0E0,0E0,0E0,0E0,0E0,0E0,0E0,0E0,0E0,0E0,0E0],"parents":[2147483647,0,0,1,1,2,2,3,3,4,4,5,5,6,6,7,7,8,8,9,9,10,10,11,11,12,12,13,13,14,14],"right_children":[2,4,6,8,10,12,14,16,18,20,22,24,26,28,30,-1,-1,-1,-1,-1,-1,-1,-1,-1,-1,-1,-1,-1,-1,-1,-1],"split_conditions":[1.627505E-1,-8.1615135E-2,-1.3541857E-2,1.1076778E0,-2.048006E-2,2.1178767E-1,1.8373676E-2,9.924088E-1,1.3549595E0,-3.065648E-2,-1.5446003E-2,1.8653567E-1,1.2678673E0,-3.1532884E-1,5.75047E1,-5.919028E-4,4.322369E-2,3.986197E-3,2.6794689E-2,8.3774654E-4,-3.0337555E-2,7.523632E-3,-1.8901022E-2,-3.2750983E-2,-9.170667E-2,6.287806E-3,-2.3991652E-2,2.5548773E-2,-7.78843E-4,-2.1881936E-3,1.3451162E-2],"split_indices":[8,0,3,5,11,8,3,5,5,8,0,8,5,0,6,0,0,0,0,0,0,0,0,0,0,0,0,0,0,0,0],"split_type":[0,0,0,0,0,0,0,0,0,0,0,0,0,0,0,0,0,0,0,0,0,0,0,0,0,0,0,0,0,0,0],"sum_hessian":[1.285E3,1.39E2,1.146E3,6.8E1,7.1E1,7.7E1,1.069E3,9E0,5.9E1,1.1E1,6E1,9E0,6.8E1,9.42E2,1.27E2,1E0,8E0,3.8E1,2.1E1,5E0,6E0,5.6E1,4E0,6E0,3E0,4.3E1,2.5E1,9E0,9.33E2,4.1E1,8.6E1],"tree_param":{"num_deleted":"0","num_feature":"15","num_nodes":"31","size_leaf_vector":"1"}},{"base_weights":[4.1242257E-2,1.6870919E-1,-7.960938E-1,6.99884E-1,-1.16035044E-1,-1.8561312E0,1.4048533E-1,9.039958E-1,-1.8966648E-1,-2.709554E-1,6.1542714E-1,-1.3835725E0,-7.21748E0,-5.3355306E-1,4.015865E-1,1.0177093E-2,-1.4068475E-2,1.8061284E-2,-4.375999E-3,-2.369827E-3,-2.803197E-2,3.2317605E-2,1.9877949E-3,1.6568882E-2,-1.9115565E-2,-9.280618E-2,-2.1583982E-2,-1.5674082E-3,-2.495178E-2,-1.9084625E-2,5.096886E-3],"categories":[],"categories_nodes":[],"categories_segments":[],"categories_sizes":[],"default_left":[0,0,0,0,0,0,0,0,0,0,0,0,0,0,0,0,0,0,0,0,0,0,0,0,0,0,0,0,0,0,0],"id":33,"left_children":[1,3,5,7,9,11,13,15,17,19,21,23,25,27,29,-1,-1,-1,-1,-1,-1,-1,-1,-1,-1,-1,-1,-1,-1,-1,-1],"loss_changes":[1.324828E2,1.6297635E2,1.6308142E2,6.844092E1,7.971627E1,1.8509763E2,1.5701583E1,7.667966E1,3.5284897E1,5.1189415E1,1.3276094E2,1.1548456E2,4.114453E1,1.7986574E1,1.6349941E1,0E0,0E0,0E0,0E0,0E0,0E0,0E0,0E0,0E0,0E0,0E0,0E0,0E0,0E0,0E0,0E0],"parents":[2147483647,0,0,1,1,2,2,3,3,4,4,5,5,6,6,7,7,8,8,9,9,10,10,11,11,12,12,13,13,14,14],"right_children":[2,4,6,8,10,12,14,16,18,20,22,24,26,28,30,-1,-1,-1,-1,-1,-1,-1,-1,-1,-1,-1,-1,-1,-1,-1,-1],"split_conditions":[1.3667527E-2,-7.981615E-2,-8.897072E-2,7.176808E1,1.4087966E-2,1.4362494E0,-1.0138138E-2,1.583365E0,-1.3966706E-1,1.359907E-2,-1.354838E-1,3.083644E1,-4.02854E-2,-1.3195458E-2,1.7976684E-2,1.0177093E-2,-1.4068475E-2,1.8061284E-2,-4.375999E-3,-2.369827E-3,-2.803197E-2,3.2317605E-2,1.9877949E-3,1.6568882E-2,-1.9115565E-2,-9.280618E-2,-2.1583982E-2,-1.5674082E-3,-2.495178E-2,-1.9084625E-2,5.096886E-3],"split_indices":[4,2,0,6,10,9,10,9,0,10,0,6,2,10,4,0,0,0,0,0,0,0,0,0,0,0,0,0,0,0,0],"split_type":[0,0,0,0,0,0,0,0,0,0,0,0,0,0,0,0,0,0,0,0,0,0,0,0,0,0,0,0,0,0,0],"sum_hessian":[1.239E3,1.076E3,1.63E2,3.75E2,7.01E2,7.6E1,8.7E1,3.05E2,7E1,5.79E2,1.22E2,7.1E1,5E0,2.4E1,6.3E1,2.92E2,1.3E1,7E0,6.3E1,5.72E2,7E0,1.6E1,1.06E2,1E1,6.1E1,3E0,2E0,2.1E1,3E0,2E0,6.1E1],"tree_param":{"num_deleted":"0","num_feature":"15","num_nodes":"31","size_leaf_vector":"1"}},{"base_weights":[1.0077001E-1,3.7298963E0,6.330613E-2,5.8482107E-2,1.7043791E0,5.021073E-1,-1.3062009E-1,-3.9434186E-3,2.485041E-2,3.7461684E0,4.1495728E-1,-2.4951594E0,-9.2110045E-2,9.971752E-3,5.454848E-2,4.8194183E-3,-5.703463E-2,-1.2858559E-2,-5.2559983E-2,-3.9854328E-4,-1.4646753E-2],"categories":[],"categories_nodes":[],"categories_segments":[],"categories_sizes":[],"default_left":[0,0,0,0,0,0,0,0,0,0,0,0,0,0,0,0,0,0,0,0,0],"id":34,"left_children":[1,3,5,-1,7,9,11,-1,-1,13,15,17,19,-1,-1,-1,-1,-1,-1,-1,-1],"loss_changes":[1.7297838E2,4.484407E1,1.0745554E2,0E0,1.3777582E1,1.0785816E2,7.953743E1,0E0,0E0,4.070981E1,1.4922308E2,3.9805603E1,6.1711735E1,0E0,0E0,0E0,0E0,0E0,0E0,0E0,0E0],"parents":[2147483647,0,0,1,1,2,2,4,4,5,5,6,6,9,9,10,10,11,11,12,12],"right_children":[2,4,6,-1,8,10,12,-1,-1,14,16,18,20,-1,-1,-1,-1,-1,-1,-1,-1],"split_conditions":[-3.7612204E-2,-6.802652E-3,1.1675156E0,5.8482107E-2,-2.1419903E-2,-2.5831027E-2,1.1726819E0,-3.9434186E-3,2.485041E-2,-4.1840013E-2,7.404234E-2,1.0758467E-2,5.2591085E-1,9.971752E-3,5.454848E-2,4.8194183E-3,-5.703463E-2,-1.2858559E-2,-5.2559983E-2,-3.9854328E-4,-1.4646753E-2],"split_indices":[12,4,5,0,7,11,5,0,0,11,14,11,4,0,0,0,0,0,0,0,0],"split_type":[0,0,0,0,0,0,0,0,0,0,0,0,0,0,0,0,0,0,0,0,0],"sum_hessian":[1.273E3,1.2E1,1.261E3,5E0,7E0,3.86E2,8.75E2,2E0,5E0,9E0,3.77E2,1.3E1,8.62E2,4E0,5E0,3.74E2,3E0,1E1,3E0,8.31E2,3.1E1],"tree_param":{"num_deleted":"0","num_feature":"15","num_nodes":"21","size_leaf_vector":"1"}},{"base_weights":[7.866636E-2,-4.0199393E-1,3.3761686E-1,-2.1017545E-1,-2.16446E0,6.630539E-1,-1.16858825E-1,2.9690542E0,-3.108136E-1,-1.1400043E0,-3.9324799E0,1.6337249E0,3.042394E-1,-1.2839903E0,7.1976893E-3,9.075167E-3,3.582163E-2,1.4607375E-3,-8.972084E-3,-1.5713155E-2,1.7867392E-2,-4.5442704E-2,-1.2136911E-2,2.5026845E-2,1.2696291E-2,-6.4154406E-4,9.687752E-3,1.5116333E-2,-2.138342E-2,9.161987E-3,-9.637413E-4],"categories":[],"categories_nodes":[],"categories_segments":[],"categories_sizes":[],"default_left":[0,0,0,0,0,0,0,0,0,0,0,0,0,0,0,0,0,0,0,0,0,0,0,0,0,0,0,0,0,0,0],"id":35,"left_children":[1,3,5,7,9,11,13,15,17,19,21,23,25,27,29,-1,-1,-1,-1,-1,-1,-1,-1,-1,-1,-1,-1,-1,-1,-1,-1],"loss_changes":[1.524836E2,1.4457864E2,1.1780844E2,1.2506412E2,7.158978E1,1.6110988E2,4.8224396E1,1.1407974E1,9.988132E1,3.7109287E1,1.833493E1,3.6556458E1,8.2385735E1,7.8061844E1,2.8150555E1,0E0,0E0,0E0,0E0,0E0,0E0,0E0,0E0,0E0,0E0,0E0,0E0,0E0,0E0,0E0,0E0],"parents":[2147483647,0,0,1,1,2,2,3,3,4,4,5,5,6,6,7,7,8,8,9,9,10,10,11,11,12,12,13,13,14,14],"right_children":[2,4,6,8,10,12,14,16,18,20,22,24,26,28,30,-1,-1,-1,-1,-1,-1,-1,-1,-1,-1,-1,-1,-1,-1,-1,-1],"split_conditions":[-6.2220297E-3,1.9046035E-1,-1.7951392E-2,-4.379727E-1,-1.8909752E-2,1.1698519E0,-2.5597966E-1,-4.9428013E-1,1.3721864E0,8.1339633E-1,-1.0138138E-2,2.617411E-1,1.4431165E0,-1.4187002E-3,-2.3999561E-1,9.075167E-3,3.582163E-2,1.4607375E-3,-8.972084E-3,-1.5713155E-2,1.7867392E-2,-4.5442704E-2,-1.2136911E-2,2.5026845E-2,1.2696291E-2,-6.4154406E-4,9.687752E-3,1.5116333E-2,-2.138342E-2,9.161987E-3,-9.637413E-4],"split_indices":[10,4,0,2,10,5,2,2,5,4,10,8,5,3,2,0,0,0,0,0,0,0,0,0,0,0,0,0,0,0,0],"split_type":[0,0,0,0,0,0,0,0,0,0,0,0,0,0,0,0,0,0,0,0,0,0,0,0,0,0,0,0,0,0,0],"sum_hessian":[1.223E3,4.28E2,7.95E2,3.87E2,4.1E1,4.63E2,3.32E2,1.1E1,3.76E2,2.7E1,1.4E1,1.24E2,3.39E2,3.1E1,3.01E2,3E0,8E0,2.11E2,1.65E2,2.4E1,3E0,1.1E1,3E0,3.6E1,8.8E1,2.18E2,1.21E2,7E0,2.4E1,3E1,2.71E2],"tree_param":{"num_deleted":"0","num_feature":"15","num_nodes":"31","size_leaf_vector":"1"}},{"base_weights":[-4.281522E-2,1.01080984E-1,-9.8840845E-1,4.2769435E-1,-1.8967326E-1,-2.295867E0,-4.435673E-1,4.8556948E-1,-2.835112E0,-7.126159E-1,1.401273E-1,-3.163402E0,-5.2780885E-1,-3.5088162E0,-1.2430277E-1,1.0968279E-2,2.6326354E-3,-7.782043E-2,-3.3462767E-3,-1.1466723E-2,1.8677706E-3,6.6811284E-3,-1.6071976E-3,-4.4645794E-2,-6.7975884E-3,1.9366328E-2,-1.4397369E-2,-7.5462095E-2,1.0698871E-2,3.367221E-2,-2.9346047E-3],"categories":[],"categories_nodes":[],"categories_segments":[],"categories_sizes":[],"default_left":[0,0,0,0,0,0,0,0,0,0,0,0,0,0,0,0,0,0,0,0,0,0,0,0,0,0,0,0,0,0,0],"id":36,"left_children":[1,3,5,7,9,11,13,15,17,19,21,23,25,27,29,-1,-1,-1,-1,-1,-1,-1,-1,-1,-1,-1,-1,-1,-1,-1,-1],"loss_changes":[1.6895941E2,1.0245256E2,1.1580821E2,9.7305E1,9.857839E1,7.1955246E1,1.14063E2,6.73734E1,1.0768117E2,8.483808E1,5.5187687E1,9.822174E1,4.035204E1,2.0844432E2,6.3030266E1,0E0,0E0,0E0,0E0,0E0,0E0,0E0,0E0,0E0,0E0,0E0,0E0,0E0,0E0,0E0,0E0],"parents":[2147483647,0,0,1,1,2,2,3,3,4,4,5,5,6,6,7,7,8,8,9,9,10,10,11,11,12,12,13,13,14,14],"right_children":[2,4,6,8,10,12,14,16,18,20,22,24,26,28,30,-1,-1,-1,-1,-1,-1,-1,-1,-1,-1,-1,-1,-1,-1,-1,-1],"split_conditions":[6.288534E-3,1.2858027E0,-1.0138138E-2,6.81728E-2,1.4282643E0,5.1546604E-3,-1.3108557E-2,-1.826873E-1,1.0191242E0,1.0228457E-2,-6.263209E-2,6.2924935E-3,3.4434357E1,-1.826873E-1,2.620504E1,1.0968279E-2,2.6326354E-3,-7.782043E-2,-3.3462767E-3,-1.1466723E-2,1.8677706E-3,6.6811284E-3,-1.6071976E-3,-4.4645794E-2,-6.7975884E-3,1.9366328E-2,-1.4397369E-2,-7.5462095E-2,1.0698871E-2,3.367221E-2,-2.9346047E-3],"split_indices":[4,5,10,14,5,7,7,2,5,10,2,14,6,2,6,0,0,0,0,0,0,0,0,0,0,0,0,0,0,0,0],"split_type":[0,0,0,0,0,0,0,0,0,0,0,0,0,0,0,0,0,0,0,0,0,0,0,0,0,0,0,0,0,0,0],"sum_hessian":[1.24E3,1.077E3,1.63E2,5.07E2,5.7E2,4.7E1,1.16E2,4.99E2,8E0,2.2E2,3.5E2,3.1E1,1.6E1,1E1,1.06E2,1.34E2,3.65E2,2E0,6E0,1.49E2,7.1E1,1.27E2,2.23E2,2E1,1.1E1,4E0,1.2E1,5E0,5E0,4E0,1.02E2],"tree_param":{"num_deleted":"0","num_feature":"15","num_nodes":"31","size_leaf_vector":"1"}},{"base_weights":[-2.7628627E-2,8.338749E-2,-1.2663497E0,9.0527207E-1,-5.8287073E-2,8.4975046E-1,-1.5976013E0,2.3292531E-1,2.3557508E0,-8.197227E-1,5.4136217E-2,2.011689E0,-1.2284386E0,-3.776654E0,-1.0533273E0,3.3530187E-2,6.9755653E-4,3.2058224E-2,1.24247195E-2,-5.817758E-3,-5.7604093E-2,9.593329E-3,-4.0811408E-4,5.3078025E-3,2.5899682E-2,-2.2832116E-2,-1.4270745E-3,1.5731772E-2,-4.2109255E-2,-2.7920604E-3,-2.3618493E-2],"categories":[],"categories_nodes":[],"categories_segments":[],"categories_sizes":[],"default_left":[0,0,0,0,0,0,0,0,0,0,0,0,0,0,0,0,0,0,0,0,0,0,0,0,0,0,0,0,0,0,0],"id":37,"left_children":[1,3,5,7,9,11,13,15,17,19,21,23,25,27,29,-1,-1,-1,-1,-1,-1,-1,-1,-1,-1,-1,-1,-1,-1,-1,-1],"loss_changes":[1.7722876E2,1.3780144E2,7.5659485E1,1.6914038E2,8.65035E1,3.8692154E1,1.0513408E2,6.0595016E1,4.7182343E1,1.5081744E2,7.500139E1,6.969902E0,6.455822E0,4.5554535E1,7.458189E1,0E0,0E0,0E0,0E0,0E0,0E0,0E0,0E0,0E0,0E0,0E0,0E0,0E0,0E0,0E0,0E0],"parents":[2147483647,0,0,1,1,2,2,3,3,4,4,5,5,6,6,7,7,8,8,9,9,10,10,11,11,12,12,13,13,14,14],"right_children":[2,4,6,8,10,12,14,16,18,20,22,24,26,28,30,-1,-1,-1,-1,-1,-1,-1,-1,-1,-1,-1,-1,-1,-1,-1,-1],"split_conditions":[1.0792036E-3,-1.3335378E-2,3.1185331E1,8.866366E-3,-7.691183E-1,-6.2629874E-3,-1.4760202E-2,-2.8351763E-2,-2.3435427E-2,8.050408E1,-7.2205704E-1,1.2045006E0,2.703108E-1,-1.99153E-2,1.21306926E-1,3.3530187E-2,6.9755653E-4,3.2058224E-2,1.24247195E-2,-5.817758E-3,-5.7604093E-2,9.593329E-3,-4.0811408E-4,5.3078025E-3,2.5899682E-2,-2.2832116E-2,-1.4270745E-3,1.5731772E-2,-4.2109255E-2,-2.7920604E-3,-2.3618493E-2],"split_indices":[1,12,6,10,1,3,3,3,1,6,1,5,1,7,1,0,0,0,0,0,0,0,0,0,0,0,0,0,0,0,0],"split_type":[0,0,0,0,0,0,0,0,0,0,0,0,0,0,0,0,0,0,0,0,0,0,0,0,0,0,0,0,0,0,0],"sum_hessian":[1.287E3,1.182E3,1.05E2,1.73E2,1.009E3,1.4E1,9.1E1,1.19E2,5.4E1,1.29E2,8.8E2,9E0,5E0,1.7E1,7.4E1,5E0,1.14E2,3E1,2.4E1,1.24E2,5E0,8.3E1,7.97E2,3E0,6E0,2E0,3E0,1E0,1.6E1,4.7E1,2.7E1],"tree_param":{"num_deleted":"0","num_feature":"15","num_nodes":"31","size_leaf_vector":"1"}},{"base_weights":[-4.25831E-2,3.9886281E0,-6.909101E-2,1.3618107E0,5.328138E-2,-1.3142764E-2,-1.6313326E0,1.8099067E-3,1.7073635E-2,-9.285159E-2,7.146571E-1,-3.086638E0,4.8055425E-1,-2.1119509E-2,-6.637412E-4,-4.118968E-2,8.843946E-3,-9.060011E-3,-4.0902153E-2,-4.2220606E-3,1.6690906E-2],"categories":[],"categories_nodes":[],"categories_segments":[],"categories_sizes":[],"default_left":[0,0,0,0,0,0,0,0,0,0,0,0,0,0,0,0,0,0,0,0,0],"id":38,"left_children":[1,3,5,7,-1,9,11,-1,-1,13,15,17,19,-1,-1,-1,-1,-1,-1,-1,-1],"loss_changes":[1.3085724E2,2.0190079E1,1.0617524E2,1.2747297E0,0E0,6.817252E1,1.3056778E2,0E0,0E0,5.7025223E1,9.491019E1,4.9705826E1,1.9766382E1,0E0,0E0,0E0,0E0,0E0,0E0,0E0,0E0],"parents":[2147483647,0,0,1,1,2,2,3,3,5,5,6,6,9,9,10,10,11,11,12,12],"right_children":[2,4,6,8,-1,10,12,-1,-1,14,16,18,20,-1,-1,-1,-1,-1,-1,-1,-1],"split_conditions":[-3.3826044E-1,9.44716E-2,1.2033891E-1,-5.6398535E-1,5.328138E-2,1.8373676E-2,-1.3157235E-1,1.8099067E-3,1.7073635E-2,-2.1419903E-2,-2.976613E-1,-1.0512014E-2,3.2867591E-3,-2.1119509E-2,-6.637412E-4,-4.118968E-2,8.843946E-3,-9.060011E-3,-4.0902153E-2,-4.2220606E-3,1.6690906E-2],"split_indices":[0,8,1,1,0,3,0,0,0,7,0,3,7,0,0,0,0,0,0,0,0],"split_type":[0,0,0,0,0,0,0,0,0,0,0,0,0,0,0,0,0,0,0,0,0],"sum_hessian":[1.221E3,7E0,1.214E3,3E0,4E0,1.173E3,4.1E1,1E0,2E0,1.058E3,1.15E2,2.4E1,1.7E1,1.3E1,1.045E3,3E0,1.12E2,8E0,1.6E1,1E1,7E0],"tree_param":{"num_deleted":"0","num_feature":"15","num_nodes":"21","size_leaf_vector":"1"}},{"base_weights":[7.854947E-2,1.3298732E0,8.015411E-3,3.2351906E0,6.028204E-1,-2.4585287E-1,3.2570082E-1,6.186071E-1,3.717267E0,1.0008019E-1,1.8525224E0,-5.9876376E-1,5.662451E-2,5.862566E-1,-5.312501E-1,8.684621E-3,2.5141125E-3,3.9571084E-2,3.6823573E-3,-3.661254E-3,1.1951369E-2,2.7999438E-2,-3.7775533E-3,-3.393285E-2,-4.952587E-3,1.2658226E-2,-9.7655965E-4,7.530811E-3,-8.159044E-3,-1.1514317E-2,5.7712143E-5],"categories":[],"categories_nodes":[],"categories_segments":[],"categories_sizes":[],"default_left":[0,0,0,0,0,0,0,0,0,0,0,0,0,0,0,0,0,0,0,0,0,0,0,0,0,0,0,0,0,0,0],"id":39,"left_children":[1,3,5,7,9,11,13,15,17,19,21,23,25,27,29,-1,-1,-1,-1,-1,-1,-1,-1,-1,-1,-1,-1,-1,-1,-1,-1],"loss_changes":[1.0916812E2,8.947734E1,9.4602165E1,2.0405548E1,3.0600098E1,6.9633316E1,1.1664215E2,1.4464617E-1,9.283844E0,1.8579567E1,3.000562E1,8.747018E1,6.505072E1,9.0981064E1,4.0129242E1,0E0,0E0,0E0,0E0,0E0,0E0,0E0,0E0,0E0,0E0,0E0,0E0,0E0,0E0,0E0,0E0],"parents":[2147483647,0,0,1,1,2,2,3,3,4,4,5,5,6,6,7,7,8,8,9,9,10,10,11,11,12,12,13,13,14,14],"right_children":[2,4,6,8,10,12,14,16,18,20,22,24,26,28,30,-1,-1,-1,-1,-1,-1,-1,-1,-1,-1,-1,-1,-1,-1,-1,-1],"split_conditions":[-3.627832E-1,4.7254982E1,2.8814594E-3,-4.688928E-1,1.0591543E0,1.2759245E-3,6.932906E1,-4.9428013E-1,1.5990037E-2,1.3244083E-2,-3.5771998E-4,-2.8655958E-1,-1.56012885E-2,1.5758495E0,7.242252E-1,8.684621E-3,2.5141125E-3,3.9571084E-2,3.6823573E-3,-3.661254E-3,1.1951369E-2,2.7999438E-2,-3.7775533E-3,-3.393285E-2,-4.952587E-3,1.2658226E-2,-9.7655965E-4,7.530811E-3,-8.159044E-3,-1.1514317E-2,5.7712143E-5],"split_indices":[2,6,10,2,9,3,6,2,7,12,10,2,12,9,9,0,0,0,0,0,0,0,0,0,0,0,0,0,0,0,0],"split_type":[0,0,0,0,0,0,0,0,0,0,0,0,0,0,0,0,0,0,0,0,0,0,0,0,0,0,0,0,0,0,0],"sum_hessian":[1.236E3,6.5E1,1.171E3,1.7E1,4.8E1,6.51E2,5.2E2,3E0,1.4E1,3.5E1,1.3E1,3E2,3.51E2,3.99E2,1.21E2,1E0,2E0,1.3E1,1E0,2.5E1,1E1,9E0,4E0,1E1,2.9E2,3.9E1,3.12E2,3.58E2,4.1E1,5.6E1,6.5E1],"tree_param":{"num_deleted":"0","num_feature":"15","num_nodes":"31","size_leaf_vector":"1"}},{"base_weights":[-1.2280028E-2,5.2156955E-1,-2.1086802E-1,-1.6663384E0,7.289443E-1,6.905062E-1,-3.478927E-1,2.7961E-1,-5.5861964E0,2.3623662E0,4.610494E-1,2.9392223E0,3.477963E-1,-3.2822464E0,-3.2161805E-1,2.6163625E-2,-2.5299669E-3,-9.403179E-2,-2.6609907E-2,-2.6413413E-2,2.8100546E-2,5.7314155E-3,-2.1637086E-2,3.9786298E-2,-7.960929E-4,-2.5403744E-3,1.3289345E-2,-5.0579604E-2,-7.248059E-3,1.4904345E-2,-3.725344E-3],"categories":[],"categories_nodes":[],"categories_segments":[],"categories_sizes":[],"default_left":[0,0,0,0,0,0,0,0,0,0,0,0,0,0,0,0,0,0,0,0,0,0,0,0,0,0,0,0,0,0,0],"id":40,"left_children":[1,3,5,7,9,11,13,15,17,19,21,23,25,27,29,-1,-1,-1,-1,-1,-1,-1,-1,-1,-1,-1,-1,-1,-1,-1,-1],"loss_changes":[1.3411433E2,1.5683954E2,1.1411694E2,2.3039722E2,1.3631262E2,9.2997955E1,6.070082E1,2.6509773E1,8.579135E1,1.0139804E2,7.779161E1,4.9218018E1,6.276248E1,2.7623268E1,6.9907715E1,0E0,0E0,0E0,0E0,0E0,0E0,0E0,0E0,0E0,0E0,0E0,0E0,0E0,0E0,0E0,0E0],"parents":[2147483647,0,0,1,1,2,2,3,3,4,4,5,5,6,6,7,7,8,8,9,9,10,10,11,11,12,12,13,13,14,14],"right_children":[2,4,6,8,10,12,14,16,18,20,22,24,26,28,30,-1,-1,-1,-1,-1,-1,-1,-1,-1,-1,-1,-1,-1,-1,-1,-1],"split_conditions":[1.1604928E0,-1.406807E-2,-1.256597E-2,1.351223E0,-9.918192E-3,-3.7612204E-2,-3.582861E-2,-7.645717E-3,-2.234665E-2,5.819318E-1,2.142856E-2,1.4505086E0,1.1553491E0,-6.557496E-3,-2.524782E-2,2.6163625E-2,-2.5299669E-3,-9.403179E-2,-2.6609907E-2,-2.6413413E-2,2.8100546E-2,5.7314155E-3,-2.1637086E-2,3.9786298E-2,-7.960929E-4,-2.5403744E-3,1.3289345E-2,-5.0579604E-2,-7.248059E-3,1.4904345E-2,-3.725344E-3],"split_indices":[5,7,13,9,11,12,12,12,3,9,7,5,9,3,3,0,0,0,0,0,0,0,0,0,0,0,0,0,0,0,0],"split_type":[0,0,0,0,0,0,0,0,0,0,0,0,0,0,0,0,0,0,0,0,0,0,0,0,0,0,0,0,0,0,0],"sum_hessian":[1.263E3,3.42E2,9.21E2,2.9E1,3.13E2,1.21E2,8E2,2E1,9E0,4.3E1,2.7E2,1.5E1,1.06E2,6E0,7.94E2,3E0,1.7E1,3E0,6E0,3E0,4E1,2.6E2,1E1,1.1E1,4E0,6.6E1,4E1,3E0,3E0,2E1,7.74E2],"tree_param":{"num_deleted":"0","num_feature":"15","num_nodes":"31","size_leaf_vector":"1"}},{"base_weights":[-1.6291266E-2,9.171804E-1,-1.3069715E-1,3.5480149E0,6.6337425E-1,-7.8565516E-2,-1.6322157E0,-5.49912E-3,3.9698741E0,1.0150098E0,-6.895961E-1,-1.303945E-1,1.3308054E0,-2.7850413E0,1.269845E-1,4.3926414E-2,1.8724437E-4,2.0177245E-2,2.0027445E-3,-2.5973856E-2,2.4376279E-3,-1.5329109E-3,3.7579004E-2,1.9646037E-2,5.017243E-3,-3.3862934E-2,-2.9891552E-4,1.1165185E-2,-1.7060356E-2],"categories":[],"categories_nodes":[],"categories_segments":[],"categories_sizes":[],"default_left":[0,0,0,0,0,0,0,0,0,0,0,0,0,0,0,0,0,0,0,0,0,0,0,0,0,0,0,0,0],"id":41,"left_children":[1,3,5,7,9,11,13,-1,15,17,19,21,23,25,27,-1,-1,-1,-1,-1,-1,-1,-1,-1,-1,-1,-1,-1,-1],"loss_changes":[1.3596268E2,9.045971E1,8.863746E1,2.2894714E1,6.1596256E1,8.030529E1,7.741957E1,0E0,1.7011856E1,8.193954E1,4.817916E1,9.0026306E1,1.9175789E1,3.6562164E1,3.0500765E1,0E0,0E0,0E0,0E0,0E0,0E0,0E0,0E0,0E0,0E0,0E0,0E0,0E0,0E0],"parents":[2147483647,0,0,1,1,2,2,3,3,4,4,5,5,6,6,8,8,9,9,10,10,11,11,12,12,13,13,14,14],"right_children":[2,4,6,8,10,12,14,-1,16,18,20,22,24,26,28,-1,-1,-1,-1,-1,-1,-1,-1,-1,-1,-1,-1,-1,-1],"split_conditions":[-1.256597E-2,-3.5465384E-1,4.142901E-1,2.620504E1,6.4040986E-3,3.0718863E-2,9.91764E-5,-5.49912E-3,9.635868E-3,-7.761149E-4,2.1668801E-2,3.0908588E-2,6.417373E-3,5.2959555E-1,5.1553245E-3,4.3926414E-2,1.8724437E-4,2.0177245E-2,2.0027445E-3,-2.5973856E-2,2.4376279E-3,-1.5329109E-3,3.7579004E-2,1.9646037E-2,5.017243E-3,-3.3862934E-2,-2.9891552E-4,1.1165185E-2,-1.7060356E-2],"split_indices":[13,4,4,6,2,3,13,0,3,7,2,13,13,2,3,0,0,0,0,0,0,0,0,0,0,0,0,0,0],"split_type":[0,0,0,0,0,0,0,0,0,0,0,0,0,0,0,0,0,0,0,0,0,0,0,0,0,0,0,0,0],"sum_hessian":[1.271E3,1.38E2,1.133E3,1.1E1,1.27E2,1.096E3,3.7E1,1E0,1E1,1.01E2,2.6E1,1.058E3,3.8E1,2.2E1,1.5E1,9E0,1E0,4.5E1,5.6E1,8E0,1.8E1,1.053E3,5E0,2.1E1,1.7E1,1.8E1,4E0,1E1,5E0],"tree_param":{"num_deleted":"0","num_feature":"15","num_nodes":"29","size_leaf_vector":"1"}},{"base_weights":[-3.6686126E-2,6.5772533E-1,-1.9073766E-1,3.9334118E0,5.201048E-1,9.700859E-2,-4.58579E-1,4.881993E0,4.0891927E-1,1.3641965E-1,1.7192616E0,-1.9523392E0,2.1503292E-1,-1.1182863E0,-8.358677E-2,1.216007E-2,5.3288307E-2,1.0574782E-2,-4.3995227E-3,1.5750553E-2,-1.2686851E-3,2.0112986E-2,-6.425293E-2,-5.1437253E-3,-5.347763E-2,-2.3792531E-2,2.7256717E-3,1.1071923E-2,-1.254625E-2,9.222085E-4,-1.3003973E-2],"categories":[],"categories_nodes":[],"categories_segments":[],"categories_sizes":[],"default_left":[0,0,0,0,0,0,0,0,0,0,0,0,0,0,0,0,0,0,0,0,0,0,0,0,0,0,0,0,0,0,0],"id":42,"left_children":[1,3,5,7,9,11,13,15,17,19,21,23,25,27,29,-1,-1,-1,-1,-1,-1,-1,-1,-1,-1,-1,-1,-1,-1,-1,-1],"loss_changes":[1.3373743E2,1.0028621E2,7.888745E1,2.8093063E1,1.0052707E2,1.1990502E2,1.3102063E2,4.178711E0,2.0868714E0,6.278443E1,1.3234375E2,1.2803273E2,6.785472E1,5.584413E1,7.186464E1,0E0,0E0,0E0,0E0,0E0,0E0,0E0,0E0,0E0,0E0,0E0,0E0,0E0,0E0,0E0,0E0],"parents":[2147483647,0,0,1,1,2,2,3,3,4,4,5,5,6,6,7,7,8,8,9,9,10,10,11,11,12,12,13,13,14,14],"right_children":[2,4,6,8,10,12,14,16,18,20,22,24,26,28,30,-1,-1,-1,-1,-1,-1,-1,-1,-1,-1,-1,-1,-1,-1,-1,-1],"split_conditions":[-9.359242E-3,-3.7739643E-1,1.2942575E0,5.775609E-3,-2.8098932E-5,2.1178767E-1,1.430894E0,1.147415E0,-5.090767E-1,-3.0016745E-2,4.973916E-2,1.785629E-1,-2.1419903E-2,-2.1956943E-2,7.8170076E-2,1.216007E-2,5.3288307E-2,1.0574782E-2,-4.3995227E-3,1.5750553E-2,-1.2686851E-3,2.0112986E-2,-6.425293E-2,-5.1437253E-3,-5.347763E-2,-2.3792531E-2,2.7256717E-3,1.1071923E-2,-1.254625E-2,9.222085E-4,-1.3003973E-2],"split_indices":[11,2,5,7,12,8,5,5,2,11,10,8,7,12,2,0,0,0,0,0,0,0,0,0,0,0,0,0,0,0,0],"split_type":[0,0,0,0,0,0,0,0,0,0,0,0,0,0,0,0,0,0,0,0,0,0,0,0,0,0,0,0,0,0,0],"sum_hessian":[1.248E3,2.26E2,1.022E3,8E0,2.18E2,4.93E2,5.29E2,6E0,2E0,1.66E2,5.2E1,2.6E1,4.67E2,1.91E2,3.38E2,1E0,5E0,1E0,1E0,2.5E1,1.41E2,5.1E1,1E0,1.9E1,7E0,9E0,4.58E2,1E1,1.81E2,2.96E2,4.2E1],"tree_param":{"num_deleted":"0","num_feature":"15","num_nodes":"31","size_leaf_vector":"1"}},{"base_weights":[-9.797463E-3,5.001984E-1,-2.0889096E-1,2.3142023E0,3.3927023E-1,-1.0992234E-1,-1.2020223E0,-4.5125894E-3,2.4288688E0,4.114258E-1,-7.714636E-2,-8.7100536E-1,-2.8261957E-3,-1.997296E0,5.2140784E-1,2.8942265E-2,1.3477828E-2,4.8938678E-3,-3.103213E-2,-1.1856278E-2,1.5631372E-2,1.3673787E-2,-1.2040469E-3,-2.4054458E-2,-1.417841E-3,1.3251382E-2,-3.2609973E-2],"categories":[],"categories_nodes":[],"categories_segments":[],"categories_sizes":[],"default_left":[0,0,0,0,0,0,0,0,0,0,0,0,0,0,0,0,0,0,0,0,0,0,0,0,0,0,0],"id":43,"left_children":[1,3,5,7,9,11,13,-1,15,17,-1,19,21,23,25,-1,-1,-1,-1,-1,-1,-1,-1,-1,-1,-1,-1],"loss_changes":[1.2946245E2,1.037238E2,8.999875E1,1.0274689E1,1.9369331E2,6.8057594E1,1.14801094E2,0E0,9.76265E0,8.707271E1,0E0,7.838175E1,1.166555E2,4.1143906E1,8.496555E1,0E0,0E0,0E0,0E0,0E0,0E0,0E0,0E0,0E0,0E0,0E0,0E0],"parents":[2147483647,0,0,1,1,2,2,3,3,4,4,5,5,6,6,8,8,9,9,11,11,12,12,13,13,14,14],"right_children":[2,4,6,8,10,12,14,-1,16,18,-1,20,22,24,26,-1,-1,-1,-1,-1,-1,-1,-1,-1,-1,-1,-1],"split_conditions":[1.1624123E0,-1.11866165E-2,1.0792036E-3,-3.0668056E-2,7.404234E-2,-8.253916E-1,6.220731E-3,-4.5125894E-3,5.38879E-3,3.2141352E-1,-7.714636E-2,1.8995569E0,-2.115152E-2,1.858783E-2,1.5401148E-2,2.8942265E-2,1.3477828E-2,4.8938678E-3,-3.103213E-2,-1.1856278E-2,1.5631372E-2,1.3673787E-2,-1.2040469E-3,-2.4054458E-2,-1.417841E-3,1.3251382E-2,-3.2609973E-2],"split_indices":[5,12,1,12,14,1,7,0,7,1,0,5,12,12,7,0,0,0,0,0,0,0,0,0,0,0,0],"split_type":[0,0,0,0,0,0,0,0,0,0,0,0,0,0,0,0,0,0,0,0,0,0,0,0,0,0,0],"sum_hessian":[1.273E3,3.57E2,9.16E2,2.8E1,3.29E2,8.34E2,8.2E1,1E0,2.7E1,3.27E2,2E0,1.02E2,7.32E2,5.6E1,2.6E1,1.8E1,9E0,3.21E2,6E0,9.1E1,1.1E1,5.7E1,6.75E2,4.6E1,1E1,2.2E1,4E0],"tree_param":{"num_deleted":"0","num_feature":"15","num_nodes":"27","size_leaf_vector":"1"}},{"base_weights":[6.498416E-2,1.7556506E-1,-1.1144631E0,1.0487629E0,-3.3123553E-2,-3.3207145E0,-5.6276834E-1,1.7263123E0,4.9133652E-1,1.4143033E-1,-3.3901885E-1,-2.0600035E0,-5.5853598E-2,-1.7737138E0,5.240729E-2,4.670181E-3,2.60646E-2,2.5158329E-2,9.350017E-4,-4.42263E-3,3.948581E-3,-1.1717656E-2,-2.6096723E-3,2.1820809E-3,-2.66515E-2,9.131472E-3,-2.1322332E-2,5.290066E-3,-1.2304444E-2],"categories":[],"categories_nodes":[],"categories_segments":[],"categories_sizes":[],"default_left":[0,0,0,0,0,0,0,0,0,0,0,0,0,0,0,0,0,0,0,0,0,0,0,0,0,0,0,0,0],"id":44,"left_children":[1,3,5,7,9,11,13,15,17,19,21,23,-1,25,27,-1,-1,-1,-1,-1,-1,-1,-1,-1,-1,-1,-1,-1,-1],"loss_changes":[1.6126971E2,2.0595062E2,1.2715199E2,8.148689E1,4.8797775E1,4.75347E1,6.415816E1,1.0552374E2,9.656275E1,8.4929825E1,2.1553417E1,2.0629005E1,0E0,2.8679482E1,3.5612713E1,0E0,0E0,0E0,0E0,0E0,0E0,0E0,0E0,0E0,0E0,0E0,0E0,0E0,0E0],"parents":[2147483647,0,0,1,1,2,2,3,3,4,4,5,5,6,6,7,7,8,8,9,9,10,10,11,11,13,13,14,14],"right_children":[2,4,6,8,10,12,14,16,18,20,22,24,-1,26,28,-1,-1,-1,-1,-1,-1,-1,-1,-1,-1,-1,-1,-1,-1],"split_conditions":[6.0526934E-4,-8.675851E-2,-2.1641108E-1,-4.5308867E-1,-7.109701E-3,6.344779E-4,2.195553E-2,-7.7936834E-1,-2.1087047E-2,3.9715302E-1,-2.5597966E-1,5.4371998E-2,-5.5853598E-2,1.627505E-1,8.108595E-1,4.670181E-3,2.60646E-2,2.5158329E-2,9.350017E-4,-4.42263E-3,3.948581E-3,-1.1717656E-2,-2.6096723E-3,2.1820809E-3,-2.66515E-2,9.131472E-3,-2.1322332E-2,5.290066E-3,-1.2304444E-2],"split_indices":[1,0,0,1,0,11,1,1,3,8,2,1,0,8,8,0,0,0,0,0,0,0,0,0,0,0,0,0,0],"split_type":[0,0,0,0,0,0,0,0,0,0,0,0,0,0,0,0,0,0,0,0,0,0,0,0,0,0,0,0,0],"sum_hessian":[1.234E3,1.129E3,1.05E2,2.17E2,9.12E2,2E1,8.5E1,9.7E1,1.2E2,5.81E2,3.31E2,1.4E1,6E0,2.8E1,5.7E1,4E1,5.7E1,1.9E1,1.01E2,1.75E2,4.06E2,2.8E1,3.03E2,3E0,1.1E1,3E0,2.5E1,4.2E1,1.5E1],"tree_param":{"num_deleted":"0","num_feature":"15","num_nodes":"29","size_leaf_vector":"1"}},{"base_weights":[-4.583522E-2,3.62903E-2,-1.1138794E0,-4.5569014E-2,9.963697E-1,-2.4273639E0,-6.918639E-1,2.829547E0,-6.4693056E-2,1.4063089E0,-6.095247E-1,-1.3516515E0,-3.7365567E-2,9.015714E-2,-1.4317739E0,-2.1011086E-2,4.0238265E-2,-1.9484838E-2,-3.5952879E-4,2.4782756E-2,8.987697E-3,-2.0170437E-2,1.8923361E-3,-1.6926624E-2,3.0967158E-3,-4.443614E-2,5.130284E-3,-2.8265199E-2,-1.2631884E-3],"categories":[],"categories_nodes":[],"categories_segments":[],"categories_sizes":[],"default_left":[0,0,0,0,0,0,0,0,0,0,0,0,0,0,0,0,0,0,0,0,0,0,0,0,0,0,0,0,0],"id":45,"left_children":[1,3,5,7,9,11,13,15,17,19,21,23,-1,25,27,-1,-1,-1,-1,-1,-1,-1,-1,-1,-1,-1,-1,-1,-1],"loss_changes":[1.0810368E2,9.00326E1,4.709993E1,5.8245983E1,6.0105896E1,2.3991158E1,3.9475594E1,4.8513447E1,5.685777E1,3.682553E1,2.1498434E1,7.627619E0,0E0,6.64774E1,6.2548523E1,0E0,0E0,0E0,0E0,0E0,0E0,0E0,0E0,0E0,0E0,0E0,0E0,0E0,0E0],"parents":[2147483647,0,0,1,1,2,2,3,3,4,4,5,5,6,6,7,7,8,8,9,9,10,10,11,11,13,13,14,14],"right_children":[2,4,6,8,10,12,14,16,18,20,22,24,-1,26,28,-1,-1,-1,-1,-1,-1,-1,-1,-1,-1,-1,-1,-1,-1],"split_conditions":[1.0792036E-3,2.0904632E-2,2.195553E-2,-4.0807758E-2,9.568992E-1,1.2947414E-2,1.2033891E-1,-9.056461E-1,-4.2793356E-2,1.104384E0,2.8487602E-2,3.0843504E-3,-3.7365567E-2,-2.0465242E-2,1.1304449E0,-2.1011086E-2,4.0238265E-2,-1.9484838E-2,-3.5952879E-4,2.4782756E-2,8.987697E-3,-2.0170437E-2,1.8923361E-3,-1.6926624E-2,3.0967158E-3,-4.443614E-2,5.130284E-3,-2.8265199E-2,-1.2631884E-3],"split_indices":[1,3,1,12,8,1,1,1,3,5,3,1,0,12,9,0,0,0,0,0,0,0,0,0,0,0,0,0,0],"split_type":[0,0,0,0,0,0,0,0,0,0,0,0,0,0,0,0,0,0,0,0,0,0,0,0,0,0,0,0,0],"sum_hessian":[1.231E3,1.144E3,8.7E1,1.055E3,8.9E1,2E1,6.7E1,6E0,1.049E3,7.1E1,1.8E1,1.2E1,8E0,3.3E1,3.4E1,1E0,5E0,1.5E1,1.034E3,2.2E1,4.9E1,6E0,1.2E1,1E1,2E0,2E0,3.1E1,1.6E1,1.8E1],"tree_param":{"num_deleted":"0","num_feature":"15","num_nodes":"29","size_leaf_vector":"1"}},{"base_weights":[-3.710303E-2,3.8648475E-2,-1.611286E0,9.5461357E-1,-3.4797408E-2,3.1690292E-2,-1.8415735E0,1.2043376E0,-4.5906754E0,2.9934078E-1,-1.7383328E-1,-2.3409684E0,9.709967E-1,2.7069196E-2,1.6311023E-3,7.533835E-3,-6.664539E-2,-3.8957454E-3,5.6175706E-3,-2.2851247E-2,-1.3324117E-3,-7.26961E-3,-3.2561366E-2,-1.41667E-3,1.9012779E-2],"categories":[],"categories_nodes":[],"categories_segments":[],"categories_sizes":[],"default_left":[0,0,0,0,0,0,0,0,0,0,0,0,0,0,0,0,0,0,0,0,0,0,0,0,0],"id":46,"left_children":[1,3,5,7,9,-1,11,13,15,17,19,21,23,-1,-1,-1,-1,-1,-1,-1,-1,-1,-1,-1,-1],"loss_changes":[1.4804745E2,7.975274E1,6.826573E1,1.273904E2,5.1062035E1,0E0,7.952515E1,1.3107872E2,4.828737E1,5.7550667E1,6.717613E1,6.563391E1,9.445838E0,0E0,0E0,0E0,0E0,0E0,0E0,0E0,0E0,0E0,0E0,0E0,0E0],"parents":[2147483647,0,0,1,1,2,2,3,3,4,4,6,6,7,7,8,8,9,9,10,10,11,11,12,12],"right_children":[2,4,6,8,10,-1,12,14,16,18,20,22,24,-1,-1,-1,-1,-1,-1,-1,-1,-1,-1,-1,-1],"split_conditions":[6.525543E-2,-1.7756172E-2,-4.425517E-2,5.8067877E-2,1.1675156E0,3.1690292E-2,1.0476821E-2,1.3097101E0,-8.253916E-1,5.885824E-1,1.1750255E0,1.631496E-1,1.0539295E-1,2.7069196E-2,1.6311023E-3,7.533835E-3,-6.664539E-2,-3.8957454E-3,5.6175706E-3,-2.2851247E-2,-1.3324117E-3,-7.26961E-3,-3.2561366E-2,-1.41667E-3,1.9012779E-2],"split_indices":[1,11,12,10,5,0,12,5,1,9,5,4,1,0,0,0,0,0,0,0,0,0,0,0,0],"split_type":[0,0,0,0,0,0,0,0,0,0,0,0,0,0,0,0,0,0,0,0,0,0,0,0,0],"sum_hessian":[1.24E3,1.184E3,5.6E1,8.7E1,1.097E3,2E0,5.4E1,8.4E1,3E0,3.22E2,7.75E2,4.6E1,8E0,3.4E1,5E1,1E0,2E0,8.8E1,2.34E2,1.4E1,7.61E2,1.7E1,2.9E1,4E0,4E0],"tree_param":{"num_deleted":"0","num_feature":"15","num_nodes":"25","size_leaf_vector":"1"}},{"base_weights":[-2.5967332E-2,8.1775486E-1,-1.298329E-1,2.1321354E0,4.085668E-1,-7.2145E-2,-1.7101197E0,7.819536E-1,2.685173E0,-1.4831253E0,6.604775E-1,-2.3834534E0,-3.7931632E-2,1.4033777E0,-3.0945964E0,1.9221028E-2,-1.3583855E-3,4.340303E-2,1.5409202E-2,-2.3749303E-2,-6.859067E-4,7.386749E-3,-3.1697948E-2,-5.1792026E-2,-2.1386694E-3,9.324645E-6,-1.7644214E-2,-1.2105243E-2,2.71332E-2,-2.1945741E-2,-6.9129504E-2],"categories":[],"categories_nodes":[],"categories_segments":[],"categories_sizes":[],"default_left":[0,0,0,0,0,0,0,0,0,0,0,0,0,0,0,0,0,0,0,0,0,0,0,0,0,0,0,0,0,0,0],"id":47,"left_children":[1,3,5,7,9,11,13,15,17,19,21,23,25,27,29,-1,-1,-1,-1,-1,-1,-1,-1,-1,-1,-1,-1,-1,-1,-1,-1],"loss_changes":[1.1192674E2,7.442492E1,1.0352942E2,2.2541458E1,5.2445625E1,8.673685E1,1.7676544E2,1.1626593E1,3.6580765E1,1.5950596E1,2.909005E1,9.481314E1,7.21589E1,4.6997665E1,8.1643616E1,0E0,0E0,0E0,0E0,0E0,0E0,0E0,0E0,0E0,0E0,0E0,0E0,0E0,0E0,0E0,0E0],"parents":[2147483647,0,0,1,1,2,2,3,3,4,4,5,5,6,6,7,7,8,8,9,9,10,10,11,11,12,12,13,13,14,14],"right_children":[2,4,6,8,10,12,14,16,18,20,22,24,26,28,30,-1,-1,-1,-1,-1,-1,-1,-1,-1,-1,-1,-1,-1,-1,-1,-1],"split_conditions":[-1.256597E-2,-2.3091005E-2,3.5892222E-2,-2.3381483E-2,8.895512E-3,-2.9187132E-2,-1.2511596E-2,-3.04025E-2,-2.287977E-2,-2.0359013E-2,6.804193E-1,-9.873938E-3,5.624273E-1,4.5446143E-2,2.1529477E-2,1.9221028E-2,-1.3583855E-3,4.340303E-2,1.5409202E-2,-2.3749303E-2,-6.859067E-4,7.386749E-3,-3.1697948E-2,-5.1792026E-2,-2.1386694E-3,9.324645E-6,-1.7644214E-2,-1.2105243E-2,2.71332E-2,-2.1945741E-2,-6.9129504E-2],"split_indices":[13,11,14,13,8,12,12,13,12,13,4,3,4,14,12,0,0,0,0,0,0,0,0,0,0,0,0,0,0,0,0],"split_type":[0,0,0,0,0,0,0,0,0,0,0,0,0,0,0,0,0,0,0,0,0,0,0,0,0,0,0,0,0,0,0],"sum_hessian":[1.275E3,1.39E2,1.136E3,3.2E1,1.07E2,1.097E3,3.9E1,1E1,2.2E1,1.2E1,9.5E1,1.5E1,1.082E3,1.2E1,2.7E1,4E0,6E0,8E0,1.4E1,7E0,5E0,9.4E1,1E0,6E0,9E0,1.059E3,2.3E1,4E0,8E0,2.3E1,4E0],"tree_param":{"num_deleted":"0","num_feature":"15","num_nodes":"31","size_leaf_vector":"1"}},{"base_weights":[5.31268E-2,1.7957549E0,1.8283897E-3,2.6503723E0,1.4560446E-1,8.977631E-2,-7.9791695E-1,-1.2339205E0,3.294712E0,6.906821E-1,-1.2534908E0,1.0545815E0,-9.371835E-3,-4.165223E0,-4.4756243E-1,-1.55700175E-2,-1.490233E-3,3.4723423E-2,1.8262592E-3,-1.2338338E-2,1.0467985E-2,-2.7877209E-3,-1.49677275E-2,-6.3303776E-2,1.2003223E-2,4.590801E-3,-2.2270046E-3,-2.2658868E-2,-8.578082E-2,-1.2743689E-2,3.0883574E-3],"categories":[],"categories_nodes":[],"categories_segments":[],"categories_sizes":[],"default_left":[0,0,0,0,0,0,0,0,0,0,0,0,0,0,0,0,0,0,0,0,0,0,0,0,0,0,0,0,0,0,0],"id":48,"left_children":[1,3,5,7,9,11,13,15,17,19,21,23,25,27,29,-1,-1,-1,-1,-1,-1,-1,-1,-1,-1,-1,-1,-1,-1,-1,-1],"loss_changes":[1.0941503E2,4.897274E1,8.37714E1,6.162993E1,1.0779765E1,1.0265161E2,1.3734639E2,1.1289921E0,8.982727E0,7.9635854E0,4.9940872E-1,1.0858753E2,9.611829E1,7.254523E1,6.704854E1,0E0,0E0,0E0,0E0,0E0,0E0,0E0,0E0,0E0,0E0,0E0,0E0,0E0,0E0,0E0,0E0],"parents":[2147483647,0,0,1,1,2,2,3,3,4,4,5,5,6,6,7,7,8,8,9,9,10,10,11,11,12,12,13,13,14,14],"right_children":[2,4,6,8,10,12,14,16,18,20,22,24,26,28,30,-1,-1,-1,-1,-1,-1,-1,-1,-1,-1,-1,-1,-1,-1,-1,-1],"split_conditions":[2.620504E1,-1.2157708E-2,6.755519E-2,-3.6615916E-2,4.375272E-3,-1.45489955E-2,-2.1087047E-2,-1.03434436E-1,7.04E-2,-8.698294E-3,7.0714173E-3,2.690406E1,-4.9114518E-2,-5.704071E-3,-5.8626283E-5,-1.55700175E-2,-1.490233E-3,3.4723423E-2,1.8262592E-3,-1.2338338E-2,1.0467985E-2,-2.7877209E-3,-1.49677275E-2,-6.3303776E-2,1.2003223E-2,4.590801E-3,-2.2270046E-3,-2.2658868E-2,-8.578082E-2,-1.2743689E-2,3.0883574E-3],"split_indices":[6,11,4,10,11,3,3,2,2,11,11,6,2,11,13,0,0,0,0,0,0,0,0,0,0,0,0,0,0,0,0],"split_type":[0,0,0,0,0,0,0,0,0,0,0,0,0,0,0,0,0,0,0,0,0,0,0,0,0,0,0,0,0,0,0],"sum_hessian":[1.223E3,3.4E1,1.189E3,2.2E1,1.2E1,1.072E3,1.17E2,3E0,1.9E1,9E0,3E0,9.9E1,9.73E2,1E1,1.07E2,2E0,1E0,1.8E1,1E0,1E0,8E0,1E0,2E0,1E0,9.8E1,3.04E2,6.69E2,8E0,2E0,5.1E1,5.6E1],"tree_param":{"num_deleted":"0","num_feature":"15","num_nodes":"31","size_leaf_vector":"1"}},{"base_weights":[1.2373185E-2,1.383478E-1,-9.117983E-1,1.4276211E0,6.753854E-2,-5.6900734E-1,-5.7225294E0,3.228772E0,6.125669E-2,-5.392726E-1,1.5238021E-1,-3.025037E0,-3.0013484E-1,-6.384608E-2,-2.1784438E-2,5.0131064E-2,1.7413914E-2,2.1145663E-3,-2.4406297E-2,1.7237162E-2,-7.0567927E-3,4.9962443E-3,-2.1625418E-4,-1.0964655E-2,-7.643933E-2,-9.838815E-3,7.3933285E-3],"categories":[],"categories_nodes":[],"categories_segments":[],"categories_sizes":[],"default_left":[0,0,0,0,0,0,0,0,0,0,0,0,0,0,0,0,0,0,0,0,0,0,0,0,0,0,0],"id":49,"left_children":[1,3,5,7,9,11,13,15,17,19,21,23,25,-1,-1,-1,-1,-1,-1,-1,-1,-1,-1,-1,-1,-1,-1],"loss_changes":[1.4751659E2,1.016947E2,2.4740329E2,1.4254189E2,5.455105E1,9.35234E1,8.313263E0,5.6996643E1,1.3082099E1,4.8517574E1,5.555433E1,1.15525925E2,9.178298E1,0E0,0E0,0E0,0E0,0E0,0E0,0E0,0E0,0E0,0E0,0E0,0E0,0E0,0E0],"parents":[2147483647,0,0,1,1,2,2,3,3,4,4,5,5,6,6,7,7,8,8,9,9,10,10,11,11,12,12],"right_children":[2,4,6,8,10,12,14,16,18,20,22,24,26,-1,-1,-1,-1,-1,-1,-1,-1,-1,-1,-1,-1,-1,-1],"split_conditions":[6.288534E-3,-3.7153462E-1,2.3214212E-2,5.0607307E1,-2.1270543E-2,-1.0686439E-2,4.657826E1,-1.5283719E-2,9.93605E-3,-4.9882203E-2,-1.085527E-3,3.676618E-2,3.1996926E-3,-6.384608E-2,-2.1784438E-2,5.0131064E-2,1.7413914E-2,2.1145663E-3,-2.4406297E-2,1.7237162E-2,-7.0567927E-3,4.9962443E-3,-2.1625418E-4,-1.0964655E-2,-7.643933E-2,-9.838815E-3,7.3933285E-3],"split_indices":[4,2,11,6,10,7,6,10,7,10,11,10,10,0,0,0,0,0,0,0,0,0,0,0,0,0,0],"split_type":[0,0,0,0,0,0,0,0,0,0,0,0,0,0,0,0,0,0,0,0,0,0,0,0,0,0,0],"sum_hessian":[1.265E3,1.114E3,1.51E2,5.7E1,1.057E3,1.42E2,9E0,2.4E1,3.3E1,1.29E2,9.28E2,1.3E1,1.29E2,7E0,2E0,1E1,1.4E1,3.2E1,1E0,8E0,1.21E2,3.11E2,6.17E2,1E1,3E0,7.8E1,5.1E1],"tree_param":{"num_deleted":"0","num_feature":"15","num_nodes":"27","size_leaf_vector":"1"}},{"base_weights":[1.609088E-2,1.2988025E-1,-1.3019401E0,-3.7929215E-2,5.307325E-1,-2.3035166E0,-4.0808234E-1,-8.474066E-1,1.392785E-1,3.0460322E0,3.9502457E-1,-3.4715464E0,-6.115005E-1,-2.333561E0,-1.588958E-1,-5.8908113E-3,-2.3716912E-2,5.039789E-3,-1.5678479E-3,4.294344E-4,3.711491E-2,4.791197E-3,-3.9297946E-2,9.450587E-5,-3.6301684E-2,-2.204641E-2,1.1938354E-2,7.171106E-3,-3.10605E-2,-1.4337666E-2,2.1297021E-3],"categories":[],"categories_nodes":[],"categories_segments":[],"categories_sizes":[],"default_left":[0,0,0,0,0,0,0,0,0,0,0,0,0,0,0,0,0,0,0,0,0,0,0,0,0,0,0,0,0,0,0],"id":50,"left_children":[1,3,5,7,9,11,13,15,17,19,21,23,25,27,29,-1,-1,-1,-1,-1,-1,-1,-1,-1,-1,-1,-1,-1,-1,-1,-1],"loss_changes":[1.849419E2,7.636794E1,8.679613E1,1.1501798E2,1.13147705E2,8.878813E1,2.5058784E1,5.559005E1,7.021545E1,3.2546738E1,1.12756805E2,1.2650696E1,5.9332165E1,1.5933708E1,2.279843E1,0E0,0E0,0E0,0E0,0E0,0E0,0E0,0E0,0E0,0E0,0E0,0E0,0E0,0E0,0E0,0E0],"parents":[2147483647,0,0,1,1,2,2,3,3,4,4,5,5,6,6,7,7,8,8,9,9,10,10,11,11,12,12,13,13,14,14],"right_children":[2,4,6,8,10,12,14,16,18,20,22,24,26,28,30,-1,-1,-1,-1,-1,-1,-1,-1,-1,-1,-1,-1,-1,-1,-1,-1],"split_conditions":[1.0792036E-3,1.0990818E0,-1.0495389E-2,-1.4552841E-2,-3.627832E-1,5.1546604E-3,-1.2050993E-1,3.3246153E-3,-1.7371912E-2,-1.649046E-2,4.4619378E-2,7.766549E-2,1.2835209E-1,6.0834378E-2,4.7727056E-2,-5.8908113E-3,-2.3716912E-2,5.039789E-3,-1.5678479E-3,4.294344E-4,3.711491E-2,4.791197E-3,-3.9297946E-2,9.450587E-5,-3.6301684E-2,-2.204641E-2,1.1938354E-2,7.171106E-3,-3.10605E-2,-1.4337666E-2,2.1297021E-3],"split_indices":[1,9,10,10,2,7,2,2,1,7,10,8,1,1,1,0,0,0,0,0,0,0,0,0,0,0,0,0,0,0,0],"split_type":[0,0,0,0,0,0,0,0,0,0,0,0,0,0,0,0,0,0,0,0,0,0,0,0,0,0,0,0,0,0,0],"sum_hessian":[1.231E3,1.134E3,9.7E1,8E2,3.34E2,4.5E1,5.2E1,1.43E2,6.57E2,1.6E1,3.18E2,2.6E1,1.9E1,5E0,4.7E1,1.23E2,2E1,2.95E2,3.62E2,3E0,1.3E1,3.13E2,5E0,1E0,2.5E1,1E1,9E0,1E0,4E0,1E1,3.7E1],"tree_param":{"num_deleted":"0","num_feature":"15","num_nodes":"31","size_leaf_vector":"1"}},{"base_weights":[1.0289805E-2,1.3645649E0,-5.1527385E-2,3.6007383E0,4.5862982E-1,4.5298997E-1,-2.4859075E-1,8.622903E-1,4.4416966E0,-3.5169575E-1,2.231E0,2.6994526E0,2.537637E-1,-1.5112215E0,-1.3801834E-1,1.4831154E-2,-3.624832E-4,5.0271954E-2,1.12958895E-2,1.0483708E-2,-8.4795905E-3,-5.8127166E-4,2.9431598E-2,-2.5010463E-2,3.443996E-2,-2.1218678E-2,3.719423E-3,-1.0237732E-2,-3.4745224E-2,3.507203E-3,-3.6335476E-3],"categories":[],"categories_nodes":[],"categories_segments":[],"categories_sizes":[],"default_left":[0,0,0,0,0,0,0,0,0,0,0,0,0,0,0,0,0,0,0,0,0,0,0,0,0,0,0,0,0,0,0],"id":51,"left_children":[1,3,5,7,9,11,13,15,17,19,21,23,25,27,29,-1,-1,-1,-1,-1,-1,-1,-1,-1,-1,-1,-1,-1,-1,-1,-1],"loss_changes":[1.0739613E2,1.1179495E2,1.22103264E2,3.3016693E1,5.96687E1,1.5372122E2,1.23068924E2,2.7967265E0,1.6376602E1,2.0694954E1,2.0770004E1,1.1320703E2,8.76456E1,6.4577484E1,8.826553E1,0E0,0E0,0E0,0E0,0E0,0E0,0E0,0E0,0E0,0E0,0E0,0E0,0E0,0E0,0E0,0E0],"parents":[2147483647,0,0,1,1,2,2,3,3,4,4,5,5,6,6,7,7,8,8,9,9,10,10,11,11,12,12,13,13,14,14],"right_children":[2,4,6,8,10,12,14,16,18,20,22,24,26,28,30,-1,-1,-1,-1,-1,-1,-1,-1,-1,-1,-1,-1,-1,-1,-1,-1],"split_conditions":[-3.627832E-1,-9.699211E-3,1.1624123E0,1.1792152E0,-3.8804302E-1,-1.4303088E-1,-2.5597966E-1,-3.1971666E-1,-7.362257E-2,-2.4104225E-3,1.2319127E0,-3.4450464E-2,-1.6823081E-2,1.570499E0,-3.8079186E-3,1.4831154E-2,-3.624832E-4,5.0271954E-2,1.12958895E-2,1.0483708E-2,-8.4795905E-3,-5.8127166E-4,2.9431598E-2,-2.5010463E-2,3.443996E-2,-2.1218678E-2,3.719423E-3,-1.0237732E-2,-3.4745224E-2,3.507203E-3,-3.6335476E-3],"split_indices":[2,10,5,5,2,0,2,0,0,13,5,11,7,5,7,0,0,0,0,0,0,0,0,0,0,0,0,0,0,0,0],"split_type":[0,0,0,0,0,0,0,0,0,0,0,0,0,0,0,0,0,0,0,0,0,0,0,0,0,0,0,0,0,0,0],"sum_hessian":[1.281E3,5.5E1,1.226E3,1.5E1,4E1,3.44E2,8.82E2,4E0,1.1E1,2.8E1,1.2E1,2.7E1,3.17E2,7E1,8.12E2,2E0,2E0,9E0,2E0,7E0,2.1E1,3E0,9E0,3E0,2.4E1,1.4E1,3.03E2,5.7E1,1.3E1,2.55E2,5.57E2],"tree_param":{"num_deleted":"0","num_feature":"15","num_nodes":"31","size_leaf_vector":"1"}},{"base_weights":[3.5555817E-2,-2.768298E-1,3.1376463E-1,3.093762E0,-3.8429213E-1,2.634607E-1,3.867248E0,1.0222613E0,4.319057E0,-2.909667E-1,-1.7811934E0,4.9433783E-1,-2.346693E-1,5.4175086E-2,6.2961817E-1,1.6022785E-2,5.549722E-4,4.9584802E-2,2.0407494E-2,-6.9793095E-3,8.791656E-4,-4.7932055E-2,-1.0072698E-2,4.2990013E-3,3.362449E-2,-1.9310275E-2,-1.2965738E-3,1.5014618E-2,-9.844426E-3],"categories":[],"categories_nodes":[],"categories_segments":[],"categories_sizes":[],"default_left":[0,0,0,0,0,0,0,0,0,0,0,0,0,0,0,0,0,0,0,0,0,0,0,0,0,0,0,0,0],"id":52,"left_children":[1,3,5,7,9,11,13,15,17,19,21,23,25,-1,27,-1,-1,-1,-1,-1,-1,-1,-1,-1,-1,-1,-1,-1,-1],"loss_changes":[1.0681042E2,2.1090942E2,1.15171326E2,4.1272385E1,7.2747665E1,7.3950386E1,4.072435E1,4.3166637E0,5.298111E0,8.0410835E1,7.66575E1,8.267508E1,3.6114315E1,0E0,6.999263E0,0E0,0E0,0E0,0E0,0E0,0E0,0E0,0E0,0E0,0E0,0E0,0E0,0E0,0E0],"parents":[2147483647,0,0,1,1,2,2,3,3,4,4,5,5,6,6,7,7,8,8,9,9,10,10,11,11,12,12,14,14],"right_children":[2,4,6,8,10,12,14,16,18,20,22,24,26,-1,28,-1,-1,-1,-1,-1,-1,-1,-1,-1,-1,-1,-1,-1,-1],"split_conditions":[-8.602605E-4,-4.332291E-1,4.5741107E-2,8.7038475E-1,1.9784294E-2,7.4518784E-3,6.3478188E1,-7.7576045E-4,-1.475468E-2,1.054407E-3,4.2119366E1,3.4287545E-1,3.6183594E1,5.4175086E-2,5.8687117E-2,1.6022785E-2,5.549722E-4,4.9584802E-2,2.0407494E-2,-6.9793095E-3,8.791656E-4,-4.7932055E-2,-1.0072698E-2,4.2990013E-3,3.362449E-2,-1.9310275E-2,-1.2965738E-3,1.5014618E-2,-9.844426E-3],"split_indices":[10,2,3,9,11,11,6,11,10,11,6,2,6,0,3,0,0,0,0,0,0,0,0,0,0,0,0,0,0],"split_type":[0,0,0,0,0,0,0,0,0,0,0,0,0,0,0,0,0,0,0,0,0,0,0,0,0,0,0,0,0],"sum_hessian":[1.227E3,5.78E2,6.49E2,1.7E1,5.61E2,6.41E2,8E0,7E0,1E1,5.27E2,3.4E1,4.38E2,2.03E2,5E0,3E0,4E0,3E0,7E0,3E0,2.55E2,2.72E2,6E0,2.8E1,4.29E2,9E0,1.1E1,1.92E2,2E0,1E0],"tree_param":{"num_deleted":"0","num_feature":"15","num_nodes":"29","size_leaf_vector":"1"}},{"base_weights":[-6.6228765E-3,-2.8899254E-2,3.444259E0,1.167358E0,-9.290546E-2,5.26288E-2,-1.278972E-2,4.2039485E0,5.834087E-1,3.2353958E-1,-2.5690937E-1,4.6366766E-2,2.9681304E-3,-5.5583036E-3,1.5920227E-2,3.832207E-3,-4.4989314E-2,-1.4192842E-2,-1.7289045E-3],"categories":[],"categories_nodes":[],"categories_segments":[],"categories_sizes":[],"default_left":[0,0,0,0,0,0,0,0,0,0,0,0,0,0,0,0,0,0,0],"id":53,"left_children":[1,3,5,7,9,-1,-1,11,13,15,17,-1,-1,-1,-1,-1,-1,-1,-1],"loss_changes":[9.5883484E1,9.4976074E1,