{"learner":{"attributes":{"scikit_learn":"{\"_estimator_type\": \"regressor\"}"},"feature_names":["slope_60","vol_10","slope_120","vix_level","target_tlt_ratio_20","tlt_to_ma_60","macd_signal","target_tlt_rel_ret","bb_width","vol_20","drawdown","tlt_ret_20","uup_z_score","vix_ret_5","price_to_ma_20","price_to_ma_120","macd_hist","ret_10","tlt_ret_5","close_open","target_spy_ratio_20","vix_to_ma_20","spy_ret_20","spy_to_ma_60","vol_ratio"],"feature_types":["float","float","float","float","float","float","float","float","float","float","float","float","float","float","float","float","float","float","float","float","float","float","float","float","float"],"gradient_booster":{"model":{"cats":{"enc":[],"feature_segments":[],"sorted_idx":[]},"gbtree_model_param":{"num_parallel_tree":"1","num_trees":"109"},"iteration_indptr":[0,1,2,3,4,5,6,7,8,9,10,11,12,13,14,15,16,17,18,19,20,21,22,23,24,25,26,27,28,29,30,31,32,33,34,35,36,37,38,39,40,41,42,43,44,45,46,47,48,49,50,51,52,53,54,55,56,57,58,59,60,61,62,63,64,65,66,67,68,69,70,71,72,73,74,75,76,77,78,79,80,81,82,83,84,85,86,87,88,89,90,91,92,93,94,95,96,97,98,99,100,101,102,103,104,105,106,107,108,109],"tree_info":[0,0,0,0,0,0,0,0,0,0,0,0,0,0,0,0,0,0,0,0,0,0,0,0,0,0,0,0,0,0,0,0,0,0,0,0,0,0,0,0,0,0,0,0,0,0,0,0,0,0,0,0,0,0,0,0,0,0,0,0,0,0,0,0,0,0,0,0,0,0,0,0,0,0,0,0,0,0,0,0,0,0,0,0,0,0,0,0,0,0,0,0,0,0,0,0,0,0,0,0,0,0,0,0,0,0,0,0,0],"trees":[{"base_weights":[-4.065162E-4,7.651021E-2,-2.9830092E-3,8.3822705E-2,1.8795732E-2,8.627373E-4,-3.237343E-2,2.3478252E-4,5.05136E-4,1.6738864E-4,2.8269254E-8,3.3359443E-5,-6.785925E-5,-1.1412126E-4,-4.8076554E-4],"categories":[],"categories_nodes":[],"categories_segments":[],"categories_sizes":[],"default_left":[0,0,0,0,0,0,0,0,0,0,0,0,0,0,0],"id":0,"left_children":[1,3,5,7,9,11,13,-1,-1,-1,-1,-1,-1,-1,-1],"loss_changes":[2.0177262E-1,1.2351692E-2,1.1136061E-1,8.221149E-3,1.1766043E-3,6.368705E-2,7.0419505E-2,0E0,0E0,0E0,0E0,0E0,0E0,0E0,0E0],"parents":[2147483647,0,0,1,1,2,2,3,3,4,4,5,5,6,6],"right_children":[2,4,6,8,10,12,14,-1,-1,-1,-1,-1,-1,-1,-1],"split_conditions":[-2.7305253E-3,-1.0076437E-2,1.3087176E-1,-2.243875E-3,2.1775054E-2,1.1932983E-3,2.914429E-1,2.3478252E-4,5.05136E-4,1.6738864E-4,2.8269254E-8,3.3359443E-5,-6.785925E-5,-1.1412126E-4,-4.8076554E-4],"split_indices":[0,4,8,2,1,2,21,0,0,0,0,0,0,0,0],"split_type":[0,0,0,0,0,0,0,0,0,0,0,0,0,0,0],"sum_hessian":[1.016E3,3.2E1,9.84E2,2.8E1,4E0,8.71E2,1.13E2,7E0,2.1E1,2E0,2E0,6.24E2,2.47E2,9.6E1,1.7E1],"tree_param":{"num_deleted":"0","num_feature":"25","num_nodes":"15","size_leaf_vector":"1"}},{"base_weights":[1.5423701E-3,5.952648E-2,-3.5292495E-4,2.9651836E-2,7.895614E-2,2.871416E-3,-2.7948862E-2,-3.089259E-5,1.8997733E-4,2.1989222E-4,4.9286225E-4,-1.7749431E-4,2.1508175E-5,-2.047915E-4,2.1161059E-4],"categories":[],"categories_nodes":[],"categories_segments":[],"categories_sizes":[],"default_left":[0,0,0,0,0,0,0,0,0,0,0,0,0,0,0],"id":1,"left_children":[1,3,5,7,9,11,13,-1,-1,-1,-1,-1,-1,-1,-1],"loss_changes":[1.1805039E-1,1.7394252E-2,9.270709E-2,3.3389945E-3,6.2373653E-3,3.8953107E-2,7.78699E-2,0E0,0E0,0E0,0E0,0E0,0E0,0E0,0E0],"parents":[2147483647,0,0,1,1,2,2,3,3,4,4,5,5,6,6],"right_children":[2,4,6,8,10,12,14,-1,-1,-1,-1,-1,-1,-1,-1],"split_conditions":[-2.7305253E-3,-2.146495E-3,1.3617937E-1,5.349885E-1,-1.0478629E0,-3.8156414E0,2.0867835E-1,-3.089259E-5,1.8997733E-4,2.1989222E-4,4.9286225E-4,-1.7749431E-4,2.1508175E-5,-2.047915E-4,2.1161059E-4],"split_indices":[0,2,8,12,12,6,8,0,0,0,0,0,0,0,0],"split_type":[0,0,0,0,0,0,0,0,0,0,0,0,0,0,0],"sum_hessian":[1.073E3,3.3E1,1.04E3,1.4E1,1.9E1,9.32E2,1.08E2,2E0,1.2E1,6E0,1.3E1,2.8E1,9.04E2,9.4E1,1.4E1],"tree_param":{"num_deleted":"0","num_feature":"25","num_nodes":"15","size_leaf_vector":"1"}},{"base_weights":[2.3414998E-3,-2.6935737E-5,6.76716E-2,9.486099E-4,-4.3171436E-2,9.806652E-2,4.622809E-2,2.2207014E-5,-5.884566E-5,-7.0625596E-5,-5.020608E-4,1.1250504E-4,5.833209E-4,-2.0221036E-4,2.766697E-4],"categories":[],"categories_nodes":[],"categories_segments":[],"categories_sizes":[],"default_left":[0,0,0,0,0,0,0,0,0,0,0,0,0,0,0],"id":2,"left_children":[1,3,5,7,9,11,13,-1,-1,-1,-1,-1,-1,-1,-1],"loss_changes":[1.592191E-1,4.1877843E-2,1.8930435E-2,3.7360355E-2,3.2219056E-2,9.650573E-3,1.2672156E-2,0E0,0E0,0E0,0E0,0E0,0E0,0E0,0E0],"parents":[2147483647,0,0,1,1,2,2,3,3,4,4,5,5,6,6],"right_children":[2,4,6,8,10,12,14,-1,-1,-1,-1,-1,-1,-1,-1],"split_conditions":[3.361E1,5.392624E-2,-1.8837014E-1,1.5827691E-2,6.863548E-2,-2.0501744E-3,-1.0504094E-1,2.2207014E-5,-5.884566E-5,-7.0625596E-5,-5.020608E-4,1.1250504E-4,5.833209E-4,-2.0221036E-4,2.766697E-4],"split_indices":[3,14,10,1,4,2,4,0,0,0,0,0,0,0,0],"split_type":[0,0,0,0,0,0,0,0,0,0,0,0,0,0,0],"sum_hessian":[1.028E3,9.93E2,3.5E1,9.72E2,2.1E1,1.3E1,2.2E1,7.67E2,2.05E2,1.4E1,7E0,2E0,1.1E1,1E0,2.1E1],"tree_param":{"num_deleted":"0","num_feature":"25","num_nodes":"15","size_leaf_vector":"1"}},{"base_weights":[-1.1980926E-3,4.4185117E-2,-2.9180166E-3,1.8460328E-2,7.840293E-2,2.5970335E-4,-2.9781193E-2,2.1098818E-4,-1.8823899E-4,4.4142932E-4,4.1354397E-5,2.8443708E-5,-7.032651E-5,-2.5764713E-4,2.3860764E-5],"categories":[],"categories_nodes":[],"categories_segments":[],"categories_sizes":[],"default_left":[0,0,0,0,0,0,0,0,0,0,0,0,0,0,0],"id":3,"left_children":[1,3,5,7,9,11,13,-1,-1,-1,-1,-1,-1,-1,-1],"loss_changes":[8.122877E-2,3.200201E-2,8.554211E-2,2.7342394E-2,4.104018E-3,6.1006375E-2,6.71117E-2,0E0,0E0,0E0,0E0,0E0,0E0,0E0,0E0],"parents":[2147483647,0,0,1,1,2,2,3,3,4,4,5,5,6,6],"right_children":[2,4,6,8,10,12,14,-1,-1,-1,-1,-1,-1,-1,-1],"split_conditions":[-2.3931472E-3,-4.010986E-2,1.3232522E-1,-2.7305253E-3,2.8368712E-3,1.1932983E-3,1.9667651E-4,2.1098818E-4,-1.8823899E-4,4.4142932E-4,4.1354397E-5,2.8443708E-5,-7.032651E-5,-2.5764713E-4,2.3860764E-5],"split_indices":[0,5,8,0,7,2,2,0,0,0,0,0,0,0,0],"split_type":[0,0,0,0,0,0,0,0,0,0,0,0,0,0,0],"sum_hessian":[1.038E3,3.7E1,1.001E3,2.2E1,1.5E1,8.96E2,1.05E2,1.6E1,6E0,1.4E1,1E0,6.51E2,2.45E2,6.8E1,3.7E1],"tree_param":{"num_deleted":"0","num_feature":"25","num_nodes":"15","size_leaf_vector":"1"}},{"base_weights":[-1.0263883E-3,-3.2261817E-3,7.1307704E-2,-1.7294826E-2,2.1303177E-3,1.11454375E-1,2.3730742E-2,-1.9472075E-4,-2.7946242E-5,1.4826496E-5,-8.1032177E-4,1.057244E-4,6.212595E-4,-3.003585E-4,2.5864993E-4],"categories":[],"categories_nodes":[],"categories_segments":[],"categories_sizes":[],"default_left":[0,0,0,0,0,0,0,0,0,0,0,0,0,0,0],"id":4,"left_children":[1,3,5,7,9,11,13,-1,-1,-1,-1,-1,-1,-1,-1],"loss_changes":[1.6173694E-1,7.434051E-2,5.465679E-2,6.262543E-2,7.121171E-2,4.729867E-3,3.2294825E-2,0E0,0E0,0E0,0E0,0E0,0E0,0E0,0E0],"parents":[2147483647,0,0,1,1,2,2,3,3,4,4,5,5,6,6],"right_children":[2,4,6,8,10,12,14,-1,-1,-1,-1,-1,-1,-1,-1],"split_conditions":[3.361E1,-1.9223392E-2,-1.630345E-3,5.093889E-4,6.468601E-1,-1.4293756E-1,-5.7383206E-2,-1.9472075E-4,-2.7946242E-5,1.4826496E-5,-8.1032177E-4,1.057244E-4,6.212595E-4,-3.003585E-4,2.5864993E-4],"split_indices":[3,5,0,2,13,7,7,0,0,0,0,0,0,0,0],"split_type":[0,0,0,0,0,0,0,0,0,0,0,0,0,0,0],"sum_hessian":[1.014E3,9.85E2,2.9E1,2.71E2,7.14E2,1.5E1,1.4E1,1.04E2,1.67E2,7.12E2,2E0,1E0,1.4E1,3E0,1.1E1],"tree_param":{"num_deleted":"0","num_feature":"25","num_nodes":"15","size_leaf_vector":"1"}},{"base_weights":[3.7173237E-4,-9.909514E-4,8.917845E-2,6.3200253E-3,-7.4059977E-3,6.0533505E-4,4.2026054E-2,8.965822E-5,-2.5300213E-5,-1.4380418E-4,-7.1922597E-7,2.4715904E-4,4.4623248E-5],"categories":[],"categories_nodes":[],"categories_segments":[],"categories_sizes":[],"default_left":[0,0,0,0,0,0,0,0,0,0,0,0,0],"id":5,"left_children":[1,3,5,7,9,-1,11,-1,-1,-1,-1,-1,-1],"loss_changes":[1.2812275E-1,4.896377E-2,1.341337E-2,5.648516E-2,7.884088E-2,0E0,6.0891453E-4,0E0,0E0,0E0,0E0,0E0,0E0],"parents":[2147483647,0,0,1,1,2,2,3,3,4,4,6,6],"right_children":[2,4,6,8,10,-1,12,-1,-1,-1,-1,-1,-1],"split_conditions":[3.367291E-2,1.3039323E0,4.659856E-2,-1.7577814E-2,3.3086128E-4,6.0533505E-4,7.7054766E-4,8.965822E-5,-2.5300213E-5,-1.4380418E-4,-7.1922597E-7,2.4715904E-4,4.4623248E-5],"split_indices":[9,24,7,10,2,0,2,0,0,0,0,0,0],"split_type":[0,0,0,0,0,0,0,0,0,0,0,0,0],"sum_hessian":[1.057E3,1.042E3,1.5E1,4.87E2,5.55E2,9E0,6E0,2.5E2,2.37E2,1.5E2,4.05E2,5E0,1E0],"tree_param":{"num_deleted":"0","num_feature":"25","num_nodes":"13","size_leaf_vector":"1"}},{"base_weights":[1.5231434E-3,5.300909E-2,-1.1715299E-3,3.874451E-2,1.0761943E-1,-1.6566718E-2,3.850232E-3,-1.5496442E-4,2.388842E-4,6.485109E-4,1.8780837E-4,-1.3153435E-5,-2.8707847E-4,-5.5437363E-6,1.3380607E-4],"categories":[],"categories_nodes":[],"categories_segments":[],"categories_sizes":[],"default_left":[0,0,0,0,0,0,0,0,0,0,0,0,0,0,0],"id":6,"left_children":[1,3,5,7,9,11,13,-1,-1,-1,-1,-1,-1,-1,-1],"loss_changes":[1.4226834E-1,3.5559013E-2,7.544199E-2,1.8236756E-2,5.6844726E-3,1.2563245E-1,7.624022E-2,0E0,0E0,0E0,0E0,0E0,0E0,0E0,0E0],"parents":[2147483647,0,0,1,1,2,2,3,3,4,4,5,5,6,6],"right_children":[2,4,6,8,10,12,14,-1,-1,-1,-1,-1,-1,-1,-1],"split_conditions":[-2.2623907E-3,3.473E1,1.9667651E-4,-1.0565556E1,5.6227434E-1,1.438809E0,2.155E1,-1.5496442E-4,2.388842E-4,6.485109E-4,1.8780837E-4,-1.3153435E-5,-2.8707847E-4,-5.5437363E-6,1.3380607E-4],"split_indices":[0,3,2,6,13,24,3,0,0,0,0,0,0,0,0],"split_type":[0,0,0,0,0,0,0,0,0,0,0,0,0,0,0],"sum_hessian":[1.024E3,5E1,9.74E2,4.1E1,9E0,2.39E2,7.35E2,3E0,3.8E1,7E0,2E0,1.74E2,6.5E1,5.98E2,1.37E2],"tree_param":{"num_deleted":"0","num_feature":"25","num_nodes":"15","size_leaf_vector":"1"}},{"base_weights":[2.8165063E-4,5.9325933E-2,-1.83552E-3,3.1496108E-2,8.6952075E-2,-4.3049403E-2,-2.1662966E-4,-1.0462681E-5,2.2861821E-4,5.2551506E-4,-1.4555704E-5,-3.0047697E-4,3.0879903E-4,-3.9412474E-4,2.430359E-6],"categories":[],"categories_nodes":[],"categories_segments":[],"categories_sizes":[],"default_left":[0,0,0,0,0,0,0,0,0,0,0,0,0,0,0],"id":7,"left_children":[1,3,5,7,9,11,13,-1,-1,-1,-1,-1,-1,-1,-1],"loss_changes":[1.3361618E-1,2.570808E-2,6.8846494E-2,7.632129E-3,1.8636465E-2,5.5055268E-2,4.910439E-2,0E0,0E0,0E0,0E0,0E0,0E0,0E0,0E0],"parents":[2147483647,0,0,1,1,2,2,3,3,4,4,5,5,6,6],"right_children":[2,4,6,8,10,12,14,-1,-1,-1,-1,-1,-1,-1,-1],"split_conditions":[-2.712147E-3,-1.9115214E-3,-1.091407E-3,-9.511345E-2,-1.771067E-1,-4.115656E-2,-1.3042745E-1,-1.0462681E-5,2.2861821E-4,5.2551506E-4,-1.4555704E-5,-3.0047697E-4,3.0879903E-4,-3.9412474E-4,2.430359E-6],"split_indices":[0,2,2,13,10,5,7,0,0,0,0,0,0,0,0],"split_type":[0,0,0,0,0,0,0,0,0,0,0,0,0,0,0],"sum_hessian":[1.067E3,3.6E1,1.031E3,1.9E1,1.7E1,3.8E1,9.93E2,5E0,1.4E1,1.5E1,2E0,3.4E1,4E0,8E0,9.85E2],"tree_param":{"num_deleted":"0","num_feature":"25","num_nodes":"15","size_leaf_vector":"1"}},{"base_weights":[-2.9520912E-4,5.7150964E-2,-2.557942E-3,1.883756E-2,8.590052E-2,-1.55463675E-2,2.2601162E-3,-1.0001715E-5,2.4026817E-4,5.19813E-4,2.1048526E-4,-2.5713278E-4,-3.1642125E-5,-3.052561E-4,2.0152334E-5],"categories":[],"categories_nodes":[],"categories_segments":[],"categories_sizes":[],"default_left":[0,0,0,0,0,0,0,0,0,0,0,0,0,0,0],"id":8,"left_children":[1,3,5,7,9,11,13,-1,-1,-1,-1,-1,-1,-1,-1],"loss_changes":[1.3377112E-1,4.1340113E-2,6.1988335E-2,9.820778E-3,7.798776E-3,8.3727494E-2,6.506982E-2,0E0,0E0,0E0,0E0,0E0,0E0,0E0,0E0],"parents":[2147483647,0,0,1,1,2,2,3,3,4,4,5,5,6,6],"right_children":[2,4,6,8,10,12,14,-1,-1,-1,-1,-1,-1,-1,-1],"split_conditions":[-2.712147E-3,-1.9115214E-3,3.842334E-4,-6.7842045E0,-1.8434392E-1,-3.904379E-2,-6.352204E-2,-1.0001715E-5,2.4026817E-4,5.19813E-4,2.1048526E-4,-2.5713278E-4,-3.1642125E-5,-3.052561E-4,2.0152334E-5],"split_indices":[0,2,2,6,10,5,4,0,0,0,0,0,0,0,0],"split_type":[0,0,0,0,0,0,0,0,0,0,0,0,0,0,0],"sum_hessian":[1.027E3,3.8E1,9.89E2,1.7E1,2.1E1,2.67E2,7.22E2,1E1,7E0,1.6E1,5E0,6E1,2.07E2,1.7E1,7.05E2],"tree_param":{"num_deleted":"0","num_feature":"25","num_nodes":"15","size_leaf_vector":"1"}},{"base_weights":[1.3037578E-3,2.3567725E-4,5.2992726E-4,3.5363603E-3,-2.1720652E-2,4.5581157E-5,-5.7366953E-5,9.4084E-5,-1.9288479E-4],"categories":[],"categories_nodes":[],"categories_segments":[],"categories_sizes":[],"default_left":[0,0,0,0,0,0,0,0,0],"id":9,"left_children":[1,3,-1,5,7,-1,-1,-1,-1],"loss_changes":[1.06477946E-1,7.3199935E-2,0E0,6.264615E-2,7.523408E-2,0E0,0E0,0E0,0E0],"parents":[2147483647,0,0,1,1,3,3,4,4],"right_children":[2,4,-1,6,8,-1,-1,-1,-1],"split_conditions":[5.363577E-2,1.3019684E-1,5.2992726E-4,1.2077712E-3,-7.383014E-2,4.5581157E-5,-5.7366953E-5,9.4084E-5,-1.9288479E-4],"split_indices":[9,8,0,2,15,0,0,0,0],"split_type":[0,0,0,0,0,0,0,0,0],"sum_hessian":[1.018E3,1.008E3,1E1,8.77E2,1.31E2,6.5E2,2.27E2,3.5E1,9.6E1],"tree_param":{"num_deleted":"0","num_feature":"25","num_nodes":"9","size_leaf_vector":"1"}},{"base_weights":[4.828119E-6,-1.3204546E-3,8.5485265E-2,-9.632718E-2,-3.9045684E-4,9.3247056E-2,2.0782999E-4,1.758848E-4,-7.0945924E-4,2.6834293E-4,-8.298305E-6,5.3271465E-4,2.061901E-4],"categories":[],"categories_nodes":[],"categories_segments":[],"categories_sizes":[],"default_left":[0,0,0,0,0,0,0,0,0,0,0,0,0],"id":10,"left_children":[1,3,5,7,9,11,-1,-1,-1,-1,-1,-1,-1],"loss_changes":[1.1872305E-1,9.114581E-2,2.1606386E-3,5.1441595E-2,6.0243748E-2,7.250905E-4,0E0,0E0,0E0,0E0,0E0,0E0,0E0],"parents":[2147483647,0,0,1,1,2,2,3,3,4,4,5,5],"right_children":[2,4,6,8,10,12,-1,-1,-1,-1,-1,-1,-1],"split_conditions":[3.367291E-2,-1.3042745E-1,-5.2013764E0,-9.2605635E-4,-2.7305253E-3,8.222992E-2,2.0782999E-4,1.758848E-4,-7.0945924E-4,2.6834293E-4,-8.298305E-6,5.3271465E-4,2.061901E-4],"split_indices":[9,7,6,0,0,7,0,0,0,0,0,0,0],"split_type":[0,0,0,0,0,0,0,0,0,0,0,0,0],"sum_hessian":[1.046E3,1.031E3,1.5E1,9E0,1.022E3,1.2E1,3E0,2E0,7E0,2.2E1,1E3,1E1,2E0],"tree_param":{"num_deleted":"0","num_feature":"25","num_nodes":"13","size_leaf_vector":"1"}},{"base_weights":[8.361721E-4,-3.1589143E-2,4.3094344E-3,-1.4863027E-2,-6.318305E-2,4.6020717E-4,4.4604838E-2,-3.5129706E-5,-3.659592E-4,9.947544E-5,-4.3154354E-4,6.5906906E-6,-5.0780026E-4,2.7620903E-4,-8.445917E-6],"categories":[],"categories_nodes":[],"categories_segments":[],"categories_sizes":[],"default_left":[0,0,0,0,0,0,0,0,0,0,0,0,0,0,0],"id":11,"left_children":[1,3,5,7,9,11,13,-1,-1,-1,-1,-1,-1,-1,-1],"loss_changes":[1.1872669E-1,5.2962117E-2,1.4764053E-1,2.9771872E-2,5.179003E-2,6.432741E-2,2.7214363E-2,0E0,0E0,0E0,0E0,0E0,0E0,0E0,0E0],"parents":[2147483647,0,0,1,1,2,2,3,3,4,4,5,5,6,6],"right_children":[2,4,6,8,10,12,14,-1,-1,-1,-1,-1,-1,-1,-1],"split_conditions":[-4.8902746E-2,1.2459726E-1,2.814E1,-3.023569E-2,-6.1264716E-2,4.7081316E-1,4.1991857E-1,-3.5129706E-5,-3.659592E-4,9.947544E-5,-4.3154354E-4,6.5906906E-6,-5.0780026E-4,2.7620903E-4,-8.445917E-6],"split_indices":[11,8,3,5,23,21,21,0,0,0,0,0,0,0,0],"split_type":[0,0,0,0,0,0,0,0,0,0,0,0,0,0,0],"sum_hessian":[1.052E3,1.01E2,9.51E2,6.7E1,3.4E1,8.69E2,8.2E1,5.9E1,8E0,6E0,2.8E1,8.63E2,6E0,7.1E1,1.1E1],"tree_param":{"num_deleted":"0","num_feature":"25","num_nodes":"15","size_leaf_vector":"1"}},{"base_weights":[-9.4474753E-4,7.432453E-2,-3.1949084E-3,5.759108E-2,1.05379015E-1,-4.1323556E-3,7.334465E-2,3.6255052E-4,1.308117E-4,9.869844E-5,6.038201E-4,4.3106975E-6,-1.1403892E-4,1.2831391E-4,4.582436E-4],"categories":[],"categories_nodes":[],"categories_segments":[],"categories_sizes":[],"default_left":[0,0,0,0,0,0,0,0,0,0,0,0,0,0,0],"id":12,"left_children":[1,3,5,7,9,11,13,-1,-1,-1,-1,-1,-1,-1,-1],"loss_changes":[1.867116E-1,1.0559872E-2,7.7077515E-2,6.1443523E-3,4.5228153E-3,8.992584E-2,5.8939084E-3,0E0,0E0,0E0,0E0,0E0,0E0,0E0,0E0],"parents":[2147483647,0,0,1,1,2,2,3,3,4,4,5,5,6,6],"right_children":[2,4,6,8,10,12,14,-1,-1,-1,-1,-1,-1,-1,-1],"split_conditions":[-2.7305253E-3,3.116E1,3.367291E-2,2.376184E-2,-3.701657E-3,1.594616E-2,4.335E1,3.6255052E-4,1.308117E-4,9.869844E-5,6.038201E-4,4.3106975E-6,-1.1403892E-4,1.2831391E-4,4.582436E-4],"split_indices":[0,3,9,9,0,1,3,0,0,0,0,0,0,0,0],"split_type":[0,0,0,0,0,0,0,0,0,0,0,0,0,0,0],"sum_hessian":[1.1E3,3.1E1,1.069E3,2.2E1,9E0,1.057E3,1.2E1,1.6E1,6E0,1E0,8E0,8.22E2,2.35E2,3E0,9E0],"tree_param":{"num_deleted":"0","num_feature":"25","num_nodes":"15","size_leaf_vector":"1"}},{"base_weights":[-9.899547E-4,4.4117793E-2,-2.9541322E-3,2.0652452E-2,6.362451E-2,-1.8273747E-2,1.6718834E-3,1.9395341E-4,-1.3090347E-4,4.0855428E-4,1.8803886E-4,-6.165918E-5,-3.096181E-4,1.6782831E-5,-4.0987734E-4],"categories":[],"categories_nodes":[],"categories_segments":[],"categories_sizes":[],"default_left":[0,0,0,0,0,0,0,0,0,0,0,0,0,0,0],"id":13,"left_children":[1,3,5,7,9,11,13,-1,-1,-1,-1,-1,-1,-1,-1],"loss_changes":[9.129935E-2,1.8368453E-2,6.9978036E-2,1.5716018E-2,5.69734E-3,6.051311E-2,8.7583214E-2,0E0,0E0,0E0,0E0,0E0,0E0,0E0,0E0],"parents":[2147483647,0,0,1,1,2,2,3,3,4,4,5,5,6,6],"right_children":[2,4,6,8,10,12,14,-1,-1,-1,-1,-1,-1,-1,-1],"split_conditions":[-2.2623907E-3,-4.010986E-2,-2.4375265E-2,-2.955493E-2,-1.9345361E-1,1.3019684E-1,4.1991857E-1,1.9395341E-4,-1.3090347E-4,4.0855428E-4,1.8803886E-4,-6.165918E-5,-3.096181E-4,1.6782831E-5,-4.0987734E-4],"split_indices":[0,5,5,11,10,8,21,0,0,0,0,0,0,0,0],"split_type":[0,0,0,0,0,0,0,0,0,0,0,0,0,0,0],"sum_hessian":[1.028E3,4.2E1,9.86E2,2E1,2.2E1,2.28E2,7.58E2,1.5E1,5E0,1.4E1,8E0,1.96E2,3.2E1,7.45E2,1.3E1],"tree_param":{"num_deleted":"0","num_feature":"25","num_nodes":"15","size_leaf_vector":"1"}},{"base_weights":[-1.1072936E-3,6.686449E-2,-3.4616552E-3,7.6966055E-2,2.315095E-2,1.9170896E-3,-2.3242397E-2,3.370392E-4,5.8605475E-4,1.6608553E-4,-2.2356885E-6,3.3355673E-6,2.9228674E-4,-2.5767303E-4,-4.9925064E-5],"categories":[],"categories_nodes":[],"categories_segments":[],"categories_sizes":[],"default_left":[0,0,0,0,0,0,0,0,0,0,0,0,0,0,0],"id":14,"left_children":[1,3,5,7,9,11,13,-1,-1,-1,-1,-1,-1,-1,-1],"loss_changes":[1.6730292E-1,1.36733055E-2,1.0750408E-1,5.8095306E-3,1.5075095E-3,5.4212365E-2,7.4529424E-2,0E0,0E0,0E0,0E0,0E0,0E0,0E0,0E0],"parents":[2147483647,0,0,1,1,2,2,3,3,4,4,5,5,6,6],"right_children":[2,4,6,8,10,12,14,-1,-1,-1,-1,-1,-1,-1,-1],"split_conditions":[-2.7305253E-3,-5.6804013E-3,1.1023772E-1,3.607E1,2.4439517E-2,3.116E1,-2.634408E-2,3.370392E-4,5.8605475E-4,1.6608553E-4,-2.2356885E-6,3.3355673E-6,2.9228674E-4,-2.5767303E-4,-4.9925064E-5],"split_indices":[0,7,8,3,1,3,5,0,0,0,0,0,0,0,0],"split_type":[0,0,0,0,0,0,0,0,0,0,0,0,0,0,0],"sum_hessian":[1.043E3,3.4E1,1.009E3,2.7E1,7E0,7.94E2,2.15E2,2.1E1,6E0,5E0,2E0,7.76E2,1.8E1,7.6E1,1.39E2],"tree_param":{"num_deleted":"0","num_feature":"25","num_nodes":"15","size_leaf_vector":"1"}},{"base_weights":[-1.0486571E-3,6.572737E-2,-3.3616396E-3,4.0339652E-2,9.688834E-2,-5.355192E-2,-2.2936016E-3,-1.8220024E-5,2.7167276E-4,2.0856553E-4,6.1128975E-4,-4.1473127E-4,-2.5489746E-5,-2.036964E-5,2.5725726E-4],"categories":[],"categories_nodes":[],"categories_segments":[],"categories_sizes":[],"default_left":[0,0,0,0,0,0,0,0,0,0,0,0,0,0,0],"id":15,"left_children":[1,3,5,7,9,11,13,-1,-1,-1,-1,-1,-1,-1,-1],"loss_changes":[1.614686E-1,2.3780257E-2,5.4018356E-2,9.814791E-3,1.0719165E-2,2.426796E-2,7.596433E-2,0E0,0E0,0E0,0E0,0E0,0E0,0E0,0E0],"parents":[2147483647,0,0,1,1,2,2,3,3,4,4,5,5,6,6],"right_children":[2,4,6,8,10,12,14,-1,-1,-1,-1,-1,-1,-1,-1],"split_conditions":[-2.7305253E-3,3.041E1,-2.686055E0,-6.90858E0,-2.243875E-3,1.3781792E0,3.294E1,-1.8220024E-5,2.7167276E-4,2.0856553E-4,6.1128975E-4,-4.1473127E-4,-2.5489746E-5,-2.036964E-5,2.5725726E-4],"split_indices":[0,3,16,6,2,24,3,0,0,0,0,0,0,0,0],"split_type":[0,0,0,0,0,0,0,0,0,0,0,0,0,0,0],"sum_hessian":[1.043E3,3.4E1,1.009E3,2E1,1.4E1,2E1,9.89E2,4E0,1.6E1,4E0,1E1,1.3E1,7E0,9.61E2,2.8E1],"tree_param":{"num_deleted":"0","num_feature":"25","num_nodes":"15","size_leaf_vector":"1"}},{"base_weights":[-7.561297E-4,6.651857E-2,-2.5994284E-3,3.0834986E-2,8.103443E-2,-1.0087577E-1,-1.5654215E-3,-3.0062507E-5,2.1726296E-4,1.6037545E-4,4.912237E-4,-1.05226E-4,-7.720131E-4,-1.4707047E-5,2.6279408E-4],"categories":[],"categories_nodes":[],"categories_segments":[],"categories_sizes":[],"default_left":[0,0,0,0,0,0,0,0,0,0,0,0,0,0,0],"id":16,"left_children":[1,3,5,7,9,11,13,-1,-1,-1,-1,-1,-1,-1,-1],"loss_changes":[1.348449E-1,1.2522683E-2,1.0735437E-1,3.8083997E-3,8.345857E-3,3.607443E-2,6.3225105E-2,0E0,0E0,0E0,0E0,0E0,0E0,0E0,0E0],"parents":[2147483647,0,0,1,1,2,2,3,3,4,4,5,5,6,6],"right_children":[2,4,6,8,10,12,14,-1,-1,-1,-1,-1,-1,-1,-1],"split_conditions":[-2.7305253E-3,-2.146495E-3,-1.3042745E-1,3.258164E-1,-1.4782705E0,-8.235375E-4,3.361E1,-3.0062507E-5,2.1726296E-4,1.6037545E-4,4.912237E-4,-1.05226E-4,-7.720131E-4,-1.4707047E-5,2.6279408E-4],"split_indices":[0,2,7,12,12,0,3,0,0,0,0,0,0,0,0],"split_type":[0,0,0,0,0,0,0,0,0,0,0,0,0,0,0],"sum_hessian":[1.085E3,2.8E1,1.057E3,9E0,1.9E1,1E1,1.047E3,2E0,7E0,4E0,1.5E1,4E0,6E0,1.024E3,2.3E1],"tree_param":{"num_deleted":"0","num_feature":"25","num_nodes":"15","size_leaf_vector":"1"}},{"base_weights":[1.3260552E-4,3.946143E-2,-1.7965687E-3,-3.7592318E-2,4.907191E-2,-1.9875105E-2,2.363927E-3,-2.622404E-4,5.2886375E-5,2.2075647E-4,5.417952E-4,-2.5858494E-4,-1.4931724E-5,1.856342E-5,-3.5370945E-4],"categories":[],"categories_nodes":[],"categories_segments":[],"categories_sizes":[],"default_left":[0,0,0,0,0,0,0,0,0,0,0,0,0,0,0],"id":17,"left_children":[1,3,5,7,9,11,13,-1,-1,-1,-1,-1,-1,-1,-1],"loss_changes":[7.950905E-2,3.813038E-2,7.518745E-2,3.7556514E-3,1.3683431E-2,9.093084E-2,6.206582E-2,0E0,0E0,0E0,0E0,0E0,0E0,0E0,0E0],"parents":[2147483647,0,0,1,1,2,2,3,3,4,4,5,5,6,6],"right_children":[2,4,6,8,10,12,14,-1,-1,-1,-1,-1,-1,-1,-1],"split_conditions":[-2.3931472E-3,-1.0565556E1,-3.1187253E-2,2.952E1,9.357514E-2,4.4315416E-4,4.9190843E-1,-2.622404E-4,5.2886375E-5,2.2075647E-4,5.417952E-4,-2.5858494E-4,-1.4931724E-5,1.856342E-5,-3.5370945E-4],"split_indices":[0,6,5,3,5,2,21,0,0,0,0,0,0,0,0],"split_type":[0,0,0,0,0,0,0,0,0,0,0,0,0,0,0],"sum_hessian":[1.046E3,4.8E1,9.98E2,5E0,4.3E1,1.86E2,8.12E2,4E0,1E0,3.9E1,4E0,6.9E1,1.17E2,8E2,1.2E1],"tree_param":{"num_deleted":"0","num_feature":"25","num_nodes":"15","size_leaf_vector":"1"}},{"base_weights":[2.0467234E-4,5.712557E-2,-1.8684358E-3,3.5099883E-2,8.097344E-2,2.021597E-3,-2.9867878E-2,2.0749921E-4,-1.0535446E-4,4.8125538E-4,1.5478038E-4,4.275812E-6,2.470019E-4,-6.1712513E-4,-1.269766E-4],"categories":[],"categories_nodes":[],"categories_segments":[],"categories_sizes":[],"default_left":[0,0,0,0,0,0,0,0,0,0,0,0,0,0,0],"id":18,"left_children":[1,3,5,7,9,11,13,-1,-1,-1,-1,-1,-1,-1,-1],"loss_changes":[1.2424606E-1,1.6592674E-2,1.1072183E-1,5.054701E-3,5.417578E-3,4.81733E-2,6.210023E-2,0E0,0E0,0E0,0E0,0E0,0E0,0E0,0E0],"parents":[2147483647,0,0,1,1,2,2,3,3,4,4,5,5,6,6],"right_children":[2,4,6,8,10,12,14,-1,-1,-1,-1,-1,-1,-1,-1],"split_conditions":[-2.712147E-3,-9.60854E-3,1.3019684E-1,-1.8214688E-1,-1.9345361E-1,3.041E1,-1.13765314E-1,2.0749921E-4,-1.0535446E-4,4.8125538E-4,1.5478038E-4,4.275812E-6,2.470019E-4,-6.1712513E-4,-1.269766E-4],"split_indices":[0,11,8,10,10,3,7,0,0,0,0,0,0,0,0],"split_type":[0,0,0,0,0,0,0,0,0,0,0,0,0,0,0],"sum_hessian":[1.051E3,3.6E1,1.015E3,2E1,1.6E1,8.92E2,1.23E2,1.9E1,1E0,1.3E1,3E0,8.69E2,2.3E1,7E0,1.16E2],"tree_param":{"num_deleted":"0","num_feature":"25","num_nodes":"15","size_leaf_vector":"1"}},{"base_weights":[3.0859874E-4,6.089042E-2,-1.7766248E-3,4.8163194E-2,6.112718E-4,1.5924725E-3,-3.1368725E-2,3.493066E-4,9.0428446E-5,2.3935215E-6,2.564241E-4,-2.16995E-4,1.396377E-4],"categories":[],"categories_nodes":[],"categories_segments":[],"categories_sizes":[],"default_left":[0,0,0,0,0,0,0,0,0,0,0,0,0],"id":19,"left_children":[1,3,5,7,-1,9,11,-1,-1,-1,-1,-1,-1],"loss_changes":[1.3287747E-1,1.8317446E-2,1.014435E-1,1.5012763E-2,0E0,4.8508693E-2,5.6279138E-2,0E0,0E0,0E0,0E0,0E0,0E0],"parents":[2147483647,0,0,1,1,2,2,3,3,5,5,6,6],"right_children":[2,4,6,8,-1,10,12,-1,-1,-1,-1,-1,-1],"split_conditions":[-2.712147E-3,3.34E1,1.3883781E-1,2.4439517E-2,6.112718E-4,3.234E1,2.0867835E-1,3.493066E-4,9.0428446E-5,2.3935215E-6,2.564241E-4,-2.16995E-4,1.396377E-4],"split_indices":[0,3,8,1,0,3,8,0,0,0,0,0,0],"split_type":[0,0,0,0,0,0,0,0,0,0,0,0,0],"sum_hessian":[1.05E3,3.4E1,1.016E3,2.9E1,5E0,9.13E2,1.03E2,1.8E1,1.1E1,8.92E2,2.1E1,8.9E1,1.4E1],"tree_param":{"num_deleted":"0","num_feature":"25","num_nodes":"13","size_leaf_vector":"1"}},{"base_weights":[1.0463073E-3,5.8046084E-2,-1.1099493E-3,3.624836E-2,5.7854404E-4,-1.0983801E-1,-4.56471E-4,-1.0694175E-4,2.3407971E-4,-1.5020471E-4,-7.6785847E-4,5.487037E-6,-1.7897913E-4],"categories":[],"categories_nodes":[],"categories_segments":[],"categories_sizes":[],"default_left":[0,0,0,0,0,0,0,0,0,0,0,0,0],"id":20,"left_children":[1,3,5,7,-1,9,11,-1,-1,-1,-1,-1,-1],"loss_changes":[1.2813263E-1,3.7664086E-2,7.135655E-2,1.2771867E-2,0E0,1.2556732E-2,4.9028512E-2,0E0,0E0,0E0,0E0,0E0,0E0],"parents":[2147483647,0,0,1,1,2,2,3,3,5,5,6,6],"right_children":[2,4,6,8,-1,10,12,-1,-1,-1,-1,-1,-1],"split_conditions":[-2.2623907E-3,3.361E1,-1.3042745E-1,-6.8346724E-2,5.7854404E-4,-8.235375E-4,5.846104E0,-1.0694175E-4,2.3407971E-4,-1.5020471E-4,-7.6785847E-4,5.487037E-6,-1.7897913E-4],"split_indices":[0,3,7,11,0,0,6,0,0,0,0,0,0],"split_type":[0,0,0,0,0,0,0,0,0,0,0,0,0],"sum_hessian":[1.041E3,3.7E1,1.004E3,2.7E1,1E1,5E0,9.99E2,3E0,2.4E1,2E0,3E0,9.57E2,4.2E1],"tree_param":{"num_deleted":"0","num_feature":"25","num_nodes":"13","size_leaf_vector":"1"}},{"base_weights":[1.7471348E-3,-5.989714E-4,3.3642787E-2,3.2252383E-3,-1.6441846E-2,-1.5595313E-3,4.6535164E-2,2.7012988E-4,8.1458875E-6,-3.3020656E-4,-3.414572E-5,-4.8247736E-4,1.4035591E-4,5.320909E-5,3.1932027E-4],"categories":[],"categories_nodes":[],"categories_segments":[],"categories_sizes":[],"default_left":[0,0,0,0,0,0,0,0,0,0,0,0,0,0,0],"id":21,"left_children":[1,3,5,7,9,11,13,-1,-1,-1,-1,-1,-1,-1,-1],"loss_changes":[7.754465E-2,5.8579564E-2,3.2295324E-2,6.26266E-2,8.5302375E-2,5.17383E-2,2.4540387E-2,0E0,0E0,0E0,0E0,0E0,0E0,0E0,0E0],"parents":[2147483647,0,0,1,1,2,2,3,3,4,4,5,5,6,6],"right_children":[2,4,6,8,10,12,14,-1,-1,-1,-1,-1,-1,-1,-1],"split_conditions":[3.041E1,1.1081953E-1,-1.907151E0,-7.5809803E-4,-5.028098E-2,-2.891171E-1,-2.845122E-2,2.7012988E-4,8.1458875E-6,-3.3020656E-4,-3.414572E-5,-4.8247736E-4,1.4035591E-4,5.320909E-5,3.1932027E-4],"split_indices":[3,8,16,2,11,12,11,0,0,0,0,0,0,0,0],"split_type":[0,0,0,0,0,0,0,0,0,0,0,0,0,0,0],"sum_hessian":[1.035E3,9.65E2,7E1,7.78E2,1.87E2,1.9E1,5.1E1,2.6E1,7.52E2,3.3E1,1.54E2,4E0,1.5E1,1.4E1,3.7E1],"tree_param":{"num_deleted":"0","num_feature":"25","num_nodes":"15","size_leaf_vector":"1"}},{"base_weights":[-1.4897706E-5,-1.8433629E-3,3.5384487E-2,3.1149313E-3,-1.922341E-2,5.729768E-2,-2.5056416E-2,8.8194894E-5,-6.2722306E-6,-2.172008E-5,-1.8280029E-4,2.544162E-4,4.6218996E-4,-2.5944976E-4,2.448047E-4],"categories":[],"categories_nodes":[],"categories_segments":[],"categories_sizes":[],"default_left":[0,0,0,0,0,0,0,0,0,0,0,0,0,0,0],"id":22,"left_children":[1,3,5,7,9,11,13,-1,-1,-1,-1,-1,-1,-1,-1],"loss_changes":[6.589212E-2,8.347765E-2,6.765834E-2,4.3309353E-2,4.8688546E-2,6.349474E-3,2.5528315E-2,0E0,0E0,0E0,0E0,0E0,0E0,0E0,0E0],"parents":[2147483647,0,0,1,1,2,2,3,3,4,4,5,5,6,6],"right_children":[2,4,6,8,10,12,14,-1,-1,-1,-1,-1,-1,-1,-1],"split_conditions":[3.16E1,1.0301304E-1,3.1521103E-1,-4.823051E-2,4.2641824E-1,4.335E1,-4.7874242E-2,8.8194894E-5,-6.2722306E-6,-2.172008E-5,-1.8280029E-4,2.544162E-4,4.6218996E-4,-2.5944976E-4,2.448047E-4],"split_indices":[3,8,21,10,12,3,4,0,0,0,0,0,0,0,0],"split_type":[0,0,0,0,0,0,0,0,0,0,0,0,0,0,0],"sum_hessian":[1.016E3,9.67E2,4.9E1,7.53E2,2.14E2,3.6E1,1.3E1,1.82E2,5.71E2,1.07E2,1.07E2,2.9E1,7E0,1E1,3E0],"tree_param":{"num_deleted":"0","num_feature":"25","num_nodes":"15","size_leaf_vector":"1"}},{"base_weights":[1.5373059E-3,7.58106E-2,-7.5480243E-4,5.5806495E-2,6.212189E-4,2.087223E-3,-2.2653058E-2,3.6730236E-4,7.806951E-5,7.9849946E-5,-6.856021E-6,-2.788219E-4,-4.7257956E-5],"categories":[],"categories_nodes":[],"categories_segments":[],"categories_sizes":[],"default_left":[0,0,0,0,0,0,0,0,0,0,0,0,0],"id":23,"left_children":[1,3,5,7,-1,9,11,-1,-1,-1,-1,-1,-1],"loss_changes":[1.8766437E-1,2.0201564E-2,6.663916E-2,1.1772133E-2,0E0,4.1085362E-2,4.9681433E-2,0E0,0E0,0E0,0E0,0E0,0E0],"parents":[2147483647,0,0,1,1,2,2,3,3,5,5,6,6],"right_children":[2,4,6,8,-1,10,12,-1,-1,-1,-1,-1,-1],"split_conditions":[-2.7305253E-3,3.34E1,1.3232522E-1,-5.6804013E-3,6.212189E-4,-7.461987E-2,-2.4375265E-2,3.6730236E-4,7.806951E-5,7.9849946E-5,-6.856021E-6,-2.788219E-4,-4.7257956E-5],"split_indices":[0,3,8,7,0,6,5,0,0,0,0,0,0],"split_type":[0,0,0,0,0,0,0,0,0,0,0,0,0],"sum_hessian":[1.101E3,3.2E1,1.069E3,2.3E1,9E0,9.47E2,1.22E2,1.7E1,6E0,1.96E2,7.51E2,3.8E1,8.4E1],"tree_param":{"num_deleted":"0","num_feature":"25","num_nodes":"13","size_leaf_vector":"1"}},{"base_weights":[1.1808749E-3,-4.1913035E-4,7.375586E-2,-2.431281E-2,2.1657841E-3,6.232922E-4,3.7865106E-2,1.5080279E-4,-1.8391894E-4,3.241284E-5,-7.228323E-5,-1.4685777E-4,2.728043E-4],"categories":[],"categories_nodes":[],"categories_segments":[],"categories_sizes":[],"default_left":[0,0,0,0,0,0,0,0,0,0,0,0,0],"id":24,"left_children":[1,3,5,7,9,-1,11,-1,-1,-1,-1,-1,-1],"loss_changes":[1.238152E-1,6.453335E-2,3.0973747E-2,5.509412E-2,5.777639E-2,0E0,1.3460668E-2,0E0,0E0,0E0,0E0,0E0,0E0],"parents":[2147483647,0,0,1,1,2,2,3,3,4,4,6,6],"right_children":[2,4,6,8,10,-1,12,-1,-1,-1,-1,-1,-1],"split_conditions":[4.028E1,-5.028098E-2,-1.8837014E-1,-3.0274242E-1,1.336946E-3,6.232922E-4,-1.3042745E-1,1.5080279E-4,-1.8391894E-4,3.241284E-5,-7.228323E-5,-1.4685777E-4,2.728043E-4],"split_indices":[3,11,10,10,2,0,7,0,0,0,0,0,0],"split_type":[0,0,0,0,0,0,0,0,0,0,0,0,0],"sum_hessian":[1.065E3,1.043E3,2.2E1,1.01E2,9.42E2,9E0,1.3E1,1.6E1,8.5E1,7.55E2,1.87E2,2E0,1.1E1],"tree_param":{"num_deleted":"0","num_feature":"25","num_nodes":"13","size_leaf_vector":"1"}},{"base_weights":[3.3303228E-4,5.427579E-2,-1.3513166E-3,6.369824E-2,1.2870503E-2,1.7336908E-3,-2.0477513E-2,2.1072353E-4,4.2727785E-4,-7.036193E-5,1.3851463E-4,3.4639856E-5,-5.5630662E-5,-1.4819142E-4,3.0982096E-4],"categories":[],"categories_nodes":[],"categories_segments":[],"categories_sizes":[],"default_left":[0,0,0,0,0,0,0,0,0,0,0,0,0,0,0],"id":25,"left_children":[1,3,5,7,9,11,13,-1,-1,-1,-1,-1,-1,-1,-1],"loss_changes":[9.302151E-2,1.1274487E-2,5.8626927E-2,6.707892E-3,2.7192212E-3,4.941965E-2,8.011074E-2,0E0,0E0,0E0,0E0,0E0,0E0,0E0,0E0],"parents":[2147483647,0,0,1,1,2,2,3,3,4,4,5,5,6,6],"right_children":[2,4,6,8,10,12,14,-1,-1,-1,-1,-1,-1,-1,-1],"split_conditions":[-2.7305253E-3,-1.4981441E-2,1.2595412E-1,-2.243875E-3,2.8368712E-3,1.1932983E-3,3.367291E-2,2.1072353E-4,4.2727785E-4,-7.036193E-5,1.3851463E-4,3.4639856E-5,-5.5630662E-5,-1.4819142E-4,3.0982096E-4],"split_indices":[0,7,8,2,7,2,9,0,0,0,0,0,0,0,0],"split_type":[0,0,0,0,0,0,0,0,0,0,0,0,0,0,0],"sum_hessian":[1.022E3,3E1,9.92E2,2.4E1,6E0,8.55E2,1.37E2,1.1E1,1.3E1,2E0,4E0,6.15E2,2.4E2,1.26E2,1.1E1],"tree_param":{"num_deleted":"0","num_feature":"25","num_nodes":"15","size_leaf_vector":"1"}},{"base_weights":[-4.4084958E-5,6.570963E-2,-2.867819E-3,2.210343E-2,8.911665E-2,-1.3472885E-1,-2.0517511E-3,-1.8463755E-4,1.5062102E-4,3.321894E-4,6.286808E-4,-1.3147763E-4,-8.114477E-4,-2.0872669E-5,2.1475788E-4],"categories":[],"categories_nodes":[],"categories_segments":[],"categories_sizes":[],"default_left":[0,0,0,0,0,0,0,0,0,0,0,0,0,0,0],"id":26,"left_children":[1,3,5,7,9,11,13,-1,-1,-1,-1,-1,-1,-1,-1],"loss_changes":[1.8938719E-1,4.0899232E-2,1.0496375E-1,6.484812E-3,1.3446823E-2,7.5671673E-3,7.634192E-2,0E0,0E0,0E0,0E0,0E0,0E0,0E0,0E0],"parents":[2147483647,0,0,1,1,2,2,3,3,4,4,5,5,6,6],"right_children":[2,4,6,8,10,12,14,-1,-1,-1,-1,-1,-1,-1,-1],"split_conditions":[-2.4691294E-3,-1.9115214E-3,-1.3042745E-1,-1.9135363E0,3.294E1,-1.0779654E-3,3.16E1,-1.8463755E-4,1.5062102E-4,3.321894E-4,6.286808E-4,-1.3147763E-4,-8.114477E-4,-2.0872669E-5,2.1475788E-4],"split_indices":[0,2,7,12,3,0,3,0,0,0,0,0,0,0,0],"split_type":[0,0,0,0,0,0,0,0,0,0,0,0,0,0,0],"sum_hessian":[1.018E3,4.1E1,9.77E2,1.5E1,2.6E1,5E0,9.72E2,1E0,1.4E1,1.5E1,1.1E1,1E0,4E0,9.32E2,4E1],"tree_param":{"num_deleted":"0","num_feature":"25","num_nodes":"15","size_leaf_vector":"1"}},{"base_weights":[4.4961149E-4,-7.6125475E-4,8.803231E-2,5.075698E-2,-1.9561672E-3,1.0969646E-1,2.1838998E-4,3.6553704E-4,1.3518348E-4,-9.131127E-5,1.4800518E-5,1.6961324E-4,6.1712967E-4],"categories":[],"categories_nodes":[],"categories_segments":[],"categories_sizes":[],"default_left":[0,0,0,0,0,0,0,0,0,0,0,0,0],"id":27,"left_children":[1,3,5,7,9,11,-1,-1,-1,-1,-1,-1,-1],"loss_changes":[1.08875275E-1,6.245934E-2,9.823397E-3,8.600678E-3,7.089951E-2,3.8904697E-4,0E0,0E0,0E0,0E0,0E0,0E0,0E0],"parents":[2147483647,0,0,1,1,2,2,3,3,4,4,5,5],"right_children":[2,4,6,8,10,12,-1,-1,-1,-1,-1,-1,-1],"split_conditions":[3.367291E-2,-2.7305253E-3,-2.8921114E-2,2.3000123E-2,-2.4375265E-2,5.47029E-2,2.1838998E-4,3.6553704E-4,1.3518348E-4,-9.131127E-5,1.4800518E-5,1.6961324E-4,6.1712967E-4],"split_indices":[9,0,4,9,5,5,0,0,0,0,0,0,0],"split_type":[0,0,0,0,0,0,0,0,0,0,0,0,0],"sum_hessian":[1.025E3,1.012E3,1.3E1,2.2E1,9.9E2,8E0,5E0,1.2E1,1E1,2.35E2,7.55E2,1E0,7E0],"tree_param":{"num_deleted":"0","num_feature":"25","num_nodes":"13","size_leaf_vector":"1"}},{"base_weights":[6.049441E-4,-1.0576184E-3,8.7194204E-2,5.0625257E-2,-2.3778712E-3,2.5402816E-2,1.0105438E-1,3.2585516E-4,7.3910844E-5,-7.5460026E-5,1.0650749E-5,1.5065692E-4,3.8087263E-5,6.087864E-4,2.6712235E-4],"categories":[],"categories_nodes":[],"categories_segments":[],"categories_sizes":[],"default_left":[0,0,0,0,0,0,0,0,0,0,0,0,0,0,0],"id":28,"left_children":[1,3,5,7,9,11,13,-1,-1,-1,-1,-1,-1,-1,-1],"loss_changes":[1.5283385E-1,7.122069E-2,1.4561713E-2,9.055667E-3,5.2221637E-2,5.380716E-5,4.813805E-3,0E0,0E0,0E0,0E0,0E0,0E0,0E0,0E0],"parents":[2147483647,0,0,1,1,2,2,3,3,4,4,5,5,6,6],"right_children":[2,4,6,8,10,12,14,-1,-1,-1,-1,-1,-1,-1,-1],"split_conditions":[3.367291E-2,-2.7305253E-3,-2.0730075E-1,3.8459336E-3,4.6511373E-4,-1.033471E-3,-1.9345361E-1,3.2585516E-4,7.3910844E-5,-7.5460026E-5,1.0650749E-5,1.5065692E-4,3.8087263E-5,6.087864E-4,2.6712235E-4],"split_indices":[9,0,12,20,2,0,10,0,0,0,0,0,0,0,0],"split_type":[0,0,0,0,0,0,0,0,0,0,0,0,0,0,0],"sum_hessian":[1.06E3,1.041E3,1.9E1,2.5E1,1.016E3,4E0,1.5E1,1.9E1,6E0,2.75E2,7.41E2,3E0,1E0,1.1E1,4E0],"tree_param":{"num_deleted":"0","num_feature":"25","num_nodes":"15","size_leaf_vector":"1"}},{"base_weights":[9.288007E-4,-5.55032E-4,5.7774656E-2,1.7965662E-3,-2.6525535E-2,-2.6701191E-2,6.5600775E-2,4.1488256E-5,-2.4455225E-5,-8.854711E-5,-4.9653003E-4,-1.8783465E-4,-2.6214379E-5,4.6945905E-4,2.5438596E-4],"categories":[],"categories_nodes":[],"categories_segments":[],"categories_sizes":[],"default_left":[0,0,0,0,0,0,0,0,0,0,0,0,0,0,0],"id":29,"left_children":[1,3,5,7,9,11,13,-1,-1,-1,-1,-1,-1,-1,-1],"loss_changes":[8.952714E-2,6.325737E-2,1.96018E-2,3.6156062E-2,5.5304512E-2,3.7983805E-4,5.828403E-3,0E0,0E0,0E0,0E0,0E0,0E0,0E0,0E0],"parents":[2147483647,0,0,1,1,2,2,3,3,4,4,5,5,6,6],"right_children":[2,4,6,8,10,12,14,-1,-1,-1,-1,-1,-1,-1,-1],"split_conditions":[3.361E1,1.3883781E-1,-2.4753568E0,-1.8159134E-2,5.2415144E-2,-8.823752E-4,-2.6992718E-2,4.1488256E-5,-2.4455225E-5,-8.854711E-5,-4.9653003E-4,-1.8783465E-4,-2.6214379E-5,4.6945905E-4,2.5438596E-4],"split_indices":[3,8,16,10,23,0,4,0,0,0,0,0,0,0,0],"split_type":[0,0,0,0,0,0,0,0,0,0,0,0,0,0,0],"sum_hessian":[1.06E3,1.034E3,2.6E1,9.49E2,8.5E1,2E0,2.4E1,4.9E2,4.59E2,7.5E1,1E1,1E0,1E0,9E0,1.5E1],"tree_param":{"num_deleted":"0","num_feature":"25","num_nodes":"15","size_leaf_vector":"1"}},{"base_weights":[-1.4332896E-3,4.442072E-3,-2.0522242E-2,2.158204E-2,-1.2096984E-4,5.1050738E-2,-2.6555415E-2,1.3659472E-4,-1.221339E-4,-1.3841353E-5,1.4925995E-4,1.0272418E-4,4.156543E-4,-9.5442076E-5,-3.447767E-4],"categories":[],"categories_nodes":[],"categories_segments":[],"categories_sizes":[],"default_left":[0,0,0,0,0,0,0,0,0,0,0,0,0,0,0],"id":30,"left_children":[1,3,5,7,9,11,13,-1,-1,-1,-1,-1,-1,-1,-1],"loss_changes":[1.143766E-1,6.100671E-2,1.049906E-1,2.9565096E-2,4.2801786E-2,1.4666941E-2,7.213172E-2,0E0,0E0,0E0,0E0,0E0,0E0,0E0,0E0],"parents":[2147483647,0,0,1,1,2,2,3,3,4,4,5,5,6,6],"right_children":[2,4,6,8,10,12,14,-1,-1,-1,-1,-1,-1,-1,-1],"split_conditions":[1.1023772E-1,-3.0981503E-2,-2.816014E-3,2.0549297E-2,2.507E1,-2.6890282E-2,1.2835251E-1,1.3659472E-4,-1.221339E-4,-1.3841353E-5,1.4925995E-4,1.0272418E-4,4.156543E-4,-9.5442076E-5,-3.447767E-4],"split_indices":[8,6,0,1,3,11,13,0,0,0,0,0,0,0,0],"split_type":[0,0,0,0,0,0,0,0,0,0,0,0,0,0,0],"sum_hessian":[1.018E3,7.79E2,2.39E2,1.63E2,6.16E2,1.8E1,2.21E2,1.5E2,1.3E1,5.67E2,4.9E1,9E0,9E0,1.81E2,4E1],"tree_param":{"num_deleted":"0","num_feature":"25","num_nodes":"15","size_leaf_vector":"1"}},{"base_weights":[3.4660377E-5,-1.0805009E-3,7.608635E-2,1.8526017E-4,-9.2318945E-2,8.550645E-2,-1.4909267E-4,5.7818062E-5,-2.2762686E-5,8.735347E-5,-8.257168E-4,5.0625496E-4,2.0720313E-4],"categories":[],"categories_nodes":[],"categories_segments":[],"categories_sizes":[],"default_left":[0,0,0,0,0,0,0,0,0,0,0,0,0],"id":31,"left_children":[1,3,5,7,9,11,-1,-1,-1,-1,-1,-1,-1],"loss_changes":[8.803009E-2,1.1815936E-1,1.7078467E-2,4.7778685E-2,9.7127356E-2,2.3609102E-3,0E0,0E0,0E0,0E0,0E0,0E0,0E0],"parents":[2147483647,0,0,1,1,2,2,3,3,4,4,5,5],"right_children":[2,4,6,8,10,12,-1,-1,-1,-1,-1,-1,-1],"split_conditions":[4.335E1,4.9190843E-1,2.120787E0,-4.7849347E-3,8.440543E-2,-5.836108E0,-1.4909267E-4,5.7818062E-5,-2.2762686E-5,8.735347E-5,-8.257168E-4,5.0625496E-4,2.0720313E-4],"split_indices":[3,21,12,4,8,6,0,0,0,0,0,0,0],"split_type":[0,0,0,0,0,0,0,0,0,0,0,0,0],"sum_hessian":[1.036E3,1.022E3,1.4E1,1.009E3,1.3E1,1.3E1,1E0,2.97E2,7.12E2,5E0,8E0,1E1,3E0],"tree_param":{"num_deleted":"0","num_feature":"25","num_nodes":"13","size_leaf_vector":"1"}},{"base_weights":[7.3152577E-4,4.5740917E-2,-1.6220451E-3,-5.3552113E-2,5.6965757E-2,2.9450394E-3,-1.5862703E-2,-7.3248266E-5,-3.1413938E-4,2.1846971E-4,5.257156E-4,4.9746126E-5,-9.603077E-5,-1.7635524E-4,4.6365538E-5],"categories":[],"categories_nodes":[],"categories_segments":[],"categories_sizes":[],"default_left":[0,0,0,0,0,0,0,0,0,0,0,0,0,0,0],"id":32,"left_children":[1,3,5,7,9,11,13,-1,-1,-1,-1,-1,-1,-1,-1],"loss_changes":[1.151172E-1,6.323625E-2,6.723127E-2,4.4428557E-4,2.8615206E-2,1.04368195E-1,1.0582934E-1,0E0,0E0,0E0,0E0,0E0,0E0,0E0,0E0],"parents":[2147483647,0,0,1,1,2,2,3,3,4,4,5,5,6,6],"right_children":[2,4,6,8,10,12,14,-1,-1,-1,-1,-1,-1,-1,-1],"split_conditions":[-2.2623907E-3,-1.0565556E1,1.5559545E-2,-2.9190208E-3,3.473E1,1.2784667E-3,3.3086128E-4,-7.3248266E-5,-3.1413938E-4,2.1846971E-4,5.257156E-4,4.9746126E-5,-9.603077E-5,-1.7635524E-4,4.6365538E-5],"split_indices":[0,6,9,0,3,2,2,0,0,0,0,0,0,0,0],"split_type":[0,0,0,0,0,0,0,0,0,0,0,0,0,0,0],"sum_hessian":[1.085E3,5.3E1,1.032E3,5E0,4.8E1,7.82E2,2.5E2,1E0,4E0,3.6E1,1.2E1,6E2,1.82E2,1.47E2,1.03E2],"tree_param":{"num_deleted":"0","num_feature":"25","num_nodes":"15","size_leaf_vector":"1"}},{"base_weights":[-2.8657707E-5,-2.7092393E-3,4.948678E-2,1.9023796E-3,-1.930268E-2,7.7835275E-3,6.1502766E-2,3.824254E-5,-8.363463E-5,-2.1695359E-4,-2.8837361E-5,1.11383095E-4,-2.281486E-4,5.679519E-4,2.3318722E-4],"categories":[],"categories_nodes":[],"categories_segments":[],"categories_sizes":[],"default_left":[0,0,0,0,0,0,0,0,0,0,0,0,0,0,0],"id":33,"left_children":[1,3,5,7,9,11,13,-1,-1,-1,-1,-1,-1,-1,-1],"loss_changes":[1.3697886E-1,7.4952364E-2,2.6079893E-2,7.08336E-2,6.2852666E-2,9.457759E-3,2.8164223E-2,0E0,0E0,0E0,0E0,0E0,0E0,0E0,0E0],"parents":[2147483647,0,0,1,1,2,2,3,3,4,4,5,5,6,6],"right_children":[2,4,6,8,10,12,14,-1,-1,-1,-1,-1,-1,-1,-1],"split_conditions":[3.116E1,1.1023772E-1,-7.535901E-2,1.2784667E-3,-2.2248805E-2,-2.0501744E-3,-1.8837014E-1,3.824254E-5,-8.363463E-5,-2.1695359E-4,-2.8837361E-5,1.11383095E-4,-2.281486E-4,5.679519E-4,2.3318722E-4],"split_indices":[3,8,5,2,5,2,10,0,0,0,0,0,0,0,0],"split_type":[0,0,0,0,0,0,0,0,0,0,0,0,0,0,0],"sum_hessian":[1.03E3,9.78E2,5.2E1,7.66E2,2.12E2,1.2E1,4E1,5.9E2,1.76E2,8.3E1,1.29E2,1E1,2E0,1E1,3E1],"tree_param":{"num_deleted":"0","num_feature":"25","num_nodes":"15","size_leaf_vector":"1"}},{"base_weights":[-2.5742427E-3,-3.4212652E-3,5.764394E-4,1.9350314E-3,-1.855204E-2,8.6617365E-5,-1.3285416E-5,-8.322108E-5,-7.913621E-4],"categories":[],"categories_nodes":[],"categories_segments":[],"categories_sizes":[],"default_left":[0,0,0,0,0,0,0,0,0],"id":34,"left_children":[1,3,-1,5,7,-1,-1,-1,-1],"loss_changes":[9.8306105E-2,8.432262E-2,0E0,4.8562046E-2,1.0268541E-1,0E0,0E0,0E0,0E0],"parents":[2147483647,0,0,1,1,3,3,4,4],"right_children":[2,4,-1,6,8,-1,-1,-1,-1],"split_conditions":[6.462321E-2,1.05872415E-1,5.764394E-4,-4.862549E-2,6.468601E-1,8.6617365E-5,-1.3285416E-5,-8.322108E-5,-7.913621E-4],"split_indices":[1,8,0,10,13,0,0,0,0],"split_type":[0,0,0,0,0,0,0,0,0],"sum_hessian":[1.046E3,1.039E3,7E0,7.68E2,2.71E2,1.81E2,5.87E2,2.66E2,5E0],"tree_param":{"num_deleted":"0","num_feature":"25","num_nodes":"9","size_leaf_vector":"1"}},{"base_weights":[1.0706616E-3,5.232099E-2,-1.8102839E-3,2.1380272E-2,7.136265E-2,9.5295155E-4,-2.856285E-2,1.5912927E-4,-7.0109316E-5,2.831133E-4,5.5218756E-4,8.0008664E-7,2.6812174E-4,-2.8398904E-4,-6.7835E-5],"categories":[],"categories_nodes":[],"categories_segments":[],"categories_sizes":[],"default_left":[0,0,0,0,0,0,0,0,0,0,0,0,0,0,0],"id":35,"left_children":[1,3,5,7,9,11,13,-1,-1,-1,-1,-1,-1,-1,-1],"loss_changes":[1.4981121E-1,3.0289024E-2,7.106783E-2,6.7623425E-3,1.391983E-2,3.446522E-2,3.4426868E-2,0E0,0E0,0E0,0E0,0E0,0E0,0E0,0E0],"parents":[2147483647,0,0,1,1,2,2,3,3,4,4,5,5,6,6],"right_children":[2,4,6,8,10,12,14,-1,-1,-1,-1,-1,-1,-1,-1],"split_conditions":[-2.2623907E-3,-2.568151E-2,1.3617937E-1,-1.749298E-2,3.234E1,3.234E1,-3.1796027E-2,1.5912927E-4,-7.0109316E-5,2.831133E-4,5.5218756E-4,8.0008664E-7,2.6812174E-4,-2.8398904E-4,-6.7835E-5],"split_indices":[0,11,8,17,3,3,5,0,0,0,0,0,0,0,0],"split_type":[0,0,0,0,0,0,0,0,0,0,0,0,0,0,0],"sum_hessian":[1.013E3,5.3E1,9.6E2,2.1E1,3.2E1,8.71E2,8.9E1,1.7E1,4E0,2.2E1,1E1,8.58E2,1.3E1,3.4E1,5.5E1],"tree_param":{"num_deleted":"0","num_feature":"25","num_nodes":"15","size_leaf_vector":"1"}},{"base_weights":[-2.494453E-4,5.873442E-2,-2.2486497E-3,4.273056E-2,6.111709E-4,-1.22909665E-1,-1.5209796E-3,3.1577708E-4,6.456712E-5,-1.8482107E-4,-7.143119E-4,-1.4670506E-5,2.6983E-4],"categories":[],"categories_nodes":[],"categories_segments":[],"categories_sizes":[],"default_left":[0,0,0,0,0,0,0,0,0,0,0,0,0],"id":36,"left_children":[1,3,5,7,-1,9,11,-1,-1,-1,-1,-1,-1],"loss_changes":[1.2229803E-1,2.5380582E-2,8.787787E-2,1.3322506E-2,0E0,1.0741651E-3,6.367659E-2,0E0,0E0,0E0,0E0,0E0,0E0],"parents":[2147483647,0,0,1,1,2,2,3,3,5,5,6,6],"right_children":[2,4,6,8,-1,10,12,-1,-1,-1,-1,-1,-1],"split_conditions":[-2.7305253E-3,3.159169E-2,-1.3042745E-1,2.4439517E-2,6.111709E-4,-8.823752E-4,3.294E1,3.1577708E-4,6.456712E-5,-1.8482107E-4,-7.143119E-4,-1.4670506E-5,2.6983E-4],"split_indices":[0,1,7,1,0,0,3,0,0,0,0,0,0],"split_type":[0,0,0,0,0,0,0,0,0,0,0,0,0],"sum_hessian":[1.035E3,3.3E1,1.002E3,2.7E1,6E0,5E0,9.97E2,1.7E1,1E1,1E0,4E0,9.75E2,2.2E1],"tree_param":{"num_deleted":"0","num_feature":"25","num_nodes":"13","size_leaf_vector":"1"}},{"base_weights":[5.4402114E-4,5.2702047E-2,-1.1163057E-3,4.042993E-2,5.40781E-4,1.5774549E-3,-3.018399E-2,2.6782718E-4,9.612418E-5,9.761067E-7,2.032791E-4,-2.2341516E-4,1.32113E-4],"categories":[],"categories_nodes":[],"categories_segments":[],"categories_sizes":[],"default_left":[0,0,0,0,0,0,0,0,0,0,0,0,0],"id":37,"left_children":[1,3,5,7,-1,9,11,-1,-1,-1,-1,-1,-1],"loss_changes":[9.263356E-2,1.5544891E-2,8.124614E-2,5.184617E-3,0E0,4.830394E-2,5.7178043E-2,0E0,0E0,0E0,0E0,0E0,0E0],"parents":[2147483647,0,0,1,1,2,2,3,3,5,5,6,6],"right_children":[2,4,6,8,-1,10,12,-1,-1,-1,-1,-1,-1],"split_conditions":[-2.7305253E-3,3.607E1,1.3883781E-1,3.8459336E-3,5.40781E-4,2.0935696E-2,1.9856179E-1,2.6782718E-4,9.612418E-5,9.761067E-7,2.032791E-4,-2.2341516E-4,1.32113E-4],"split_indices":[0,3,8,20,0,20,8,0,0,0,0,0,0],"split_type":[0,0,0,0,0,0,0,0,0,0,0,0,0],"sum_hessian":[1.068E3,3.2E1,1.036E3,2.7E1,5E0,9.49E2,8.7E1,1.8E1,9E0,9.15E2,3.4E1,7.2E1,1.5E1],"tree_param":{"num_deleted":"0","num_feature":"25","num_nodes":"13","size_leaf_vector":"1"}},{"base_weights":[-3.116004E-4,6.752102E-2,-2.3772523E-3,4.7578268E-2,5.812876E-4,-8.245367E-2,-1.6371652E-3,2.9737444E-4,4.8252547E-5,-1.4404148E-4,-6.491423E-4,-7.367553E-5,1.7700579E-5],"categories":[],"categories_nodes":[],"categories_segments":[],"categories_sizes":[],"default_left":[0,0,0,0,0,0,0,0,0,0,0,0,0],"id":38,"left_children":[1,3,5,7,-1,9,11,-1,-1,-1,-1,-1,-1],"loss_changes":[1.4224075E-1,1.9502163E-2,5.823957E-2,6.3374117E-3,0E0,1.621252E-2,5.878888E-2,0E0,0E0,0E0,0E0,0E0,0E0],"parents":[2147483647,0,0,1,1,2,2,3,3,5,5,6,6],"right_children":[2,4,6,8,-1,10,12,-1,-1,-1,-1,-1,-1],"split_conditions":[-2.7305253E-3,3.294E1,-1.3042745E-1,1.0638578E-3,5.812876E-4,-8.235375E-4,-1.76021E-2,2.9737444E-4,4.8252547E-5,-1.4404148E-4,-6.491423E-4,-7.367553E-5,1.7700579E-5],"split_indices":[0,3,7,4,0,0,5,0,0,0,0,0,0],"split_type":[0,0,0,0,0,0,0,0,0,0,0,0,0],"sum_hessian":[1.013E3,2.9E1,9.84E2,2.1E1,8E0,8E0,9.76E2,1.7E1,4E0,4E0,4E0,2.82E2,6.94E2],"tree_param":{"num_deleted":"0","num_feature":"25","num_nodes":"13","size_leaf_vector":"1"}},{"base_weights":[5.17149E-4,6.817623E-2,-1.5579733E-3,4.7896467E-2,6.0084515E-4,-2.3136863E-2,1.2646951E-3,3.3177127E-4,1.2425907E-4,-6.55285E-5,-3.8623065E-4,2.8226718E-6,3.2283337E-4],"categories":[],"categories_nodes":[],"categories_segments":[],"categories_sizes":[],"default_left":[0,0,0,0,0,0,0,0,0,0,0,0,0],"id":39,"left_children":[1,3,5,7,-1,9,11,-1,-1,-1,-1,-1,-1],"loss_changes":[1.4626351E-1,2.2434473E-2,6.160932E-2,6.5962225E-3,0E0,6.1631955E-2,3.8954396E-2,0E0,0E0,0E0,0E0,0E0,0E0],"parents":[2147483647,0,0,1,1,2,2,3,3,5,5,6,6],"right_children":[2,4,6,8,-1,10,12,-1,-1,-1,-1,-1,-1],"split_conditions":[-2.7305253E-3,3.473E1,-4.400118E-2,2.376184E-2,6.0084515E-4,1.4915109E-1,3.367291E-2,3.3177127E-4,1.2425907E-4,-6.55285E-5,-3.8623065E-4,2.8226718E-6,3.2283337E-4],"split_indices":[0,3,11,9,0,8,9,0,0,0,0,0,0],"split_type":[0,0,0,0,0,0,0,0,0,0,0,0,0],"sum_hessian":[1.04E3,3E1,1.01E3,2.2E1,8E0,1.16E2,8.94E2,1.3E1,9E0,9.6E1,2E1,8.84E2,1E1],"tree_param":{"num_deleted":"0","num_feature":"25","num_nodes":"13","size_leaf_vector":"1"}},{"base_weights":[5.257597E-5,6.599363E-2,-1.764749E-3,2.428119E-2,9.155573E-2,-8.419487E-2,-1.109441E-3,1.9905783E-4,-7.0538235E-6,5.112665E-4,6.893396E-5,4.799919E-5,-6.239505E-4,-1.2755933E-5,3.00923E-4],"categories":[],"categories_nodes":[],"categories_segments":[],"categories_sizes":[],"default_left":[0,0,0,0,0,0,0,0,0,0,0,0,0,0,0],"id":40,"left_children":[1,3,5,7,9,11,13,-1,-1,-1,-1,-1,-1,-1,-1],"loss_changes":[1.2510575E-1,2.763214E-2,5.478798E-2,4.0323343E-3,4.2616874E-3,2.5315877E-2,7.413768E-2,0E0,0E0,0E0,0E0,0E0,0E0,0E0,0E0],"parents":[2147483647,0,0,1,1,2,2,3,3,4,4,5,5,6,6],"right_children":[2,4,6,8,10,12,14,-1,-1,-1,-1,-1,-1,-1,-1],"split_conditions":[-2.7305253E-3,-2.146495E-3,-1.3042745E-1,-5.8574125E-2,1.1994397E-2,-9.2605635E-4,3.361E1,1.9905783E-4,-7.0538235E-6,5.112665E-4,6.893396E-5,4.799919E-5,-6.239505E-4,-1.2755933E-5,3.00923E-4],"split_indices":[0,2,7,22,4,0,3,0,0,0,0,0,0,0,0],"split_type":[0,0,0,0,0,0,0,0,0,0,0,0,0,0,0],"sum_hessian":[1.042E3,2.7E1,1.015E3,1.1E1,1.6E1,7E0,1.008E3,7E0,4E0,1.5E1,1E0,2E0,5E0,9.87E2,2.1E1],"tree_param":{"num_deleted":"0","num_feature":"25","num_nodes":"15","size_leaf_vector":"1"}},{"base_weights":[8.3949196E-4,-7.16995E-4,4.7600966E-2,3.735053E-3,-1.5560404E-2,-6.146338E-2,6.419166E-2,1.1413505E-4,-1.36255385E-5,-6.9371315E-5,-4.2322205E-4,-3.9963666E-4,-2.1924556E-5,-1.5123062E-4,3.6531925E-4],"categories":[],"categories_nodes":[],"categories_segments":[],"categories_sizes":[],"default_left":[0,0,0,0,0,0,0,0,0,0,0,0,0,0,0],"id":41,"left_children":[1,3,5,7,9,11,13,-1,-1,-1,-1,-1,-1,-1,-1],"loss_changes":[7.682085E-2,6.759552E-2,6.546684E-2,8.7209135E-2,3.771543E-2,3.5119336E-3,1.3491012E-2,0E0,0E0,0E0,0E0,0E0,0E0,0E0,0E0],"parents":[2147483647,0,0,1,1,2,2,3,3,4,4,5,5,6,6],"right_children":[2,4,6,8,10,12,14,-1,-1,-1,-1,-1,-1,-1,-1],"split_conditions":[3.361E1,1.1023772E-1,-1.2744894E0,-4.862549E-2,6.863548E-2,5.354E1,-5.864227E-2,1.1413505E-4,-1.36255385E-5,-6.9371315E-5,-4.2322205E-4,-3.9963666E-4,-2.1924556E-5,-1.5123062E-4,3.6531925E-4],"split_indices":[3,8,12,10,4,3,18,0,0,0,0,0,0,0,0],"split_type":[0,0,0,0,0,0,0,0,0,0,0,0,0,0,0],"sum_hessian":[1.054E3,1.021E3,3.3E1,7.86E2,2.35E2,4E0,2.9E1,2.06E2,5.8E2,2.27E2,8E0,3E0,1E0,1E0,2.8E1],"tree_param":{"num_deleted":"0","num_feature":"25","num_nodes":"15","size_leaf_vector":"1"}},{"base_weights":[-2.1304296E-4,-1.9474578E-3,3.149215E-2,9.1785786E-4,-2.5521249E-2,-6.1874025E-2,3.8197495E-2,7.2584844E-5,-1.2942735E-5,-7.351195E-5,-3.507953E-4,-4.2632103E-4,-2.1865968E-5,5.1398914E-5,2.8589444E-4],"categories":[],"categories_nodes":[],"categories_segments":[],"categories_sizes":[],"default_left":[0,0,0,0,0,0,0,0,0,0,0,0,0,0,0],"id":42,"left_children":[1,3,5,7,9,11,13,-1,-1,-1,-1,-1,-1,-1,-1],"loss_changes":[5.7250883E-2,6.6691674E-2,3.6170255E-2,3.7292752E-2,4.9604192E-2,3.8101673E-3,2.1783046E-2,0E0,0E0,0E0,0E0,0E0,0E0,0E0,0E0],"parents":[2147483647,0,0,1,1,2,2,3,3,4,4,5,5,6,6],"right_children":[2,4,6,8,10,12,14,-1,-1,-1,-1,-1,-1,-1,-1],"split_conditions":[3.116E1,1.3019684E-1,-1.4293756E-1,-2.2493292E-1,4.6190225E-2,4.028E1,-2.845122E-2,7.2584844E-5,-1.2942735E-5,-7.351195E-5,-3.507953E-4,-4.2632103E-4,-2.1865968E-5,5.1398914E-5,2.8589444E-4],"split_indices":[3,8,7,6,23,3,11,0,0,0,0,0,0,0,0],"split_type":[0,0,0,0,0,0,0,0,0,0,0,0,0,0,0],"sum_hessian":[1.039E3,9.86E2,5.3E1,8.8E2,1.06E2,3E0,5E1,1.83E2,6.97E2,8.3E1,2.3E1,2E0,1E0,1.8E1,3.2E1],"tree_param":{"num_deleted":"0","num_feature":"25","num_nodes":"15","size_leaf_vector":"1"}},{"base_weights":[-1.2094137E-3,-1.960043E-3,5.950527E-4,-1.6561719E-2,3.1033873E-3,-2.5036334E-5,-1.9965976E-4,2.3116048E-4,6.1804976E-6],"categories":[],"categories_nodes":[],"categories_segments":[],"categories_sizes":[],"default_left":[0,0,0,0,0,0,0,0,0],"id":43,"left_children":[1,3,-1,5,7,-1,-1,-1,-1],"loss_changes":[8.9265816E-2,7.753482E-2,0E0,6.651882E-2,6.0843926E-2,0E0,0E0,0E0,0E0],"parents":[2147483647,0,0,1,1,3,3,4,4],"right_children":[2,4,-1,6,8,-1,-1,-1,-1],"split_conditions":[3.3479697E-1,-2.3684885E-2,5.950527E-4,1.05872415E-1,-2.5474598E0,-2.5036334E-5,-1.9965976E-4,2.3116048E-4,6.1804976E-6],"split_indices":[8,5,0,8,6,0,0,0,0],"split_type":[0,0,0,0,0,0,0,0,0],"sum_hessian":[1.053E3,1.047E3,6E0,2.69E2,7.78E2,1.72E2,9.7E1,3.5E1,7.43E2],"tree_param":{"num_deleted":"0","num_feature":"25","num_nodes":"9","size_leaf_vector":"1"}},{"base_weights":[6.041904E-4,-1.1599745E-3,4.7106534E-2,8.056101E-4,-2.8169703E-2,-2.942497E-2,6.8495765E-2,2.1732983E-5,-6.109188E-5,-1.9265825E-4,1.4691809E-4,-3.3400778E-4,1.4718556E-4,5.114232E-4,2.6781077E-4],"categories":[],"categories_nodes":[],"categories_segments":[],"categories_sizes":[],"default_left":[0,0,0,0,0,0,0,0,0,0,0,0,0,0,0],"id":44,"left_children":[1,3,5,7,9,11,13,-1,-1,-1,-1,-1,-1,-1,-1],"loss_changes":[8.529192E-2,5.3218782E-2,6.421959E-2,3.735649E-2,3.0814305E-2,1.8677391E-2,1.02057755E-2,0E0,0E0,0E0,0E0,0E0,0E0,0E0,0E0],"parents":[2147483647,0,0,1,1,2,2,3,3,4,4,5,5,6,6],"right_children":[2,4,6,8,10,12,14,-1,-1,-1,-1,-1,-1,-1,-1],"split_conditions":[3.361E1,5.1420566E-2,-1.0478629E0,1.2944327E-3,2.669E1,-1.0504094E-1,-1.149759E-1,2.1732983E-5,-6.109188E-5,-1.9265825E-4,1.4691809E-4,-3.3400778E-4,1.4718556E-4,5.114232E-4,2.6781077E-4],"split_indices":[3,4,12,2,3,4,22,0,0,0,0,0,0,0,0],"split_type":[0,0,0,0,0,0,0,0,0,0,0,0,0,0,0],"sum_hessian":[1.038E3,1.001E3,3.7E1,9.34E2,6.7E1,8E0,2.9E1,7.38E2,1.96E2,5.9E1,8E0,5E0,3E0,1E1,1.9E1],"tree_param":{"num_deleted":"0","num_feature":"25","num_nodes":"15","size_leaf_vector":"1"}},{"base_weights":[1.4163677E-4,5.1588673E-2,-1.5545608E-3,4.136692E-2,4.8468626E-4,-1.3913572E-4,-7.470237E-2,2.4212351E-4,-3.501362E-5,-8.319844E-6,3.023378E-4,5.772426E-5,-7.3681213E-4],"categories":[],"categories_nodes":[],"categories_segments":[],"categories_sizes":[],"default_left":[0,0,0,0,0,0,0,0,0,0,0,0,0],"id":45,"left_children":[1,3,5,7,-1,9,11,-1,-1,-1,-1,-1,-1],"loss_changes":[9.0224266E-2,9.438619E-3,1.0362838E-1,5.5805333E-3,0E0,7.911679E-2,1.0410682E-1,0E0,0E0,0E0,0E0,0E0,0E0],"parents":[2147483647,0,0,1,1,2,2,3,3,5,5,6,6],"right_children":[2,4,6,8,-1,10,12,-1,-1,-1,-1,-1,-1],"split_conditions":[-2.7305253E-3,3.607E1,4.9190843E-1,1.8498305E-2,4.8468626E-4,3.361E1,1.3754054E-2,2.4212351E-4,-3.501362E-5,-8.319844E-6,3.023378E-4,5.772426E-5,-7.3681213E-4],"split_indices":[0,3,21,19,0,3,9,0,0,0,0,0,0],"split_type":[0,0,0,0,0,0,0,0,0,0,0,0,0],"sum_hessian":[1.032E3,3.2E1,1E3,2.7E1,5E0,9.82E2,1.8E1,2.5E1,2E0,9.59E2,2.3E1,8E0,1E1],"tree_param":{"num_deleted":"0","num_feature":"25","num_nodes":"13","size_leaf_vector":"1"}},{"base_weights":[-1.088745E-3,-1.7710204E-3,9.9653676E-2,1.049469E-3,-2.542139E-2,5.6929333E-4,1.5614928E-4,1.1396029E-7,2.2061467E-4,-5.500522E-4,-1.10897665E-4],"categories":[],"categories_nodes":[],"categories_segments":[],"categories_sizes":[],"default_left":[0,0,0,0,0,0,0,0,0,0,0],"id":46,"left_children":[1,3,5,7,9,-1,-1,-1,-1,-1,-1],"loss_changes":[7.152245E-2,6.886688E-2,2.747029E-4,3.8177315E-2,3.7683472E-2,0E0,0E0,0E0,0E0,0E0,0E0],"parents":[2147483647,0,0,1,1,2,2,3,3,4,4],"right_children":[2,4,6,8,10,-1,-1,-1,-1,-1,-1],"split_conditions":[6.462321E-2,1.3617937E-1,5.6227434E-1,3.16E1,-1.3042745E-1,5.6929333E-4,1.5614928E-4,1.1396029E-7,2.2061467E-4,-5.500522E-4,-1.10897665E-4],"split_indices":[1,8,13,3,7,0,0,0,0,0,0],"split_type":[0,0,0,0,0,0,0,0,0,0,0],"sum_hessian":[1.037E3,1.031E3,6E0,9.22E2,1.09E2,5E0,1E0,9E2,2.2E1,5E0,1.04E2],"tree_param":{"num_deleted":"0","num_feature":"25","num_nodes":"11","size_leaf_vector":"1"}},{"base_weights":[1.276415E-3,4.3190725E-2,-4.9640547E-4,2.4664458E-2,7.116395E-2,2.424898E-3,-2.5497139E-2,2.2548874E-4,-1.3055747E-4,4.1251522E-4,9.258167E-5,8.016721E-6,2.6376682E-4,-1.6044581E-4,3.9879556E-4],"categories":[],"categories_nodes":[],"categories_segments":[],"categories_sizes":[],"default_left":[0,0,0,0,0,0,0,0,0,0,0,0,0,0,0],"id":47,"left_children":[1,3,5,7,9,11,13,-1,-1,-1,-1,-1,-1,-1,-1],"loss_changes":[8.056974E-2,2.1047316E-2,7.609098E-2,2.5124962E-2,4.1764006E-3,4.0420987E-2,5.1617384E-2,0E0,0E0,0E0,0E0,0E0,0E0,0E0,0E0],"parents":[2147483647,0,0,1,1,2,2,3,3,4,4,5,5,6,6],"right_children":[2,4,6,8,10,12,14,-1,-1,-1,-1,-1,-1,-1,-1],"split_conditions":[-2.3931472E-3,-9.60854E-3,1.3617937E-1,-2.7305253E-3,2.0295942E0,3.234E1,5.363577E-2,2.2548874E-4,-1.3055747E-4,4.1251522E-4,9.258167E-5,8.016721E-6,2.6376682E-4,-1.6044581E-4,3.9879556E-4],"split_indices":[0,11,8,0,12,3,9,0,0,0,0,0,0,0,0],"split_type":[0,0,0,0,0,0,0,0,0,0,0,0,0,0,0],"sum_hessian":[1.083E3,4.3E1,1.04E3,2.7E1,1.6E1,9.32E2,1.08E2,2E1,7E0,1.4E1,2E0,9.15E2,1.7E1,1.04E2,4E0],"tree_param":{"num_deleted":"0","num_feature":"25","num_nodes":"15","size_leaf_vector":"1"}},{"base_weights":[9.941657E-4,2.3070678E-4,8.7239385E-2,-1.0910284E-2,4.556254E-3,2.0295655E-4,5.124624E-4,1.156766E-5,-1.1866831E-4,2.1994318E-4,1.3057821E-5],"categories":[],"categories_nodes":[],"categories_segments":[],"categories_sizes":[],"default_left":[0,0,0,0,0,0,0,0,0,0,0],"id":48,"left_children":[1,3,5,7,9,-1,-1,-1,-1,-1,-1],"loss_changes":[6.753651E-2,4.910803E-2,1.9363314E-4,4.2134244E-2,5.6659847E-2,0E0,0E0,0E0,0E0,0E0,0E0],"parents":[2147483647,0,0,1,1,2,2,3,3,4,4],"right_children":[2,4,6,8,10,-1,-1,-1,-1,-1,-1],"split_conditions":[5.363577E-2,-1.8144893E-2,5.3497568E-2,1.2361705E-2,-2.1787345E-1,2.0295655E-4,5.124624E-4,1.156766E-5,-1.1866831E-4,2.1994318E-4,1.3057821E-5],"split_indices":[9,5,11,9,10,0,0,0,0,0,0],"split_type":[0,0,0,0,0,0,0,0,0,0,0],"sum_hessian":[1.025E3,1.017E3,8E0,2.84E2,7.33E2,2E0,6E0,1.32E2,1.52E2,3.9E1,6.94E2],"tree_param":{"num_deleted":"0","num_feature":"25","num_nodes":"11","size_leaf_vector":"1"}},{"base_weights":[-1.1722292E-3,-4.057916E-3,2.6665997E-2,-3.3707975E-3,-1.11030154E-1,-7.301043E-2,3.3960223E-2,-9.682248E-6,-2.2697961E-4,-2.4695088E-5,-8.715475E-4,-5.065965E-4,1.5412406E-4,9.348433E-5,2.986995E-4],"categories":[],"categories_nodes":[],"categories_segments":[],"categories_sizes":[],"default_left":[0,0,0,0,0,0,0,0,0,0,0,0,0,0,0],"id":49,"left_children":[1,3,5,7,9,11,13,-1,-1,-1,-1,-1,-1,-1,-1],"loss_changes":[8.381456E-2,6.9085695E-2,7.373159E-2,5.722707E-2,3.247773E-2,1.8262628E-2,3.2248728E-2,0E0,0E0,0E0,0E0,0E0,0E0,0E0,0E0],"parents":[2147483647,0,0,1,1,2,2,3,3,4,4,5,5,6,6],"right_children":[2,4,6,8,10,12,14,-1,-1,-1,-1,-1,-1,-1,-1],"split_conditions":[2.814E1,6.468601E-1,-9.401207E-2,5.11724E-2,1.4371571E-2,6.462321E-2,3.234E1,-9.682248E-6,-2.2697961E-4,-2.4695088E-5,-8.715475E-4,-5.065965E-4,1.5412406E-4,9.348433E-5,2.986995E-4],"split_indices":[3,13,4,14,1,1,3,0,0,0,0,0,0,0,0],"split_type":[0,0,0,0,0,0,0,0,0,0,0,0,0,0,0],"sum_hessian":[1.041E3,9.44E2,9.7E1,9.39E2,5E0,6E0,9.1E1,9.04E2,3.5E1,2E0,3E0,5E0,1E0,5.3E1,3.8E1],"tree_param":{"num_deleted":"0","num_feature":"25","num_nodes":"15","size_leaf_vector":"1"}},{"base_weights":[-5.7100453E-5,-1.1267416E-3,6.780183E-2,-2.4457222E-2,1.225221E-3,7.9561844E-2,2.6017431E-2,-3.1152245E-5,-2.0860283E-4,3.1598654E-5,-5.8143178E-5,4.728802E-4,2.1162827E-4,3.0823066E-5,1.5839488E-4],"categories":[],"categories_nodes":[],"categories_segments":[],"categories_sizes":[],"default_left":[0,0,0,0,0,0,0,0,0,0,0,0,0,0,0],"id":50,"left_children":[1,3,5,7,9,11,13,-1,-1,-1,-1,-1,-1,-1,-1],"loss_changes":[7.483865E-2,5.5725474E-2,5.7921633E-3,2.5023356E-2,5.2434444E-2,7.7436864E-4,1.9565178E-4,0E0,0E0,0E0,0E0,0E0,0E0,0E0,0E0],"parents":[2147483647,0,0,1,1,2,2,3,3,4,4,5,5,6,6],"right_children":[2,4,6,8,10,12,14,-1,-1,-1,-1,-1,-1,-1,-1],"split_conditions":[3.367291E-2,-4.7888376E-2,-5.2013764E0,1.4191068E-2,3.8191404E-2,2.1182662E-2,4.028E1,-3.1152245E-5,-2.0860283E-4,3.1598654E-5,-5.8143178E-5,4.728802E-4,2.1162827E-4,3.0823066E-5,1.5839488E-4],"split_indices":[9,11,6,1,23,19,3,0,0,0,0,0,0,0,0],"split_type":[0,0,0,0,0,0,0,0,0,0,0,0,0,0,0],"sum_hessian":[1.029E3,1.014E3,1.5E1,9.2E1,9.22E2,1.1E1,4E0,4.1E1,5.1E1,6.65E2,2.57E2,8E0,3E0,1E0,3E0],"tree_param":{"num_deleted":"0","num_feature":"25","num_nodes":"15","size_leaf_vector":"1"}},{"base_weights":[1.5446699E-3,4.714058E-2,-8.874366E-4,2.9470483E-2,1.00602396E-1,1.5461552E-3,-2.9288528E-2,-2.1203257E-4,1.812767E-4,5.904433E-4,1.64858E-4,4.6466685E-5,-3.5105437E-5,-2.3632719E-4,9.469048E-5],"categories":[],"categories_nodes":[],"categories_segments":[],"categories_sizes":[],"default_left":[0,0,0,0,0,0,0,0,0,0,0,0,0,0,0],"id":51,"left_children":[1,3,5,7,9,11,13,-1,-1,-1,-1,-1,-1,-1,-1],"loss_changes":[1.1825495E-1,4.804767E-2,7.006047E-2,1.4266349E-2,5.549848E-3,5.4237615E-2,5.693502E-2,0E0,0E0,0E0,0E0,0E0,0E0,0E0,0E0],"parents":[2147483647,0,0,1,1,2,2,3,3,4,4,5,5,6,6],"right_children":[2,4,6,8,10,12,14,-1,-1,-1,-1,-1,-1,-1,-1],"split_conditions":[-2.1886847E-3,3.473E1,1.3617937E-1,-1.0565556E1,5.6227434E-1,-1.7577814E-2,6.956578E-4,-2.1203257E-4,1.812767E-4,5.904433E-4,1.64858E-4,4.6466685E-5,-3.5105437E-5,-2.3632719E-4,9.469048E-5],"split_indices":[0,3,8,6,13,10,2,0,0,0,0,0,0,0,0],"split_type":[0,0,0,0,0,0,0,0,0,0,0,0,0,0,0],"sum_hessian":[1.065E3,5.3E1,1.012E3,4.1E1,1.2E1,9.33E2,7.9E1,2E0,3.9E1,1E1,2E0,4.96E2,4.37E2,6E1,1.9E1],"tree_param":{"num_deleted":"0","num_feature":"25","num_nodes":"15","size_leaf_vector":"1"}},{"base_weights":[-1.5002689E-3,-2.2670086E-3,4.5226983E-4,1.840703E-3,-1.52231725E-2,1.1145031E-4,-2.693381E-5,7.746607E-5,-1.2290463E-4],"categories":[],"categories_nodes":[],"categories_segments":[],"categories_sizes":[],"default_left":[0,0,0,0,0,0,0,0,0],"id":52,"left_children":[1,3,-1,5,7,-1,-1,-1,-1],"loss_changes":[6.735127E-2,5.3727187E-2,0E0,1.0044382E-1,5.647447E-2,0E0,0E0,0E0,0E0],"parents":[2147483647,0,0,1,1,3,3,4,4],"right_children":[2,4,-1,6,8,-1,-1,-1,-1],"split_conditions":[5.363577E-2,1.0523718E-1,4.5226983E-4,-4.823051E-2,-5.301776E-2,1.1145031E-4,-2.693381E-5,7.746607E-5,-1.2290463E-4],"split_indices":[9,8,0,10,23,0,0,0,0],"split_type":[0,0,0,0,0,0,0,0,0],"sum_hessian":[1.016E3,1.008E3,8E0,7.66E2,2.42E2,2.03E2,5.63E2,5E1,1.92E2],"tree_param":{"num_deleted":"0","num_feature":"25","num_nodes":"9","size_leaf_vector":"1"}},{"base_weights":[-2.270146E-4,-1.1381346E-3,9.2912145E-2,1.3173003E-3,-1.9095479E-2,5.250625E-4,1.1997386E-4,-1.8767806E-6,1.6194016E-4,-3.0036067E-4,-3.7676455E-5],"categories":[],"categories_nodes":[],"categories_segments":[],"categories_sizes":[],"default_left":[0,0,0,0,0,0,0,0,0,0,0],"id":53,"left_children":[1,3,5,7,9,-1,-1,-1,-1,-1,-1],"loss_changes":[8.759739E-2,4.5088287E-2,1.5536174E-3,4.353399E-2,5.4581348E-2,0E0,0E0,0E0,0E0,0E0,0E0],"parents":[2147483647,0,0,1,1,2,2,3,3,4,4],"right_children":[2,4,6,8,10,-1,-1,-1,-1,-1,-1],"split_conditions":[5.363577E-2,1.3019684E-1,4.659856E-2,2.814E1,-4.322324E-2,5.250625E-4,1.1997386E-4,-1.8767806E-6,1.6194016E-4,-3.0036067E-4,-3.7676455E-5],"split_indices":[9,8,7,3,11,0,0,0,0,0,0],"split_type":[0,0,0,0,0,0,0,0,0,0,0],"sum_hessian":[1.03E3,1.021E3,9E0,8.99E2,1.22E2,8E0,1E0,8.51E2,4.8E1,2.9E1,9.3E1],"tree_param":{"num_deleted":"0","num_feature":"25","num_nodes":"11","size_leaf_vector":"1"}},{"base_weights":[-9.675118E-4,-3.5945715E-3,3.256667E-2,6.082501E-2,-4.4079334E-3,2.3140114E-2,4.891391E-4,3.567085E-4,1.1124159E-4,-1.8753906E-6,-1.0095392E-4,-7.354791E-5,1.8824787E-4],"categories":[],"categories_nodes":[],"categories_segments":[],"categories_sizes":[],"default_left":[0,0,0,0,0,0,0,0,0,0,0,0,0],"id":54,"left_children":[1,3,5,7,9,11,-1,-1,-1,-1,-1,-1,-1],"loss_changes":[9.094434E-2,5.04115E-2,3.956534E-2,1.4532506E-3,5.5574656E-2,2.9915474E-2,0E0,0E0,0E0,0E0,0E0,0E0,0E0],"parents":[2147483647,0,0,1,1,2,2,3,3,4,4,5,5],"right_children":[2,4,6,8,10,12,-1,-1,-1,-1,-1,-1,-1],"split_conditions":[2.952E1,-3.1691456E-1,5.363577E-2,-2.2141807E0,1.0523718E-1,-1.907151E0,4.891391E-4,3.567085E-4,1.1124159E-4,-1.8753906E-6,-1.0095392E-4,-7.354791E-5,1.8824787E-4],"split_indices":[3,10,9,6,8,16,0,0,0,0,0,0,0],"split_type":[0,0,0,0,0,0,0,0,0,0,0,0,0],"sum_hessian":[1.03E3,9.56E2,7.4E1,1.1E1,9.45E2,6.5E1,9E0,9E0,2E0,7.39E2,2.06E2,1.6E1,4.9E1],"tree_param":{"num_deleted":"0","num_feature":"25","num_nodes":"13","size_leaf_vector":"1"}},{"base_weights":[4.019459E-4,-8.272218E-4,8.6416885E-2,-1.4226954E-2,3.8293868E-3,5.7002774E-4,3.8274303E-2,-1.7059284E-4,-9.36626E-6,2.9931462E-4,1.311003E-5,2.3329403E-4,3.0413748E-5],"categories":[],"categories_nodes":[],"categories_segments":[],"categories_sizes":[],"default_left":[0,0,0,0,0,0,0,0,0,0,0,0,0],"id":55,"left_children":[1,3,5,7,9,-1,11,-1,-1,-1,-1,-1,-1],"loss_changes":[1.12564795E-1,6.557166E-2,1.0536507E-2,5.9758056E-2,5.5875354E-2,0E0,8.0307946E-4,0E0,0E0,0E0,0E0,0E0,0E0],"parents":[2147483647,0,0,1,1,2,2,3,3,4,4,6,6],"right_children":[2,4,6,8,10,-1,12,-1,-1,-1,-1,-1,-1],"split_conditions":[3.367291E-2,-2.3684885E-2,1.0999151E-2,2.7442598E-3,-8.481564E-2,5.7002774E-4,-1.3075091E-3,-1.7059284E-4,-9.36626E-6,2.9931462E-4,1.311003E-5,2.3329403E-4,3.0413748E-5],"split_indices":[9,5,14,15,15,0,0,0,0,0,0,0,0],"split_type":[0,0,0,0,0,0,0,0,0,0,0,0,0],"sum_hessian":[1.063E3,1.049E3,1.4E1,2.7E2,7.79E2,9E0,5E0,1.11E2,1.59E2,1.9E1,7.6E2,4E0,1E0],"tree_param":{"num_deleted":"0","num_feature":"25","num_nodes":"13","size_leaf_vector":"1"}},{"base_weights":[1.1908535E-4,3.865643E-2,-1.67081E-3,-1.8426462E-4,4.267307E-2,1.9779499E-3,-1.4369497E-2,-1.3234503E-5,2.4560824E-4,3.762255E-5,-8.857492E-5,-1.6651265E-4,9.71754E-6],"categories":[],"categories_nodes":[],"categories_segments":[],"categories_sizes":[],"default_left":[0,0,0,0,0,0,0,0,0,0,0,0,0],"id":56,"left_children":[1,3,5,-1,7,9,11,-1,-1,-1,-1,-1,-1],"loss_changes":[7.304311E-2,1.5277915E-2,4.69189E-2,0E0,6.785825E-3,7.40196E-2,6.147281E-2,0E0,0E0,0E0,0E0,0E0,0E0],"parents":[2147483647,0,0,1,1,2,2,4,4,5,5,6,6],"right_children":[2,4,6,-1,8,10,12,-1,-1,-1,-1,-1,-1],"split_conditions":[-2.3931472E-3,-1.0565556E1,1.1023772E-1,-1.8426462E-4,-3.1544834E-2,1.2736418E-3,3.0953094E-4,-1.3234503E-5,2.4560824E-4,3.762255E-5,-8.857492E-5,-1.6651265E-4,9.71754E-6],"split_indices":[0,6,8,0,19,2,2,0,0,0,0,0,0],"split_type":[0,0,0,0,0,0,0,0,0,0,0,0,0],"sum_hessian":[1.057E3,4.6E1,1.011E3,2E0,4.4E1,7.86E2,2.25E2,3E0,4.1E1,6.18E2,1.68E2,1.1E2,1.15E2],"tree_param":{"num_deleted":"0","num_feature":"25","num_nodes":"13","size_leaf_vector":"1"}},{"base_weights":[1.555963E-3,-6.8326964E-4,3.21994E-2,1.3168271E-3,-2.8583359E-2,3.7637956E-2,-6.9665544E-2,2.6615494E-4,2.4537353E-6,-8.55962E-5,-3.4130784E-4,-2.786228E-4,2.2717813E-4,1.2324796E-4,-5.78584E-4],"categories":[],"categories_nodes":[],"categories_segments":[],"categories_sizes":[],"default_left":[0,0,0,0,0,0,0,0,0,0,0,0,0,0,0],"id":57,"left_children":[1,3,5,7,9,11,13,-1,-1,-1,-1,-1,-1,-1,-1],"loss_changes":[7.2551E-2,5.505928E-2,4.2509936E-2,3.8277104E-2,2.8239585E-2,3.2385387E-2,1.681234E-2,0E0,0E0,0E0,0E0,0E0,0E0,0E0,0E0],"parents":[2147483647,0,0,1,1,2,2,3,3,4,4,5,5,6,6],"right_children":[2,4,6,8,10,12,14,-1,-1,-1,-1,-1,-1,-1,-1],"split_conditions":[3.041E1,4.4153564E-2,6.468601E-1,-3.1377643E-1,6.863548E-2,-2.25586E0,1.5464283E-2,2.6615494E-4,2.4537353E-6,-8.55962E-5,-3.4130784E-4,-2.786228E-4,2.2717813E-4,1.2324796E-4,-5.78584E-4],"split_indices":[3,14,13,10,4,12,1,0,0,0,0,0,0,0,0],"split_type":[0,0,0,0,0,0,0,0,0,0,0,0,0,0,0],"sum_hessian":[1.056E3,9.85E2,7.1E1,9.2E2,6.5E1,6.8E1,3E0,1.5E1,9.05E2,4.9E1,1.6E1,3E0,6.5E1,1E0,2E0],"tree_param":{"num_deleted":"0","num_feature":"25","num_nodes":"15","size_leaf_vector":"1"}},{"base_weights":[-5.831255E-4,6.0888555E-2,-2.6216174E-3,2.8491655E-2,7.3200114E-2,2.157724E-3,-1.7213749E-2,2.1210298E-4,-5.4685615E-6,2.7413133E-5,4.230297E-4,3.194564E-5,-7.006757E-5,-7.0775604E-5,-4.491949E-4],"categories":[],"categories_nodes":[],"categories_segments":[],"categories_sizes":[],"default_left":[0,0,0,0,0,0,0,0,0,0,0,0,0,0,0],"id":58,"left_children":[1,3,5,7,9,11,13,-1,-1,-1,-1,-1,-1,-1,-1],"loss_changes":[1.327371E-1,1.1475518E-2,7.152143E-2,3.6755465E-3,9.322792E-3,4.516133E-2,6.602864E-2,0E0,0E0,0E0,0E0,0E0,0E0,0E0,0E0],"parents":[2147483647,0,0,1,1,2,2,3,3,4,4,5,5,6,6],"right_children":[2,4,6,8,10,12,14,-1,-1,-1,-1,-1,-1,-1,-1],"split_conditions":[-2.7305253E-3,-2.146495E-3,1.05872415E-1,2.4875889E-2,-5.872742E-2,1.3462927E-3,4.9190843E-1,2.1210298E-4,-5.4685615E-6,2.7413133E-5,4.230297E-4,3.194564E-5,-7.006757E-5,-7.0775604E-5,-4.491949E-4],"split_indices":[0,2,8,1,11,2,21,0,0,0,0,0,0,0,0],"split_type":[0,0,0,0,0,0,0,0,0,0,0,0,0,0,0],"sum_hessian":[1.057E3,3.3E1,1.024E3,1E1,2.3E1,7.72E2,2.52E2,7E0,3E0,2E0,2.1E1,6.18E2,1.54E2,2.39E2,1.3E1],"tree_param":{"num_deleted":"0","num_feature":"25","num_nodes":"15","size_leaf_vector":"1"}},{"base_weights":[-1.2235325E-3,8.5488446E-2,-2.1015124E-3,-1.275326E-5,5.051148E-4,-1.1927595E-1,-1.339397E-3,-6.853148E-4,-1.7512107E-4,-2.1148211E-5,1.4496637E-4],"categories":[],"categories_nodes":[],"categories_segments":[],"categories_sizes":[],"default_left":[0,0,0,0,0,0,0,0,0,0,0],"id":59,"left_children":[1,3,5,-1,-1,7,9,-1,-1,-1,-1],"loss_changes":[8.354352E-2,8.95039E-3,9.673123E-2,0E0,0E0,1.2219176E-3,8.050762E-2,0E0,0E0,0E0,0E0],"parents":[2147483647,0,0,1,1,2,2,5,5,6,6],"right_children":[2,4,6,-1,-1,8,10,-1,-1,-1,-1],"split_conditions":[-1.4647736E-1,-1.4293756E-1,-1.3042745E-1,-1.275326E-5,5.051148E-4,4.0617537E-2,2.799E1,-6.853148E-4,-1.7512107E-4,-2.1148211E-5,1.4496637E-4],"split_indices":[23,7,7,0,0,1,3,0,0,0,0],"split_type":[0,0,0,0,0,0,0,0,0,0,0],"sum_hessian":[1.094E3,1E1,1.084E3,1E0,9E0,6E0,1.078E3,5E0,1E0,9.88E2,9E1],"tree_param":{"num_deleted":"0","num_feature":"25","num_nodes":"11","size_leaf_vector":"1"}},{"base_weights":[7.0329993E-6,5.1292256E-2,-1.4907299E-3,3.0464988E-2,6.870004E-2,1.0374237E-3,-2.5680596E-2,2.0853545E-4,-1.5052942E-5,1.7748587E-4,4.4423962E-4,1.6453352E-5,-1.6566871E-4,-2.4019409E-4,6.033352E-5],"categories":[],"categories_nodes":[],"categories_segments":[],"categories_sizes":[],"default_left":[0,0,0,0,0,0,0,0,0,0,0,0,0,0,0],"id":60,"left_children":[1,3,5,7,9,11,13,-1,-1,-1,-1,-1,-1,-1,-1],"loss_changes":[7.850265E-2,8.421183E-3,6.0754247E-2,4.3808306E-3,4.917927E-3,5.895041E-2,6.745073E-2,0E0,0E0,0E0,0E0,0E0,0E0,0E0,0E0],"parents":[2147483647,0,0,1,1,2,2,3,3,4,4,5,5,6,6],"right_children":[2,4,6,8,10,12,14,-1,-1,-1,-1,-1,-1,-1,-1],"split_conditions":[-2.7305253E-3,-2.146495E-3,1.3883781E-1,-5.8574125E-2,2.4950838E-1,1.7985676E-3,2.1925522E-2,2.0853545E-4,-1.5052942E-5,1.7748587E-4,4.4423962E-4,1.6453352E-5,-1.6566871E-4,-2.4019409E-4,6.033352E-5],"split_indices":[0,2,8,22,12,2,9,0,0,0,0,0,0,0,0],"split_type":[0,0,0,0,0,0,0,0,0,0,0,0,0,0,0],"sum_hessian":[1.02E3,2.8E1,9.92E2,1.4E1,1.4E1,8.99E2,9.3E1,1.1E1,3E0,5E0,9E0,8.46E2,5.3E1,6.1E1,3.2E1],"tree_param":{"num_deleted":"0","num_feature":"25","num_nodes":"15","size_leaf_vector":"1"}},{"base_weights":[1.9657945E-3,7.176527E-4,8.787332E-2,4.318001E-2,-3.7723227E-4,5.5855955E-4,3.3687215E-2,1.1046005E-4,3.425775E-4,-1.0379704E-4,9.66965E-6,2.103735E-4,2.9339992E-5],"categories":[],"categories_nodes":[],"categories_segments":[],"categories_sizes":[],"default_left":[0,0,0,0,0,0,0,0,0,0,0,0,0],"id":61,"left_children":[1,3,5,7,9,-1,11,-1,-1,-1,-1,-1,-1],"loss_changes":[1.1230849E-1,4.8088394E-2,1.000531E-2,1.0920249E-2,4.2052597E-2,0E0,5.8424845E-4,0E0,0E0,0E0,0E0,0E0,0E0],"parents":[2147483647,0,0,1,1,2,2,3,3,4,4,6,6],"right_children":[2,4,6,8,10,-1,12,-1,-1,-1,-1,-1,-1],"split_conditions":[3.367291E-2,-2.712147E-3,-4.6968717E-2,-2.7245266E-2,-2.7709277E-2,5.5855955E-4,-1.3075091E-3,1.1046005E-4,3.425775E-4,-1.0379704E-4,9.66965E-6,2.103735E-4,2.9339992E-5],"split_indices":[9,0,15,11,23,0,0,0,0,0,0,0,0],"split_type":[0,0,0,0,0,0,0,0,0,0,0,0,0],"sum_hessian":[1.047E3,1.033E3,1.4E1,2.5E1,1.008E3,1E1,4E0,1.3E1,1.2E1,1.03E2,9.05E2,3E0,1E0],"tree_param":{"num_deleted":"0","num_feature":"25","num_nodes":"13","size_leaf_vector":"1"}},{"base_weights":[5.730507E-4,5.57348E-2,-1.0676088E-3,2.7431358E-2,7.878585E-2,2.470383E-3,-2.8325342E-2,3.248603E-5,2.1906906E-4,4.8625178E-4,1.8037416E-4,-5.7279644E-6,7.7668825E-5,-2.1700615E-4,1.0923217E-4],"categories":[],"categories_nodes":[],"categories_segments":[],"categories_sizes":[],"default_left":[0,0,0,0,0,0,0,0,0,0,0,0,0,0,0],"id":62,"left_children":[1,3,5,7,9,11,13,-1,-1,-1,-1,-1,-1,-1,-1],"loss_changes":[9.400022E-2,1.7411523E-2,9.737555E-2,4.0938966E-3,5.719438E-3,3.8214285E-2,7.02924E-2,0E0,0E0,0E0,0E0,0E0,0E0,0E0,0E0],"parents":[2147483647,0,0,1,1,2,2,3,3,4,4,5,5,6,6],"right_children":[2,4,6,8,10,12,14,-1,-1,-1,-1,-1,-1,-1,-1],"split_conditions":[-2.712147E-3,-1.9115214E-3,1.3617937E-1,-4.740596E-2,-1.8434392E-1,1.1864078E-2,1.9521898E-1,3.248603E-5,2.1906906E-4,4.8625178E-4,1.8037416E-4,-5.7279644E-6,7.7668825E-5,-2.1700615E-4,1.0923217E-4],"split_indices":[0,2,8,5,10,18,8,0,0,0,0,0,0,0,0],"split_type":[0,0,0,0,0,0,0,0,0,0,0,0,0,0,0],"sum_hessian":[1.037E3,2.9E1,1.008E3,1.4E1,1.5E1,8.93E2,1.15E2,6E0,8E0,1.1E1,4E0,6.91E2,2.02E2,9.2E1,2.3E1],"tree_param":{"num_deleted":"0","num_feature":"25","num_nodes":"15","size_leaf_vector":"1"}},{"base_weights":[-1.3241693E-3,-3.1439748E-4,-1.3167167E-1,4.0432446E-2,-2.3824458E-3,-1.5182189E-4,-8.623474E-4,1.16897485E-4,3.8591953E-4,-1.5345E-4,1.2436083E-6],"categories":[],"categories_nodes":[],"categories_segments":[],"categories_sizes":[],"default_left":[0,0,0,0,0,0,0,0,0,0,0],"id":63,"left_children":[1,3,5,7,9,-1,-1,-1,-1,-1,-1],"loss_changes":[1.369763E-1,8.722783E-2,1.9940346E-2,2.7910002E-2,6.783147E-2,0E0,0E0,0E0,0E0,0E0,0E0],"parents":[2147483647,0,0,1,1,2,2,3,3,4,4],"right_children":[2,4,6,8,10,-1,-1,-1,-1,-1,-1],"split_conditions":[6.468601E-1,-2.2623907E-3,1.671411E-4,1.2794668E-2,-4.7888376E-2,-1.5182189E-4,-8.623474E-4,1.16897485E-4,3.8591953E-4,-1.5345E-4,1.2436083E-6],"split_indices":[13,0,2,11,11,0,0,0,0,0,0],"split_type":[0,0,0,0,0,0,0,0,0,0,0],"sum_hessian":[1.04E3,1.033E3,7E0,4.9E1,9.84E2,2E0,5E0,3.2E1,1.7E1,8.8E1,8.96E2],"tree_param":{"num_deleted":"0","num_feature":"25","num_nodes":"11","size_leaf_vector":"1"}},{"base_weights":[-2.8828415E-4,-1.416391E-3,8.0956005E-2,-4.607641E-4,-8.7989055E-2,8.822548E-2,1.3303454E-4,6.4966653E-6,-1.6557465E-4,6.5448425E-5,-7.856982E-4,4.9338373E-4,1.1541347E-4],"categories":[],"categories_nodes":[],"categories_segments":[],"categories_sizes":[],"default_left":[0,0,0,0,0,0,0,0,0,0,0,0,0],"id":64,"left_children":[1,3,5,7,9,11,-1,-1,-1,-1,-1,-1,-1],"loss_changes":[9.36916E-2,8.335248E-2,3.509529E-3,5.109992E-2,6.688284E-2,1.2797117E-3,0E0,0E0,0E0,0E0,0E0,0E0,0E0],"parents":[2147483647,0,0,1,1,2,2,3,3,4,4,5,5],"right_children":[2,4,6,8,10,12,-1,-1,-1,-1,-1,-1,-1],"split_conditions":[3.367291E-2,6.468601E-1,-5.2013764E0,5.373575E-2,6.5596886E-2,1.2069701E-1,1.3303454E-4,6.4966653E-6,-1.6557465E-4,6.5448425E-5,-7.856982E-4,4.9338373E-4,1.1541347E-4],"split_indices":[9,13,6,4,5,17,0,0,0,0,0,0,0],"split_type":[0,0,0,0,0,0,0,0,0,0,0,0,0],"sum_hessian":[1.02E3,1.007E3,1.3E1,9.97E2,1E1,1.1E1,2E0,9.46E2,5.1E1,4E0,6E0,1E1,1E0],"tree_param":{"num_deleted":"0","num_feature":"25","num_nodes":"13","size_leaf_vector":"1"}},{"base_weights":[3.9370704E-4,-7.2297367E-4,4.7478225E-4,-2.604741E-4,-7.9612814E-2,-5.050853E-5,1.5539827E-5,-4.4292906E-6,-8.450449E-4],"categories":[],"categories_nodes":[],"categories_segments":[],"categories_sizes":[],"default_left":[0,0,0,0,0,0,0,0,0],"id":65,"left_children":[1,3,-1,5,7,-1,-1,-1,-1],"loss_changes":[1.02977395E-1,3.7560377E-2,0E0,2.9872611E-2,3.6979903E-2,0E0,0E0,0E0,0E0],"parents":[2147483647,0,0,1,1,3,3,4,4],"right_children":[2,4,-1,6,8,-1,-1,-1,-1],"split_conditions":[5.363577E-2,6.468601E-1,4.7478225E-4,-2.2248805E-2,2.940548E-1,-5.050853E-5,1.5539827E-5,-4.4292906E-6,-8.450449E-4],"split_indices":[9,13,0,5,12,0,0,0,0],"split_type":[0,0,0,0,0,0,0,0,0],"sum_hessian":[1.041E3,1.029E3,1.2E1,1.024E3,5E0,2.62E2,7.62E2,3E0,2E0],"tree_param":{"num_deleted":"0","num_feature":"25","num_nodes":"9","size_leaf_vector":"1"}},{"base_weights":[-2.928445E-4,6.4440675E-2,-1.8885498E-3,-7.402232E-5,6.827993E-2,4.5062265E-5,-2.3022322E-2,2.7557262E-4,4.8318342E-4,-3.9236157E-4,3.6434033E-6,-1.7242352E-4,1.3973101E-4],"categories":[],"categories_nodes":[],"categories_segments":[],"categories_sizes":[],"default_left":[0,0,0,0,0,0,0,0,0,0,0,0,0],"id":66,"left_children":[1,3,5,-1,7,9,11,-1,-1,-1,-1,-1,-1],"loss_changes":[1.0734254E-1,8.460231E-3,4.1437656E-2,0E0,4.216738E-3,4.3547224E-2,3.9463118E-2,0E0,0E0,0E0,0E0,0E0,0E0],"parents":[2147483647,0,0,1,1,2,2,4,4,5,5,6,6],"right_children":[2,4,6,-1,8,10,12,-1,-1,-1,-1,-1,-1],"split_conditions":[-2.7305253E-3,-2.1189108E0,5.1420566E-2,-7.402232E-5,-9.60854E-3,-1.3042745E-1,2.669E1,2.7557262E-4,4.8318342E-4,-3.9236157E-4,3.6434033E-6,-1.7242352E-4,1.3973101E-4],"split_indices":[0,12,4,0,11,7,3,0,0,0,0,0,0],"split_type":[0,0,0,0,0,0,0,0,0,0,0,0,0],"sum_hessian":[1.037E3,2.4E1,1.013E3,1E0,2.3E1,9.29E2,8.4E1,1.5E1,8E0,7E0,9.22E2,7.1E1,1.3E1],"tree_param":{"num_deleted":"0","num_feature":"25","num_nodes":"13","size_leaf_vector":"1"}},{"base_weights":[1.2401235E-3,5.5242624E-2,-2.853907E-4,5.087486E-4,4.2418543E-2,3.2387471E-3,-1.204153E-2,-3.8136757E-5,2.4046912E-4,-6.175323E-5,4.3403616E-5,-3.7669444E-5,-3.017133E-4],"categories":[],"categories_nodes":[],"categories_segments":[],"categories_sizes":[],"default_left":[0,0,0,0,0,0,0,0,0,0,0,0,0],"id":67,"left_children":[1,3,5,-1,7,9,11,-1,-1,-1,-1,-1,-1],"loss_changes":[8.3962604E-2,1.030767E-2,4.1137807E-2,0E0,3.2580458E-3,5.528026E-2,5.0384525E-2,0E0,0E0,0E0,0E0,0E0,0E0],"parents":[2147483647,0,0,1,1,2,2,4,4,5,5,6,6],"right_children":[2,4,6,-1,8,10,12,-1,-1,-1,-1,-1,-1],"split_conditions":[-2.7305253E-3,-1.149759E-1,1.5948685E-3,5.087486E-4,-1.0946384E-1,-2.3684885E-2,1.8043544E0,-3.8136757E-5,2.4046912E-4,-6.175323E-5,4.3403616E-5,-3.7669444E-5,-3.017133E-4],"split_indices":[0,22,0,0,5,5,12,0,0,0,0,0,0],"split_type":[0,0,0,0,0,0,0,0,0,0,0,0,0],"sum_hessian":[1.018E3,2.7E1,9.91E2,5E0,2.2E1,7.63E2,2.28E2,1E0,2.1E1,1.89E2,5.74E2,2.06E2,2.2E1],"tree_param":{"num_deleted":"0","num_feature":"25","num_nodes":"13","size_leaf_vector":"1"}},{"base_weights":[1.5970683E-3,4.8889842E-2,1.9075113E-4,-7.446709E-5,5.153666E-2,-1.1826717E-2,4.816392E-3,-3.803485E-5,2.879812E-4,-2.0093156E-4,-4.4571857E-6,-4.288127E-4,3.0734303E-5],"categories":[],"categories_nodes":[],"categories_segments":[],"categories_sizes":[],"default_left":[0,0,0,0,0,0,0,0,0,0,0,0,0],"id":68,"left_children":[1,3,5,-1,7,9,11,-1,-1,-1,-1,-1,-1],"loss_changes":[6.9093145E-2,5.7065934E-3,5.620134E-2,0E0,4.378937E-3,7.9572774E-2,5.8481168E-2,0E0,0E0,0E0,0E0,0E0,0E0],"parents":[2147483647,0,0,1,1,2,2,4,4,5,5,6,6],"right_children":[2,4,6,-1,8,10,12,-1,-1,-1,-1,-1,-1],"split_conditions":[-2.7305253E-3,-1.0565556E1,-1.9223392E-2,-7.446709E-5,-1.0946384E-1,2.7442598E-3,-1.3042745E-1,-3.803485E-5,2.879812E-4,-2.0093156E-4,-4.4571857E-6,-4.288127E-4,3.0734303E-5],"split_indices":[0,6,5,0,5,15,7,0,0,0,0,0,0],"split_type":[0,0,0,0,0,0,0,0,0,0,0,0,0],"sum_hessian":[1.038E3,2.9E1,1.009E3,1E0,2.8E1,2.8E2,7.29E2,1E0,2.7E1,8.3E1,1.97E2,7E0,7.22E2],"tree_param":{"num_deleted":"0","num_feature":"25","num_nodes":"13","size_leaf_vector":"1"}},{"base_weights":[-1.6248089E-3,-3.390334E-3,5.171119E-2,-5.70312E-2,-2.1764988E-3,8.215789E-2,3.0400794E-2,1.5241346E-4,-3.8500436E-4,-6.4950436E-6,-3.0072549E-4,7.273475E-5,4.9907237E-4,-2.1592375E-4,2.1366662E-4],"categories":[],"categories_nodes":[],"categories_segments":[],"categories_sizes":[],"default_left":[0,0,0,0,0,0,0,0,0,0,0,0,0,0,0],"id":69,"left_children":[1,3,5,7,9,11,13,-1,-1,-1,-1,-1,-1,-1,-1],"loss_changes":[9.6978016E-2,6.4726606E-2,1.891376E-2,3.0302748E-2,5.062553E-2,8.7329E-3,1.585869E-2,0E0,0E0,0E0,0E0,0E0,0E0,0E0,0E0],"parents":[2147483647,0,0,1,1,2,2,3,3,4,4,5,5,6,6],"right_children":[2,4,6,8,10,12,14,-1,-1,-1,-1,-1,-1,-1,-1],"split_conditions":[3.361E1,-2.4753568E0,-1.8837014E-1,-8.9125E-2,2.570105E0,-2.243875E-3,1.671411E-4,1.5241346E-4,-3.8500436E-4,-6.4950436E-6,-3.0072549E-4,7.273475E-5,4.9907237E-4,-2.1592375E-4,2.1366662E-4],"split_indices":[3,16,10,22,16,2,2,0,0,0,0,0,0,0,0],"split_type":[0,0,0,0,0,0,0,0,0,0,0,0,0,0,0],"sum_hessian":[1.027E3,9.95E2,3.2E1,2.1E1,9.74E2,1.2E1,2E1,3E0,1.8E1,9.58E2,1.6E1,2E0,1E1,2E0,1.8E1],"tree_param":{"num_deleted":"0","num_feature":"25","num_nodes":"15","size_leaf_vector":"1"}},{"base_weights":[2.9193686E-4,5.304703E-2,-1.366988E-3,2.237129E-2,8.040734E-2,-8.8995345E-2,-5.5919436E-4,1.7850318E-4,-4.5818764E-5,9.3722396E-5,4.4587321E-4,-8.2462284E-5,-7.736509E-4,1.6914235E-5,-7.044808E-5],"categories":[],"categories_nodes":[],"categories_segments":[],"categories_sizes":[],"default_left":[0,0,0,0,0,0,0,0,0,0,0,0,0,0,0],"id":70,"left_children":[1,3,5,7,9,11,13,-1,-1,-1,-1,-1,-1,-1,-1],"loss_changes":[8.8989526E-2,2.4219409E-2,6.974487E-2,5.747143E-3,1.5770644E-3,3.4688614E-2,4.6015754E-2,0E0,0E0,0E0,0E0,0E0,0E0,0E0,0E0],"parents":[2147483647,0,0,1,1,2,2,3,3,4,4,5,5,6,6],"right_children":[2,4,6,8,10,12,14,-1,-1,-1,-1,-1,-1,-1,-1],"split_conditions":[-2.7305253E-3,-2.146495E-3,-1.3042745E-1,-5.501381E-2,-1.6359636E0,-8.235375E-4,1.05872415E-1,1.7850318E-4,-4.5818764E-5,9.3722396E-5,4.4587321E-4,-8.2462284E-5,-7.736509E-4,1.6914235E-5,-7.044808E-5],"split_indices":[0,2,7,22,12,0,8,0,0,0,0,0,0,0,0],"split_type":[0,0,0,0,0,0,0,0,0,0,0,0,0,0,0],"sum_hessian":[1.015E3,3E1,9.85E2,1.5E1,1.5E1,8E0,9.77E2,1.1E1,4E0,1E0,1.4E1,4E0,4E0,7.55E2,2.22E2],"tree_param":{"num_deleted":"0","num_feature":"25","num_nodes":"15","size_leaf_vector":"1"}},{"base_weights":[-6.408773E-4,5.225002E-2,-1.8750608E-3,1.8374318E-2,7.950067E-2,-6.9921324E-4,-6.781433E-2,1.9921975E-4,-3.6027053E-5,4.4850013E-4,7.069281E-5,-8.1949605E-5,2.247663E-5,8.827804E-5,-5.9512636E-4],"categories":[],"categories_nodes":[],"categories_segments":[],"categories_sizes":[],"default_left":[0,0,0,0,0,0,0,0,0,0,0,0,0,0,0],"id":71,"left_children":[1,3,5,7,9,11,13,-1,-1,-1,-1,-1,-1,-1,-1],"loss_changes":[6.870418E-2,2.0694464E-2,7.965808E-2,5.9483014E-3,2.698347E-3,7.2636686E-2,6.793664E-2,0E0,0E0,0E0,0E0,0E0,0E0,0E0,0E0],"parents":[2147483647,0,0,1,1,2,2,3,3,4,4,5,5,6,6],"right_children":[2,4,6,8,10,12,14,-1,-1,-1,-1,-1,-1,-1,-1],"split_conditions":[-2.7305253E-3,-2.243875E-3,4.9190843E-1,-6.380606E-2,-1.2187093E-2,-2.2248805E-2,2.7559033E-2,1.9921975E-4,-3.6027053E-5,4.4850013E-4,7.069281E-5,-8.1949605E-5,2.247663E-5,8.827804E-5,-5.9512636E-4],"split_indices":[0,2,21,22,4,5,5,0,0,0,0,0,0,0,0],"split_type":[0,0,0,0,0,0,0,0,0,0,0,0,0,0,0],"sum_hessian":[1.05E3,2.3E1,1.027E3,1.1E1,1.2E1,1.01E3,1.7E1,6E0,5E0,1.1E1,1E0,2.53E2,7.57E2,6E0,1.1E1],"tree_param":{"num_deleted":"0","num_feature":"25","num_nodes":"15","size_leaf_vector":"1"}},{"base_weights":[1.5598339E-4,-1.9271723E-3,3.440183E-2,2.1961185E-3,-1.633068E-2,-3.9711922E-2,4.354135E-2,1.05920786E-4,-1.5606318E-5,-4.8711445E-4,-6.5501896E-5,1.710227E-4,-3.9973937E-4,4.2624839E-4,1.7185786E-4],"categories":[],"categories_nodes":[],"categories_segments":[],"categories_sizes":[],"default_left":[0,0,0,0,0,0,0,0,0,0,0,0,0,0,0],"id":72,"left_children":[1,3,5,7,9,11,13,-1,-1,-1,-1,-1,-1,-1,-1],"loss_changes":[7.340323E-2,5.7644017E-2,4.169359E-2,6.813303E-2,6.472422E-2,2.0006053E-2,1.9286603E-2,0E0,0E0,0E0,0E0,0E0,0E0,0E0,0E0],"parents":[2147483647,0,0,1,1,2,2,3,3,4,4,5,5,6,6],"right_children":[2,4,6,8,10,12,14,-1,-1,-1,-1,-1,-1,-1,-1],"split_conditions":[3.041E1,1.04797825E-1,-1.2744894E0,-4.862549E-2,-7.1052544E-2,2.4078732E-2,-1.2611197E-1,1.05920786E-4,-1.5606318E-5,-4.8711445E-4,-6.5501896E-5,1.710227E-4,-3.9973937E-4,4.2624839E-4,1.7185786E-4],"split_indices":[3,8,12,10,11,1,13,0,0,0,0,0,0,0,0],"split_type":[0,0,0,0,0,0,0,0,0,0,0,0,0,0,0],"sum_hessian":[1.027E3,9.69E2,5.8E1,7.54E2,2.15E2,6E0,5.2E1,1.69E2,5.85E2,1E1,2.05E2,2E0,4E0,1.1E1,4.1E1],"tree_param":{"num_deleted":"0","num_feature":"25","num_nodes":"15","size_leaf_vector":"1"}},{"base_weights":[5.9922757E-5,-5.9686264E-4,8.830798E-2,-6.562962E-4,8.896254E-5,4.992831E-4,1.4028873E-4,-7.747482E-6,1.4151147E-4],"categories":[],"categories_nodes":[],"categories_segments":[],"categories_sizes":[],"default_left":[0,0,0,0,0,0,0,0,0],"id":73,"left_children":[1,3,5,-1,7,-1,-1,-1,-1],"loss_changes":[6.2765464E-2,9.010879E-2,8.722395E-5,0E0,4.348515E-2,0E0,0E0,0E0,0E0],"parents":[2147483647,0,0,1,1,2,2,4,4],"right_children":[2,4,6,-1,8,-1,-1,-1,-1],"split_conditions":[5.363577E-2,-1.3042745E-1,8.222992E-2,-6.562962E-4,3.041E1,4.992831E-4,1.4028873E-4,-7.747482E-6,1.4151147E-4],"split_indices":[9,7,7,0,3,0,0,0,0],"split_type":[0,0,0,0,0,0,0,0,0],"sum_hessian":[1.081E3,1.074E3,7E0,5E0,1.069E3,6E0,1E0,1.011E3,5.8E1],"tree_param":{"num_deleted":"0","num_feature":"25","num_nodes":"9","size_leaf_vector":"1"}},{"base_weights":[-2.7790558E-4,4.7579892E-2,-2.577101E-3,-2.0138156E-2,5.2541945E-2,1.9901579E-3,-1.656546E-2,-1.8302201E-4,5.9284048E-5,1.6907802E-4,3.3102543E-4,5.133558E-6,2.2322402E-4,1.1177442E-4,-1.291372E-4],"categories":[],"categories_nodes":[],"categories_segments":[],"categories_sizes":[],"default_left":[0,0,0,0,0,0,0,0,0,0,0,0,0,0,0],"id":74,"left_children":[1,3,5,7,9,11,13,-1,-1,-1,-1,-1,-1,-1,-1],"loss_changes":[1.1521865E-1,1.7187066E-2,6.385754E-2,2.1423246E-3,6.8812E-3,3.0840352E-2,7.0560224E-2,0E0,0E0,0E0,0E0,0E0,0E0,0E0,0E0],"parents":[2147483647,0,0,1,1,2,2,3,3,4,4,5,5,6,6],"right_children":[2,4,6,8,10,12,14,-1,-1,-1,-1,-1,-1,-1,-1],"split_conditions":[-2.4691294E-3,-1.0565556E1,1.04797825E-1,-2.6282568E-3,-3.7434332E-2,3.2387152E-3,1.1629874E0,-1.8302201E-4,5.9284048E-5,1.6907802E-4,3.3102543E-4,5.133558E-6,2.2322402E-4,1.1177442E-4,-1.291372E-4],"split_indices":[0,6,8,0,11,0,24,0,0,0,0,0,0,0,0],"split_type":[0,0,0,0,0,0,0,0,0,0,0,0,0,0,0],"sum_hessian":[1.045E3,4.7E1,9.98E2,3E0,4.4E1,7.53E2,2.45E2,2E0,1E0,1.5E1,2.9E1,7.35E2,1.8E1,4.1E1,2.04E2],"tree_param":{"num_deleted":"0","num_feature":"25","num_nodes":"15","size_leaf_vector":"1"}},{"base_weights":[-1.4193832E-3,8.9386135E-2,-2.4128507E-3,5.5418274E-4,1.666145E-2,-1.4279778E-2,1.5197913E-3,-5.9679983E-6,1.3953385E-4,-1.6307316E-6,-1.6982501E-4,1.2665715E-5,-6.7593355E-4],"categories":[],"categories_nodes":[],"categories_segments":[],"categories_sizes":[],"default_left":[0,0,0,0,0,0,0,0,0,0,0,0,0],"id":75,"left_children":[1,3,5,-1,7,9,11,-1,-1,-1,-1,-1,-1],"loss_changes":[9.169098E-2,9.719677E-3,4.687675E-2,0E0,5.3302926E-4,6.1119E-2,8.2456775E-2,0E0,0E0,0E0,0E0,0E0,0E0],"parents":[2147483647,0,0,1,1,2,2,4,4,5,5,6,6],"right_children":[2,4,6,-1,8,10,12,-1,-1,-1,-1,-1,-1],"split_conditions":[-1.4647736E-1,5.6227434E-1,-2.3684885E-2,5.5418274E-4,4.0617537E-2,1.0746542E-1,6.468601E-1,-5.9679983E-6,1.3953385E-4,-1.6307316E-6,-1.6982501E-4,1.2665715E-5,-6.7593355E-4],"split_indices":[23,13,5,0,1,8,13,0,0,0,0,0,0],"split_type":[0,0,0,0,0,0,0,0,0,0,0,0,0],"sum_hessian":[1.013E3,1E1,1.003E3,8E0,2E0,2.49E2,7.54E2,1E0,1E0,1.39E2,1.1E2,7.5E2,4E0],"tree_param":{"num_deleted":"0","num_feature":"25","num_nodes":"13","size_leaf_vector":"1"}},{"base_weights":[-7.3629525E-4,4.158294E-2,-3.0561574E-3,2.0039845E-2,6.484101E-2,-2.0096058E-2,9.767456E-4,2.1347991E-4,-2.9727576E-5,4.0984454E-4,1.8139833E-4,-8.483655E-5,-4.3877392E-4,2.726461E-5,-6.373775E-5],"categories":[],"categories_nodes":[],"categories_segments":[],"categories_sizes":[],"default_left":[0,0,0,0,0,0,0,0,0,0,0,0,0,0,0],"id":76,"left_children":[1,3,5,7,9,11,13,-1,-1,-1,-1,-1,-1,-1,-1],"loss_changes":[1.0389783E-1,2.6258394E-2,6.894605E-2,1.5510968E-2,6.914541E-3,4.895795E-2,4.327823E-2,0E0,0E0,0E0,0E0,0E0,0E0,0E0,0E0],"parents":[2147483647,0,0,1,1,2,2,3,3,4,4,5,5,6,6],"right_children":[2,4,6,8,10,12,14,-1,-1,-1,-1,-1,-1,-1,-1],"split_conditions":[-2.3931472E-3,-1.063544E-2,-3.1979445E-2,2.4439517E-2,-1.9345361E-1,4.4153564E-2,1.336946E-3,2.1347991E-4,-2.9727576E-5,4.0984454E-4,1.8139833E-4,-8.483655E-5,-4.3877392E-4,2.726461E-5,-6.373775E-5],"split_indices":[0,11,11,1,10,14,2,0,0,0,0,0,0,0,0],"split_type":[0,0,0,0,0,0,0,0,0,0,0,0,0,0,0],"sum_hessian":[1.056E3,5.4E1,1.002E3,2.9E1,2.5E1,1.91E2,8.11E2,1.6E1,1.3E1,1.7E1,8E0,1.8E2,1.1E1,6.15E2,1.96E2],"tree_param":{"num_deleted":"0","num_feature":"25","num_nodes":"15","size_leaf_vector":"1"}},{"base_weights":[1.3549703E-3,4.821026E-4,8.478904E-2,1.2341933E-3,-5.9780095E-2,4.919257E-4,1.8573107E-4,1.718684E-5,-8.411909E-5,-1.368841E-4,-4.5644178E-4],"categories":[],"categories_nodes":[],"categories_segments":[],"categories_sizes":[],"default_left":[0,0,0,0,0,0,0,0,0,0,0],"id":77,"left_children":[1,3,5,7,9,-1,-1,-1,-1,-1,-1],"loss_changes":[7.737412E-2,4.7798526E-2,7.9566985E-4,3.506781E-2,9.195242E-3,0E0,0E0,0E0,0E0,0E0,0E0],"parents":[2147483647,0,0,1,1,2,2,3,3,4,4],"right_children":[2,4,6,8,10,-1,-1,-1,-1,-1,-1],"split_conditions":[5.363577E-2,2.0300469E-1,2.9563751E-2,1.3617937E-1,2.6020189E-3,4.919257E-4,1.8573107E-4,1.718684E-5,-8.411909E-5,-1.368841E-4,-4.5644178E-4],"split_indices":[9,15,19,8,2,0,0,0,0,0,0],"split_type":[0,0,0,0,0,0,0,0,0,0,0],"sum_hessian":[1.062E3,1.052E3,1E1,1.04E3,1.2E1,8E0,2E0,9.32E2,1.08E2,6E0,6E0],"tree_param":{"num_deleted":"0","num_feature":"25","num_nodes":"11","size_leaf_vector":"1"}},{"base_weights":[-1.1494702E-3,5.1789075E-2,-2.530246E-3,3.2546207E-2,6.852839E-2,2.8848934E-3,-1.779083E-2,4.719325E-6,2.1965812E-4,1.8272313E-4,4.5809234E-4,1.2236123E-4,-8.373033E-6,-1.2387255E-4,1.5904671E-4],"categories":[],"categories_nodes":[],"categories_segments":[],"categories_sizes":[],"default_left":[0,0,0,0,0,0,0,0,0,0,0,0,0,0,0],"id":78,"left_children":[1,3,5,7,9,11,13,-1,-1,-1,-1,-1,-1,-1,-1],"loss_changes":[7.476232E-2,6.144583E-3,8.235897E-2,3.7560575E-3,4.7418103E-3,6.559878E-2,6.7553885E-2,0E0,0E0,0E0,0E0,0E0,0E0,0E0,0E0],"parents":[2147483647,0,0,1,1,2,2,3,3,4,4,5,5,6,6],"right_children":[2,4,6,8,10,12,14,-1,-1,-1,-1,-1,-1,-1,-1],"split_conditions":[-2.7305253E-3,3.116E1,1.5464283E-2,-6.90858E0,-2.7433187E-1,-5.5609755E-2,3.361E1,4.719325E-6,2.1965812E-4,1.8272313E-4,4.5809234E-4,1.2236123E-4,-8.373033E-6,-1.2387255E-4,1.5904671E-4],"split_indices":[0,3,1,6,10,10,3,0,0,0,0,0,0,0,0],"split_type":[0,0,0,0,0,0,0,0,0,0,0,0,0,0,0],"sum_hessian":[1.02E3,2.5E1,9.95E2,1.3E1,1.2E1,7.35E2,2.6E2,3E0,1E1,5E0,7E0,1.33E2,6.02E2,2.34E2,2.6E1],"tree_param":{"num_deleted":"0","num_feature":"25","num_nodes":"15","size_leaf_vector":"1"}},{"base_weights":[-1.5309439E-3,5.47289E-2,-3.1286543E-3,6.413419E-2,9.553806E-3,-3.9119627E-3,5.573963E-2,1.7694336E-4,3.7898074E-4,6.25086E-5,1.8772138E-5,-1.572606E-5,-3.2979256E-4,1.7122818E-4,4.1712337E-4],"categories":[],"categories_nodes":[],"categories_segments":[],"categories_sizes":[],"default_left":[0,0,0,0,0,0,0,0,0,0,0,0,0,0,0],"id":79,"left_children":[1,3,5,7,9,11,13,-1,-1,-1,-1,-1,-1,-1,-1],"loss_changes":[9.11368E-2,1.1284053E-2,4.5638386E-2,2.4894103E-3,3.657624E-5,5.4333147E-2,4.373241E-3,0E0,0E0,0E0,0E0,0E0,0E0,0E0,0E0],"parents":[2147483647,0,0,1,1,2,2,3,3,4,4,5,5,6,6],"right_children":[2,4,6,8,10,12,14,-1,-1,-1,-1,-1,-1,-1,-1],"split_conditions":[-2.7305253E-3,2.140446E-2,3.367291E-2,-2.146495E-3,3.0790305E-2,2.7811926E-2,1.2053796E-2,1.7694336E-4,3.7898074E-4,6.25086E-5,1.8772138E-5,-1.572606E-5,-3.2979256E-4,1.7122818E-4,4.1712337E-4],"split_indices":[0,18,9,2,18,1,18,0,0,0,0,0,0,0,0],"split_type":[0,0,0,0,0,0,0,0,0,0,0,0,0,0,0],"sum_hessian":[1.011E3,2.7E1,9.84E2,2.2E1,5E0,9.72E2,1.2E1,5E0,1.7E1,3E0,2E0,9.57E2,1.5E1,7E0,5E0],"tree_param":{"num_deleted":"0","num_feature":"25","num_nodes":"15","size_leaf_vector":"1"}},{"base_weights":[6.316285E-4,-2.463278E-2,2.8290004E-3,-2.9080492E-3,-5.008664E-2,2.1263221E-3,7.9965435E-2,1.2829619E-5,-4.4538494E-4,-1.2513001E-4,-3.786211E-4,3.4148987E-5,-3.1276268E-5,1.8729744E-4,4.6919228E-4],"categories":[],"categories_nodes":[],"categories_segments":[],"categories_sizes":[],"default_left":[0,0,0,0,0,0,0,0,0,0,0,0,0,0,0],"id":80,"left_children":[1,3,5,7,9,11,13,-1,-1,-1,-1,-1,-1,-1,-1],"loss_changes":[6.0359303E-2,4.7963444E-2,5.403207E-2,2.0694941E-2,2.048944E-2,3.3781677E-2,8.764118E-5,0E0,0E0,0E0,0E0,0E0,0E0,0E0,0E0],"parents":[2147483647,0,0,1,1,2,2,3,3,4,4,5,5,6,6],"right_children":[2,4,6,8,10,12,14,-1,-1,-1,-1,-1,-1,-1,-1],"split_conditions":[-5.4878894E-2,1.04797825E-1,5.363577E-2,-5.575749E-2,2.1892399E-2,3.4455948E-2,2.0177977E-3,1.2829619E-5,-4.4538494E-4,-1.2513001E-4,-3.786211E-4,3.4148987E-5,-3.1276268E-5,1.8729744E-4,4.6919228E-4],"split_indices":[11,8,9,11,13,23,18,0,0,0,0,0,0,0,0],"split_type":[0,0,0,0,0,0,0,0,0,0,0,0,0,0,0],"sum_hessian":[1.085E3,8.6E1,9.99E2,4.7E1,3.9E1,9.91E2,8E0,4.5E1,2E0,1.8E1,2.1E1,6.46E2,3.45E2,2E0,6E0],"tree_param":{"num_deleted":"0","num_feature":"25","num_nodes":"15","size_leaf_vector":"1"}},{"base_weights":[2.9670773E-4,4.5677435E-2,-1.2989981E-3,1.43369995E-2,6.276824E-2,1.801203E-3,-2.8164903E-2,1.7234527E-4,-4.3723387E-5,-3.8358583E-5,3.5418774E-4,3.4173932E-5,-4.5101708E-5,-1.9207738E-4,1.6153503E-4],"categories":[],"categories_nodes":[],"categories_segments":[],"categories_sizes":[],"default_left":[0,0,0,0,0,0,0,0,0,0,0,0,0,0,0],"id":81,"left_children":[1,3,5,7,9,11,13,-1,-1,-1,-1,-1,-1,-1,-1],"loss_changes":[7.674607E-2,1.8382892E-2,8.533939E-2,5.910511E-3,6.115325E-3,4.3280777E-2,4.921297E-2,0E0,0E0,0E0,0E0,0E0,0E0,0E0,0E0],"parents":[2147483647,0,0,1,1,2,2,3,3,4,4,5,5,6,6],"right_children":[2,4,6,8,10,12,14,-1,-1,-1,-1,-1,-1,-1,-1],"split_conditions":[-2.712147E-3,-2.146495E-3,1.3617937E-1,2.5260754E-2,-1.0946384E-1,1.1757949E-3,2.0867835E-1,1.7234527E-4,-4.3723387E-5,-3.8358583E-5,3.5418774E-4,3.4173932E-5,-4.5101708E-5,-1.9207738E-4,1.6153503E-4],"split_indices":[0,2,8,1,5,2,8,0,0,0,0,0,0,0,0],"split_type":[0,0,0,0,0,0,0,0,0,0,0,0,0,0,0],"sum_hessian":[1.058E3,3.5E1,1.023E3,1.3E1,2.2E1,9.18E2,1.05E2,7E0,6E0,1E0,2.1E1,6.34E2,2.84E2,9.3E1,1.2E1],"tree_param":{"num_deleted":"0","num_feature":"25","num_nodes":"15","size_leaf_vector":"1"}},{"base_weights":[1.1844605E-3,5.3484675E-2,-5.583326E-4,1.3052872E-2,6.168246E-2,4.2935903E-3,-1.2922058E-2,-4.6725945E-5,1.2569755E-4,3.5288982E-4,1.8354456E-5,1.11882786E-4,3.7980076E-6,-5.046107E-5,-4.5860486E-4],"categories":[],"categories_nodes":[],"categories_segments":[],"categories_sizes":[],"default_left":[0,0,0,0,0,0,0,0,0,0,0,0,0,0,0],"id":82,"left_children":[1,3,5,7,9,11,13,-1,-1,-1,-1,-1,-1,-1,-1],"loss_changes":[9.610033E-2,1.0464206E-2,6.1303064E-2,1.8026123E-3,6.865427E-3,4.3749698E-2,7.224356E-2,0E0,0E0,0E0,0E0,0E0,0E0,0E0,0E0],"parents":[2147483647,0,0,1,1,2,2,3,3,4,4,5,5,6,6],"right_children":[2,4,6,8,10,12,14,-1,-1,-1,-1,-1,-1,-1,-1],"split_conditions":[-2.712147E-3,-5.4878894E-2,1.4630207E-2,-3.701657E-3,3.2828826E-2,2.5853366E-4,4.9190843E-1,-4.6725945E-5,1.2569755E-4,3.5288982E-4,1.8354456E-5,1.11882786E-4,3.7980076E-6,-5.046107E-5,-4.5860486E-4],"split_indices":[0,11,9,0,18,0,21,0,0,0,0,0,0,0,0],"split_type":[0,0,0,0,0,0,0,0,0,0,0,0,0,0,0],"sum_hessian":[1.053E3,3.3E1,1.02E3,6E0,2.7E1,7.33E2,2.87E2,2E0,4E0,2.5E1,2E0,1.29E2,6.04E2,2.75E2,1.2E1],"tree_param":{"num_deleted":"0","num_feature":"25","num_nodes":"15","size_leaf_vector":"1"}},{"base_weights":[1.2899188E-3,5.4410253E-2,-2.6760073E-4,4.378436E-2,4.789376E-4,-3.7777808E-2,1.058788E-3,-7.6410695E-5,2.501145E-4,-2.3364928E-4,2.1468646E-4,-5.906815E-6,1.5101861E-4],"categories":[],"categories_nodes":[],"categories_segments":[],"categories_sizes":[],"default_left":[0,0,0,0,0,0,0,0,0,0,0,0,0],"id":83,"left_children":[1,3,5,7,-1,9,11,-1,-1,-1,-1,-1,-1],"loss_changes":[8.7135516E-2,7.2991103E-3,5.098719E-2,5.0482377E-3,0E0,1.7965857E-2,5.8302544E-2,0E0,0E0,0E0,0E0,0E0,0E0],"parents":[2147483647,0,0,1,1,2,2,3,3,5,5,6,6],"right_children":[2,4,6,8,-1,10,12,-1,-1,-1,-1,-1,-1],"split_conditions":[-2.7305253E-3,3.607E1,-1.1995684E-3,-1.7267081E-1,4.789376E-4,-1.3776889E-2,2.762E1,-7.6410695E-5,2.501145E-4,-2.3364928E-4,2.1468646E-4,-5.906815E-6,1.5101861E-4],"split_indices":[0,3,2,13,0,23,3,0,0,0,0,0,0],"split_type":[0,0,0,0,0,0,0,0,0,0,0,0,0],"sum_hessian":[1.052E3,2.9E1,1.023E3,2.4E1,5E0,3.4E1,9.89E2,1E0,2.3E1,3.2E1,2E0,9.17E2,7.2E1],"tree_param":{"num_deleted":"0","num_feature":"25","num_nodes":"13","size_leaf_vector":"1"}},{"base_weights":[1.2020617E-3,5.4373372E-2,-7.964567E-4,6.248931E-2,1.7141948E-2,-1.535163E-2,3.9909543E-3,4.6151137E-4,2.5732128E-4,-2.459926E-5,1.6625832E-4,-4.8944865E-5,-3.2574488E-4,2.7069022E-4,1.0806906E-5],"categories":[],"categories_nodes":[],"categories_segments":[],"categories_sizes":[],"default_left":[0,0,0,0,0,0,0,0,0,0,0,0,0,0,0],"id":84,"left_children":[1,3,5,7,9,11,13,-1,-1,-1,-1,-1,-1,-1,-1],"loss_changes":[1.08538695E-1,1.0109022E-2,6.869764E-2,6.1098635E-3,2.5729584E-3,6.835124E-2,6.806042E-2,0E0,0E0,0E0,0E0,0E0,0E0,0E0,0E0],"parents":[2147483647,0,0,1,1,2,2,3,3,4,4,5,5,6,6],"right_children":[2,4,6,8,10,12,14,-1,-1,-1,-1,-1,-1,-1,-1],"split_conditions":[-2.7305253E-3,-1.0076437E-2,-2.4375265E-2,-3.766976E-2,-3.701657E-3,1.4915109E-1,-6.648098E-2,4.6151137E-4,2.5732128E-4,-2.459926E-5,1.6625832E-4,-4.8944865E-5,-3.2574488E-4,2.7069022E-4,1.0806906E-5],"split_indices":[0,4,5,13,0,8,15,0,0,0,0,0,0,0,0],"split_type":[0,0,0,0,0,0,0,0,0,0,0,0,0,0,0],"sum_hessian":[1.02E3,3.6E1,9.84E2,2.9E1,7E0,2.43E2,7.41E2,9E0,2E1,3E0,4E0,2.15E2,2.8E1,2.9E1,7.12E2],"tree_param":{"num_deleted":"0","num_feature":"25","num_nodes":"15","size_leaf_vector":"1"}},{"base_weights":[-8.263344E-4,-1.5605744E-3,7.246003E-2,8.675186E-4,-2.3349244E-2,4.5161106E-4,1.619153E-2,4.7401278E-5,-1.9819638E-5,-2.0953419E-4,3.1699183E-5,1.0564439E-4,2.4154355E-5],"categories":[],"categories_nodes":[],"categories_segments":[],"categories_sizes":[],"default_left":[0,0,0,0,0,0,0,0,0,0,0,0,0],"id":85,"left_children":[1,3,5,7,9,-1,11,-1,-1,-1,-1,-1,-1],"loss_changes":[5.424572E-2,5.2766457E-2,5.408287E-3,3.2915484E-2,4.666505E-2,0E0,3.5877572E-5,0E0,0E0,0E0,0E0,0E0,0E0],"parents":[2147483647,0,0,1,1,2,2,3,3,4,4,6,6],"right_children":[2,4,6,8,10,-1,12,-1,-1,-1,-1,-1,-1],"split_conditions":[3.367291E-2,1.3883781E-1,1.0445554E-2,-3.6467627E-2,2.2875872E-2,4.5161106E-4,3.159169E-2,4.7401278E-5,-1.9819638E-5,-2.0953419E-4,3.1699183E-5,1.0564439E-4,2.4154355E-5],"split_indices":[9,8,4,10,9,0,1,0,0,0,0,0,0],"split_type":[0,0,0,0,0,0,0,0,0,0,0,0,0],"sum_hessian":[1.005E3,9.96E2,9E0,8.97E2,9.9E1,7E0,2E0,3.26E2,5.71E2,6.4E1,3.5E1,1E0,1E0],"tree_param":{"num_deleted":"0","num_feature":"25","num_nodes":"13","size_leaf_vector":"1"}},{"base_weights":[-1.273328E-3,4.6273686E-2,-2.622256E-3,1.7666375E-2,6.37451E-2,3.3066096E-4,-4.068211E-2,-1.0022774E-4,1.4336576E-4,1.3991077E-4,3.9168407E-4,5.7226116E-5,-1.845489E-5,-6.4698735E-4,-1.7507166E-4],"categories":[],"categories_nodes":[],"categories_segments":[],"categories_sizes":[],"default_left":[0,0,0,0,0,0,0,0,0,0,0,0,0,0,0],"id":86,"left_children":[1,3,5,7,9,11,13,-1,-1,-1,-1,-1,-1,-1,-1],"loss_changes":[6.509262E-2,1.2868542E-2,1.1082761E-1,4.506221E-3,4.1768253E-3,3.6004417E-2,4.1253276E-2,0E0,0E0,0E0,0E0,0E0,0E0,0E0,0E0],"parents":[2147483647,0,0,1,1,2,2,3,3,4,4,5,5,6,6],"right_children":[2,4,6,8,10,12,14,-1,-1,-1,-1,-1,-1,-1,-1],"split_conditions":[-2.7305253E-3,-2.146495E-3,1.4394976E-1,5.349885E-1,-1.3620671E0,1.1629874E0,-1.3042745E-1,-1.0022774E-4,1.4336576E-4,1.3991077E-4,3.9168407E-4,5.7226116E-5,-1.845489E-5,-6.4698735E-4,-1.7507166E-4],"split_indices":[0,2,8,12,12,24,7,0,0,0,0,0,0,0,0],"split_type":[0,0,0,0,0,0,0,0,0,0,0,0,0,0,0],"sum_hessian":[1.012E3,2.7E1,9.85E2,1.1E1,1.6E1,9.15E2,7E1,2E0,9E0,4E0,1.2E1,2.44E2,6.71E2,5E0,6.5E1],"tree_param":{"num_deleted":"0","num_feature":"25","num_nodes":"15","size_leaf_vector":"1"}},{"base_weights":[2.0310632E-4,-7.352088E-4,7.5397044E-2,-1.15059406E-1,1.4916688E-4,4.5144273E-4,1.8096424E-4,-1.6025971E-5,-6.981786E-4,-8.3130335E-6,1.4639841E-4],"categories":[],"categories_nodes":[],"categories_segments":[],"categories_sizes":[],"default_left":[0,0,0,0,0,0,0,0,0,0,0],"id":87,"left_children":[1,3,5,7,9,-1,-1,-1,-1,-1,-1],"loss_changes":[7.442104E-2,1.05369136E-1,2.0397156E-3,1.3575748E-2,4.811014E-2,0E0,0E0,0E0,0E0,0E0,0E0],"parents":[2147483647,0,0,1,1,2,2,3,3,4,4],"right_children":[2,4,6,8,10,-1,-1,-1,-1,-1,-1],"split_conditions":[3.367291E-2,-1.3042745E-1,-5.2013764E0,1.4543849E-2,2.952E1,4.5144273E-4,1.8096424E-4,-1.6025971E-5,-6.981786E-4,-8.3130335E-6,1.4639841E-4],"split_indices":[9,7,6,1,3,0,0,0,0,0,0],"split_type":[0,0,0,0,0,0,0,0,0,0,0],"sum_hessian":[1.053E3,1.041E3,1.2E1,7E0,1.034E3,9E0,3E0,1E0,6E0,9.74E2,6E1],"tree_param":{"num_deleted":"0","num_feature":"25","num_nodes":"11","size_leaf_vector":"1"}},{"base_weights":[2.3550985E-5,-9.868778E-4,8.83499E-2,-9.2321634E-2,-1.9629212E-4,5.1235897E-4,1.8081264E-4,-1.4457968E-4,-6.4370624E-4,-1.1130778E-5,1.4805429E-4],"categories":[],"categories_nodes":[],"categories_segments":[],"categories_sizes":[],"default_left":[0,0,0,0,0,0,0,0,0,0,0],"id":88,"left_children":[1,3,5,7,9,-1,-1,-1,-1,-1,-1],"loss_changes":[9.468953E-2,7.5728014E-2,1.676172E-3,1.3262935E-2,5.4846343E-2,0E0,0E0,0E0,0E0,0E0,0E0],"parents":[2147483647,0,0,1,1,2,2,3,3,4,4],"right_children":[2,4,6,8,10,-1,-1,-1,-1,-1,-1],"split_conditions":[5.363577E-2,-1.3042745E-1,2.9563751E-2,-8.823752E-4,2.887E1,5.1235897E-4,1.8081264E-4,-1.4457968E-4,-6.4370624E-4,-1.1130778E-5,1.4805429E-4],"split_indices":[9,7,19,0,3,0,0,0,0,0,0],"split_type":[0,0,0,0,0,0,0,0,0,0,0],"sum_hessian":[1.059E3,1.048E3,1.1E1,8E0,1.04E3,9E0,2E0,3E0,5E0,9.75E2,6.5E1],"tree_param":{"num_deleted":"0","num_feature":"25","num_nodes":"11","size_leaf_vector":"1"}},{"base_weights":[-5.113446E-4,3.9360173E-2,-2.1010535E-3,1.2372854E-2,5.9942733E-2,2.848392E-3,-1.8188296E-2,1.7428017E-4,-4.864393E-5,-6.598591E-5,3.4091252E-4,3.887084E-6,1.1676338E-4,-4.4205473E-5,-4.0938822E-4],"categories":[],"categories_nodes":[],"categories_segments":[],"categories_sizes":[],"default_left":[0,0,0,0,0,0,0,0,0,0,0,0,0,0,0],"id":89,"left_children":[1,3,5,7,9,11,13,-1,-1,-1,-1,-1,-1,-1,-1],"loss_changes":[6.7776926E-2,2.203253E-2,8.190417E-2,8.554206E-3,7.1840733E-3,3.169997E-2,1.3955288E-1,0E0,0E0,0E0,0E0,0E0,0E0,0E0,0E0],"parents":[2147483647,0,0,1,1,2,2,3,3,4,4,5,5,6,6],"right_children":[2,4,6,8,10,12,14,-1,-1,-1,-1,-1,-1,-1,-1],"split_conditions":[-2.3931472E-3,-1.063544E-2,1.0523718E-1,-3.43235E-3,2.155E1,2.322E1,1.2835251E-1,1.7428017E-4,-4.864393E-5,-6.598591E-5,3.4091252E-4,3.887084E-6,1.1676338E-4,-4.4205473E-5,-4.0938822E-4],"split_indices":[0,11,8,0,3,3,13,0,0,0,0,0,0,0,0],"split_type":[0,0,0,0,0,0,0,0,0,0,0,0,0,0,0],"sum_hessian":[1.067E3,4E1,1.027E3,1.8E1,2.2E1,7.86E2,2.41E2,9E0,9E0,1E0,2.1E1,7.08E2,7.8E1,2.07E2,3.4E1],